{"learner":{"attributes":{"best_iteration":"51","best_score":"0.08059381242645414"},"feature_names":[],"feature_types":[],"gradient_booster":{"model":{"gbtree_model_param":{"num_parallel_tree":"1","num_trees":"306"},"iteration_indptr":[0,3,6,9,12,15,18,21,24,27,30,33,36,39,42,45,48,51,54,57,60,63,66,69,72,75,78,81,84,87,90,93,96,99,102,105,108,111,114,117,120,123,126,129,132,135,138,141,144,147,150,153,156,159,162,165,168,171,174,177,180,183,186,189,192,195,198,201,204,207,210,213,216,219,222,225,228,231,234,237,240,243,246,249,252,255,258,261,264,267,270,273,276,279,282,285,288,291,294,297,300,303,306],"tree_info":[0,1,2,0,1,2,0,1,2,0,1,2,0,1,2,0,1,2,0,1,2,0,1,2,0,1,2,0,1,2,0,1,2,0,1,2,0,1,2,0,1,2,0,1,2,0,1,2,0,1,2,0,1,2,0,1,2,0,1,2,0,1,2,0,1,2,0,1,2,0,1,2,0,1,2,0,1,2,0,1,2,0,1,2,0,1,2,0,1,2,0,1,2,0,1,2,0,1,2,0,1,2,0,1,2,0,1,2,0,1,2,0,1,2,0,1,2,0,1,2,0,1,2,0,1,2,0,1,2,0,1,2,0,1,2,0,1,2,0,1,2,0,1,2,0,1,2,0,1,2,0,1,2,0,1,2,0,1,2,0,1,2,0,1,2,0,1,2,0,1,2,0,1,2,0,1,2,0,1,2,0,1,2,0,1,2,0,1,2,0,1,2,0,1,2,0,1,2,0,1,2,0,1,2,0,1,2,0,1,2,0,1,2,0,1,2,0,1,2,0,1,2,0,1,2,0,1,2,0,1,2,0,1,2,0,1,2,0,1,2,0,1,2,0,1,2,0,1,2,0,1,2,0,1,2,0,1,2,0,1,2,0,1,2,0,1,2,0,1,2,0,1,2,0,1,2,0,1,2,0,1,2,0,1,2,0,1,2,0,1,2,0,1,2,0,1,2,0,1,2,0,1,2,0,1,2],"trees":[{"base_weights":[1.3129059E-2,1.416149E-1,-7.278689E-2],"categories":[],"categories_nodes":[],"categories_segments":[],"categories_sizes":[],"default_left":[0,0,0],"id":0,"left_children":[1,-1,-1],"loss_changes":[5.382112E1,0E0,0E0],"parents":[2147483647,0,0],"right_children":[2,-1,-1],"split_conditions":[3E0,1.416149E-1,-7.278689E-2],"split_indices":[2,0,0],"split_type":[0,0,0],"sum_hessian":[4.9777775E1,1.6888887E1,3.2888885E1],"tree_param":{"num_deleted":"0","num_feature":"4","num_nodes":"3","size_leaf_vector":"1"}},{"base_weights":[-6.5645953E-3,-7.080746E-2,3.639344E-1,1.2071006E0,-6.4137936E-1,1.3529412E0,-1.2000003E-2,-2.0689659E-2,-6.960001E-2,4.285714E-2,1.4042553E-1],"categories":[],"categories_nodes":[],"categories_segments":[],"categories_sizes":[],"default_left":[0,0,0,0,0,0,0,0,0,0,0],"id":1,"left_children":[1,-1,3,5,7,9,-1,-1,-1,-1,-1],"loss_changes":[1.3455281E1,0E0,2.950001E1,3.7966995E0,2.3834467E-1,2.0454216E-1,0E0,0E0,0E0,0E0,0E0],"parents":[2147483647,0,0,2,2,3,3,4,4,5,5],"right_children":[2,-1,4,6,8,10,-1,-1,-1,-1,-1],"split_conditions":[3E0,-7.080746E-2,1.8E0,5.1E0,5E0,5.1E0,-1.2000003E-2,-2.0689659E-2,-6.960001E-2,4.285714E-2,1.4042553E-1],"split_indices":[2,0,3,2,2,0,0,0,0,0,0],"split_type":[0,0,0,0,0,0,0,0,0,0,0],"sum_hessian":[4.9777775E1,1.6888887E1,3.2888885E1,1.7777777E1,1.5111111E1,1.5999999E1,1.7777777E0,2.222222E0,1.2888888E1,1.3333333E0,1.4666666E1],"tree_param":{"num_deleted":"0","num_feature":"4","num_nodes":"11","size_leaf_vector":"1"}},{"base_weights":[-6.5645953E-3,-6.9696975E-1,1.2071006E0,-7.2490714E-2,-3.2432437E-1,2.7272725E-1,1.3448276E-1,-2.5544848E-9,-4.8000004E-2,4.285714E-2,-2.5544848E-9],"categories":[],"categories_nodes":[],"categories_segments":[],"categories_sizes":[],"default_left":[0,0,0,0,0,0,0,0,0,0,0],"id":2,"left_children":[1,3,5,-1,7,9,-1,-1,-1,-1,-1],"loss_changes":[4.338906E1,1.08449936E-1,2.0497112E0,0E0,2.0756751E-1,1.5584418E-1,0E0,0E0,0E0,0E0,0E0],"parents":[2147483647,0,0,1,1,2,2,4,4,5,5],"right_children":[2,4,6,-1,8,10,-1,-1,-1,-1,-1],"split_conditions":[4.8E0,1.5E0,1.8E0,-7.2490714E-2,3E0,6.4E0,1.3448276E-1,-2.5544848E-9,-4.8000004E-2,4.285714E-2,-2.5544848E-9],"split_indices":[2,3,3,0,1,0,0,0,0,0,0],"split_type":[0,0,0,0,0,0,0,0,0,0,0],"sum_hessian":[4.9777775E1,3.1999998E1,1.7777777E1,2.8888887E1,3.111111E0,2.6666665E0,1.5111111E1,1.3333333E0,1.7777777E0,1.3333333E0,1.3333333E0],"tree_param":{"num_deleted":"0","num_feature":"4","num_nodes":"11","size_leaf_vector":"1"}},{"base_weights":[1.2154917E-2,1.23891056E-1,-7.013276E-2],"categories":[],"categories_nodes":[],"categories_segments":[],"categories_sizes":[],"default_left":[0,0,0],"id":3,"left_children":[1,-1,-1],"loss_changes":[4.5105633E1,0E0,0E0],"parents":[2147483647,0,0],"right_children":[2,-1,-1],"split_conditions":[3E0,1.23891056E-1,-7.013276E-2],"split_indices":[2,0,0],"split_type":[0,0,0],"sum_hessian":[4.954076E1,1.7946785E1,3.1593975E1],"tree_param":{"num_deleted":"0","num_feature":"4","num_nodes":"3","size_leaf_vector":"1"}},{"base_weights":[-6.423284E-3,-6.817139E-2,3.3289197E-1,1.0660533E0,-6.1583763E-1,1.1908674E0,-1.2203875E-2,-1.9001996E-2,-6.708494E-2,1.23708166E-1,3.7422962E-2],"categories":[],"categories_nodes":[],"categories_segments":[],"categories_sizes":[],"default_left":[0,0,0,0,0,0,0,0,0,0,0],"id":4,"left_children":[1,-1,3,5,7,9,-1,-1,-1,-1,-1],"loss_changes":[1.1807976E1,0E0,2.452241E1,3.0697117E0,2.377348E-1,2.1406364E-1,0E0,0E0,0E0,0E0,0E0],"parents":[2147483647,0,0,2,2,3,3,4,4,5,5],"right_children":[2,-1,4,6,8,10,-1,-1,-1,-1,-1],"split_conditions":[3E0,-6.817139E-2,1.8E0,5.1E0,5E0,1.6E0,-1.2203875E-2,-1.9001996E-2,-6.708494E-2,1.23708166E-1,3.7422962E-2],"split_indices":[2,0,3,2,2,3,0,0,0,0,0],"split_type":[0,0,0,0,0,0,0,0,0,0,0],"sum_hessian":[4.9542114E1,1.623093E1,3.3311184E1,1.8720587E1,1.4590598E1,1.693876E1,1.781826E0,2.1789148E0,1.2411684E1,1.55442505E1,1.39451E0],"tree_param":{"num_deleted":"0","num_feature":"4","num_nodes":"11","size_leaf_vector":"1"}},{"base_weights":[-5.7338253E-3,-6.706692E-1,1.0675712E0,-6.985318E-2,-3.0694672E-1,2.5718004E-1,1.1809044E-1,6.2297017E-4,-4.6139263E-2,4.1274372E-2,-8.427131E-4],"categories":[],"categories_nodes":[],"categories_segments":[],"categories_sizes":[],"default_left":[0,0,0,0,0,0,0,0,0,0,0],"id":5,"left_children":[1,3,5,-1,7,9,-1,-1,-1,-1,-1],"loss_changes":[3.677084E1,1.07943535E-1,1.5066681E0,0E0,1.9862956E-1,1.5622692E-1,0E0,0E0,0E0,0E0,0E0],"parents":[2147483647,0,0,1,1,2,2,4,4,5,5],"right_children":[2,4,6,-1,8,10,-1,-1,-1,-1,-1],"split_conditions":[4.8E0,1.5E0,1.8E0,-6.985318E-2,3E0,1.6E0,1.1809044E-1,6.2297017E-4,-4.6139263E-2,4.1274372E-2,-8.427131E-4],"split_indices":[2,3,3,0,1,3,0,0,0,0,0],"split_type":[0,0,0,0,0,0,0,0,0,0,0],"sum_hessian":[4.9519745E1,3.0808413E1,1.8711332E1,2.7761274E1,3.047137E0,2.6968303E0,1.6014502E1,1.3233626E0,1.7237744E0,1.3513777E0,1.3454525E0],"tree_param":{"num_deleted":"0","num_feature":"4","num_nodes":"11","size_leaf_vector":"1"}},{"base_weights":[1.1076444E-2,1.10674255E-1,-6.778315E-2],"categories":[],"categories_nodes":[],"categories_segments":[],"categories_sizes":[],"default_left":[0,0,0],"id":6,"left_children":[1,-1,-1],"loss_changes":[3.8358917E1,0E0,0E0],"parents":[2147483647,0,0],"right_children":[2,-1,-1],"split_conditions":[3E0,1.10674255E-1,-6.778315E-2],"split_indices":[2,0,0],"split_type":[0,0,0],"sum_hessian":[4.8825226E1,1.8614107E1,3.021112E1],"tree_param":{"num_deleted":"0","num_feature":"4","num_nodes":"3","size_leaf_vector":"1"}},{"base_weights":[-6.189362E-3,-6.5799855E-2,3.0737528E-1,9.5719117E-1,-5.9212554E-1,1.0681746E0,-1.2478399E-2,-1.7315615E-2,-6.479957E-2,3.386349E-2,1.1092818E-1],"categories":[],"categories_nodes":[],"categories_segments":[],"categories_sizes":[],"default_left":[0,0,0,0,0,0,0,0,0,0,0],"id":7,"left_children":[1,-1,3,5,7,9,-1,-1,-1,-1,-1],"loss_changes":[1.039886E1,0E0,2.0654234E1,2.5750923E0,2.3965836E-1,1.8058395E-1,0E0,0E0,0E0,0E0,0E0],"parents":[2147483647,0,0,2,2,3,3,4,4,5,5],"right_children":[2,-1,4,6,8,10,-1,-1,-1,-1,-1],"split_conditions":[3E0,-6.5799855E-2,1.8E0,5.1E0,5E0,5.1E0,-1.2478399E-2,-1.7315615E-2,-6.479957E-2,3.386349E-2,1.1092818E-1],"split_indices":[2,0,3,2,2,0,0,0,0,0,0],"split_type":[0,0,0,0,0,0,0,0,0,0,0],"sum_hessian":[4.8889374E1,1.5523049E1,3.3366325E1,1.9334555E1,1.4031773E1,1.7547388E1,1.7871652E0,2.1333184E0,1.1898454E1,1.4287554E0,1.6118633E1],"tree_param":{"num_deleted":"0","num_feature":"4","num_nodes":"11","size_leaf_vector":"1"}},{"base_weights":[-4.876836E-3,-6.466957E-1,9.5872927E-1,-6.745898E-2,-2.9184315E-1,2.3965222E-1,1.0566133E-1,1.2786811E-3,-4.4611525E-2,3.9339405E-2,-1.6717019E-3],"categories":[],"categories_nodes":[],"categories_segments":[],"categories_sizes":[],"default_left":[0,0,0,0,0,0,0,0,0,0,0],"id":8,"left_children":[1,3,5,-1,7,9,-1,-1,-1,-1,-1],"loss_changes":[3.1448784E1,1.0518932E-1,1.1778011E0,0E0,1.9305432E-1,1.5356536E-1,0E0,0E0,0E0,0E0,0E0],"parents":[2147483647,0,0,1,1,2,2,4,4,5,5],"right_children":[2,4,6,-1,8,10,-1,-1,-1,-1,-1],"split_conditions":[4.8E0,1.5E0,1.8E0,-6.745898E-2,3E0,1.6E0,1.0566133E-1,1.2786811E-3,-4.4611525E-2,3.9339405E-2,-1.6717019E-3],"split_indices":[2,3,3,0,1,3,0,0,0,0,0],"split_type":[0,0,0,0,0,0,0,0,0,0,0],"sum_hessian":[4.8847607E1,2.951665E1,1.933096E1,2.6530132E1,2.9865165E0,2.7292964E0,1.6601662E1,1.3123093E0,1.6742072E0,1.3720256E0,1.3572707E0],"tree_param":{"num_deleted":"0","num_feature":"4","num_nodes":"11","size_leaf_vector":"1"}},{"base_weights":[9.897837E-3,1.00491084E-1,-6.570069E-2],"categories":[],"categories_nodes":[],"categories_segments":[],"categories_sizes":[],"default_left":[0,0,0],"id":9,"left_children":[1,-1,-1],"loss_changes":[3.29848E1,0E0,0E0],"parents":[2147483647,0,0],"right_children":[2,-1,-1],"split_conditions":[3E0,1.00491084E-1,-6.570069E-2],"split_indices":[2,0,0],"split_type":[0,0,0],"sum_hessian":[4.771247E1,1.8942974E1,2.8769495E1],"tree_param":{"num_deleted":"0","num_feature":"4","num_nodes":"3","size_leaf_vector":"1"}},{"base_weights":[-5.881971E-3,-6.3660674E-2,2.861056E-1,8.708534E-1,-5.7004356E-1,9.722509E-1,-1.2677996E-2,-1.5640859E-2,-6.2720135E-2,1.0103577E-1,3.0571828E-2],"categories":[],"categories_nodes":[],"categories_segments":[],"categories_sizes":[],"default_left":[0,0,0,0,0,0,0,0,0,0,0],"id":10,"left_children":[1,-1,3,5,7,9,-1,-1,-1,-1,-1],"loss_changes":[9.185263E0,0E0,1.7571238E1,2.213273E0,2.4342823E-1,1.7040634E-1,0E0,0E0,0E0,0E0,0E0],"parents":[2147483647,0,0,2,2,3,3,4,4,5,5],"right_children":[2,-1,4,6,8,10,-1,-1,-1,-1,-1],"split_conditions":[3E0,-6.3660674E-2,1.8E0,5.1E0,5E0,1.6E0,-1.2677996E-2,-1.5640859E-2,-6.2720135E-2,1.0103577E-1,3.0571828E-2],"split_indices":[2,0,3,2,2,3,0,0,0,0,0],"split_type":[0,0,0,0,0,0,0,0,0,0,0],"sum_hessian":[4.7886517E1,1.4779958E1,3.310656E1,1.9660982E1,1.3445577E1,1.787014E1,1.7908428E0,2.0860245E0,1.1359552E1,1.6415781E1,1.4543576E0],"tree_param":{"num_deleted":"0","num_feature":"4","num_nodes":"11","size_leaf_vector":"1"}},{"base_weights":[-3.9852248E-3,-6.011882E-1,9.116536E-1,-6.57789E-2,3.1155406E-2,2.268044E-1,1.009495E-1,3.756997E-2,-1.9995263E-3],"categories":[],"categories_nodes":[],"categories_segments":[],"categories_sizes":[],"default_left":[0,0,0,0,0,0,0,0,0],"id":11,"left_children":[1,3,5,-1,-1,7,-1,-1,-1],"loss_changes":[2.7249811E1,1.7629147E0,1.089304E0,0E0,0E0,1.4528175E-1,0E0,0E0,0E0],"parents":[2147483647,0,0,1,1,2,2,5,5],"right_children":[2,4,6,-1,-1,8,-1,-1,-1],"split_conditions":[4.9E0,1.7E0,1.8E0,-6.57789E-2,3.1155406E-2,1.6E0,1.009495E-1,3.756997E-2,-1.9995263E-3],"split_indices":[2,3,3,0,0,3,0,0,0],"split_type":[0,0,0,0,0,0,0,0,0],"sum_hessian":[4.7830746E1,2.915714E1,1.8673607E1,2.7717644E1,1.4394963E0,2.7491052E0,1.5924502E1,1.3888936E0,1.3602115E0],"tree_param":{"num_deleted":"0","num_feature":"4","num_nodes":"9","size_leaf_vector":"1"}},{"base_weights":[8.482272E-3,9.243073E-2,-6.384667E-2],"categories":[],"categories_nodes":[],"categories_segments":[],"categories_sizes":[],"default_left":[0,0,0],"id":12,"left_children":[1,-1,-1],"loss_changes":[2.8609016E1,0E0,0E0],"parents":[2147483647,0,0],"right_children":[2,-1,-1],"split_conditions":[3E0,9.243073E-2,-6.384667E-2],"split_indices":[2,0,0],"split_type":[0,0,0],"sum_hessian":[4.6289875E1,1.8985361E1,2.7304514E1],"tree_param":{"num_deleted":"0","num_feature":"4","num_nodes":"3","size_leaf_vector":"1"}},{"base_weights":[-6.087842E-3,-6.1727416E-2,2.674146E-1,7.9943144E-1,-5.494179E-1,8.9395916E-1,-1.2810496E-2,-1.4440444E-2,-6.0763836E-2,2.6915861E-2,9.312336E-2],"categories":[],"categories_nodes":[],"categories_segments":[],"categories_sizes":[],"default_left":[0,0,0,0,0,0,0,0,0,0,0],"id":13,"left_children":[1,-1,3,5,7,9,-1,-1,-1,-1,-1],"loss_changes":[8.12119E0,0E0,1.503164E1,1.9331408E0,2.3853207E-1,1.9065571E-1,0E0,0E0,0E0,0E0,0E0],"parents":[2147483647,0,0,2,2,3,3,4,4,5,5],"right_children":[2,-1,4,6,8,10,-1,-1,-1,-1,-1],"split_conditions":[3E0,-6.1727416E-2,1.8E0,5.1E0,5E0,5.1E0,-1.2810496E-2,-1.4440444E-2,-6.0763836E-2,2.6915861E-2,9.312336E-2],"split_indices":[2,0,3,2,2,0,0,0,0,0,0],"split_type":[0,0,0,0,0,0,0,0,0,0,0],"sum_hessian":[4.6595577E1,1.4016491E1,3.2579086E1,1.9742056E1,1.2837031E1,1.7949022E1,1.7930323E0,2.0508056E0,1.0786226E1,1.4733572E0,1.6475666E1],"tree_param":{"num_deleted":"0","num_feature":"4","num_nodes":"11","size_leaf_vector":"1"}},{"base_weights":[-2.3451438E-3,-5.812569E-1,8.390997E-1,-6.384484E-2,2.9233238E-2,2.1203509E-1,9.288844E-2,3.5945933E-2,-2.6955958E-3],"categories":[],"categories_nodes":[],"categories_segments":[],"categories_sizes":[],"default_left":[0,0,0,0,0,0,0,0,0],"id":14,"left_children":[1,3,5,-1,-1,7,-1,-1,-1],"loss_changes":[2.3620794E1,1.6217546E0,9.158268E-1,0E0,0E0,1.4256515E-1,0E0,0E0,0E0],"parents":[2147483647,0,0,1,1,2,2,5,5],"right_children":[2,4,6,-1,-1,8,-1,-1,-1],"split_conditions":[4.9E0,1.7E0,1.8E0,-6.384484E-2,2.9233238E-2,1.6E0,9.288844E-2,3.5945933E-2,-2.6955958E-3],"split_indices":[2,3,3,0,0,3,0,0,0],"split_type":[0,0,0,0,0,0,0,0,0],"sum_hessian":[4.6489223E1,2.7724237E1,1.8764986E1,2.6273361E1,1.4508768E0,2.771332E0,1.5993654E1,1.4022616E0,1.3690705E0],"tree_param":{"num_deleted":"0","num_feature":"4","num_nodes":"9","size_leaf_vector":"1"}},{"base_weights":[7.0709432E-3,8.592636E-2,-6.218784E-2],"categories":[],"categories_nodes":[],"categories_segments":[],"categories_sizes":[],"default_left":[0,0,0],"id":15,"left_children":[1,-1,-1],"loss_changes":[2.4984451E1,0E0,0E0],"parents":[2147483647,0,0],"right_children":[2,-1,-1],"split_conditions":[3E0,8.592636E-2,-6.218784E-2],"split_indices":[2,0,0],"split_type":[0,0,0],"sum_hessian":[4.4617035E1,1.8790596E1,2.582644E1],"tree_param":{"num_deleted":"0","num_feature":"4","num_nodes":"3","size_leaf_vector":"1"}},{"base_weights":[-6.273252E-3,-5.9970476E-2,2.513725E-1,8.040684E-1,-4.438378E-1,8.6363815E-2,7.372797E-4,1.8073508E-1,-5.991068E-2,-5.8727413E-3,3.4220148E-2],"categories":[],"categories_nodes":[],"categories_segments":[],"categories_sizes":[],"default_left":[0,0,0,0,0,0,0,0,0,0,0],"id":16,"left_children":[1,-1,3,5,7,-1,-1,9,-1,-1,-1],"loss_changes":[7.195461E0,0E0,1.2972135E1,8.785639E-1,1.5809176E0,0E0,0E0,1.6670382E-1,0E0,0E0,0E0],"parents":[2147483647,0,0,2,2,3,3,4,4,7,7],"right_children":[2,-1,4,6,8,-1,-1,10,-1,-1,-1],"split_conditions":[3E0,-5.9970476E-2,4.9E0,1.7E0,1.8E0,8.6363815E-2,7.372797E-4,1.6E0,-5.991068E-2,-5.8727413E-3,3.4220148E-2],"split_indices":[2,0,2,3,3,0,0,3,0,0,0],"split_type":[0,0,0,0,0,0,0,0,0,0,0],"sum_hessian":[4.5075462E1,1.3243735E1,3.1831728E1,1.7646267E1,1.4185461E1,1.634045E1,1.3058167E0,2.7917151E0,1.1393745E1,1.3805618E0,1.4111533E0],"tree_param":{"num_deleted":"0","num_feature":"4","num_nodes":"11","size_leaf_vector":"1"}},{"base_weights":[-7.297351E-4,-5.631861E-1,7.8014356E-1,-6.2116932E-2,2.745801E-2,2.0126323E-1,8.6369716E-2,3.444993E-2,-2.9485798E-3],"categories":[],"categories_nodes":[],"categories_segments":[],"categories_sizes":[],"default_left":[0,0,0,0,0,0,0,0,0],"id":17,"left_children":[1,3,5,-1,-1,7,-1,-1,-1],"loss_changes":[2.0610176E1,1.4955826E0,7.7651405E-1,0E0,0E0,1.3516225E-1,0E0,0E0,0E0],"parents":[2147483647,0,0,1,1,2,2,5,5],"right_children":[2,4,6,-1,-1,8,-1,-1,-1],"split_conditions":[4.9E0,1.7E0,1.8E0,-6.2116932E-2,2.745801E-2,1.6E0,8.6369716E-2,3.444993E-2,-2.9485798E-3],"split_indices":[2,3,3,0,0,3,0,0,0],"split_type":[0,0,0,0,0,0,0,0,0],"sum_hessian":[4.4925507E1,2.6277105E1,1.8648401E1,2.4817953E1,1.4591525E0,2.7821012E0,1.58663E1,1.412401E0,1.3697002E0],"tree_param":{"num_deleted":"0","num_feature":"4","num_nodes":"9","size_leaf_vector":"1"}},{"base_weights":[5.727978E-3,8.058549E-2,-6.0681045E-2],"categories":[],"categories_nodes":[],"categories_segments":[],"categories_sizes":[],"default_left":[0,0,0],"id":18,"left_children":[1,-1,-1],"loss_changes":[2.1937115E1,0E0,0E0],"parents":[2147483647,0,0],"right_children":[2,-1,-1],"split_conditions":[3E0,8.058549E-2,-6.0681045E-2],"split_indices":[2,0,0],"split_type":[0,0,0],"sum_hessian":[4.2761974E1,1.8404953E1,2.4357023E1],"tree_param":{"num_deleted":"0","num_feature":"4","num_nodes":"3","size_leaf_vector":"1"}},{"base_weights":[-6.1403415E-3,-5.8366563E-2,2.3800837E-1,7.51857E-1,-4.2571342E-1,8.0869615E-2,6.331081E-4,1.6955829E-1,-5.823732E-2,-5.720352E-3,3.21862E-2],"categories":[],"categories_nodes":[],"categories_segments":[],"categories_sizes":[],"default_left":[0,0,0,0,0,0,0,0,0,0,0],"id":19,"left_children":[1,-1,3,5,7,-1,-1,9,-1,-1,-1],"loss_changes":[6.3946214E0,0E0,1.1197486E1,7.719526E-1,1.4561403E0,0E0,0E0,1.4989561E-1,0E0,0E0,0E0],"parents":[2147483647,0,0,2,2,3,3,4,4,7,7],"right_children":[2,-1,4,6,8,-1,-1,10,-1,-1,-1],"split_conditions":[3E0,-5.8366563E-2,4.9E0,1.7E0,1.8E0,8.0869615E-2,6.331081E-4,1.6E0,-5.823732E-2,-5.720352E-3,3.21862E-2],"split_indices":[2,0,2,3,3,0,0,3,0,0,0],"split_type":[0,0,0,0,0,0,0,0,0,0,0],"sum_hessian":[4.3366055E1,1.2472404E1,3.0893652E1,1.7337948E1,1.3555704E1,1.6031006E1,1.3069415E0,2.8070846E0,1.0748619E1,1.3787315E0,1.4283531E0],"tree_param":{"num_deleted":"0","num_feature":"4","num_nodes":"11","size_leaf_vector":"1"}},{"base_weights":[4.923033E-4,-5.463102E-1,7.2909737E-1,-6.053676E-2,2.5818948E-2,1.888436E-1,8.0892906E-2,3.2402184E-2,-2.9480492E-3],"categories":[],"categories_nodes":[],"categories_segments":[],"categories_sizes":[],"default_left":[0,0,0,0,0,0,0,0,0],"id":20,"left_children":[1,3,5,-1,-1,7,-1,-1,-1],"loss_changes":[1.8003452E1,1.3828502E0,6.8280506E-1,0E0,0E0,1.2166345E-1,0E0,0E0,0E0],"parents":[2147483647,0,0,1,1,2,2,5,5],"right_children":[2,4,6,-1,-1,8,-1,-1,-1],"split_conditions":[4.9E0,1.7E0,1.8E0,-6.053676E-2,2.5818948E-2,1.6E0,8.0892906E-2,3.2402184E-2,-2.9480492E-3],"split_indices":[2,3,3,0,0,3,0,0,0],"split_type":[0,0,0,0,0,0,0,0,0],"sum_hessian":[4.3189262E1,2.4815762E1,1.83735E1,2.3349243E1,1.4665189E0,2.798747E0,1.5574754E1,1.429513E0,1.3692341E0],"tree_param":{"num_deleted":"0","num_feature":"4","num_nodes":"9","size_leaf_vector":"1"}},{"base_weights":[4.4389083E-3,7.613484E-2,-5.9316285E-2],"categories":[],"categories_nodes":[],"categories_segments":[],"categories_sizes":[],"default_left":[0,0,0],"id":21,"left_children":[1,-1,-1],"loss_changes":[1.9349125E1,0E0,0E0],"parents":[2147483647,0,0],"right_children":[2,-1,-1],"split_conditions":[3E0,7.613484E-2,-5.9316285E-2],"split_indices":[2,0,0],"split_type":[0,0,0],"sum_hessian":[4.077814E1,1.7870167E1,2.2907974E1],"tree_param":{"num_deleted":"0","num_feature":"4","num_nodes":"3","size_leaf_vector":"1"}},{"base_weights":[-6.024207E-3,-5.6894727E-2,2.2632465E-1,7.078978E-1,-4.085634E-1,7.629216E-2,5.630826E-4,1.5933467E-1,-5.670006E-2,-5.537137E-3,3.030099E-2],"categories":[],"categories_nodes":[],"categories_segments":[],"categories_sizes":[],"default_left":[0,0,0,0,0,0,0,0,0,0,0],"id":22,"left_children":[1,-1,3,5,7,-1,-1,9,-1,-1,-1],"loss_changes":[5.691988E0,0E0,9.713078E0,6.871357E-1,1.3436239E0,0E0,0E0,1.3458648E-1,0E0,0E0,0E0],"parents":[2147483647,0,0,2,2,3,3,4,4,7,7],"right_children":[2,-1,4,6,8,-1,-1,10,-1,-1,-1],"split_conditions":[3E0,-5.6894727E-2,4.9E0,1.7E0,1.8E0,7.629216E-2,5.630826E-4,1.6E0,-5.670006E-2,-5.537137E-3,3.030099E-2],"split_indices":[2,0,2,3,3,0,0,3,0,0,0],"split_type":[0,0,0,0,0,0,0,0,0,0,0],"sum_hessian":[4.153405E1,1.1711454E1,2.9822596E1,1.6893557E1,1.292904E1,1.5585999E1,1.3075577E0,2.819005E0,1.0110035E1,1.3765368E0,1.442468E0],"tree_param":{"num_deleted":"0","num_feature":"4","num_nodes":"11","size_leaf_vector":"1"}},{"base_weights":[1.6719819E-3,-5.307272E-1,6.85784E-1,-5.910601E-2,2.4297008E-2,1.7746793E-1,7.632802E-2,3.0503819E-2,-2.9089327E-3],"categories":[],"categories_nodes":[],"categories_segments":[],"categories_sizes":[],"default_left":[0,0,0,0,0,0,0,0,0],"id":23,"left_children":[1,3,5,-1,-1,7,-1,-1,-1],"loss_changes":[1.5783653E1,1.2812657E0,6.115999E-1,0E0,0E0,1.0931428E-1,0E0,0E0,0E0],"parents":[2147483647,0,0,1,1,2,2,5,5],"right_children":[2,4,6,-1,-1,8,-1,-1,-1],"split_conditions":[4.9E0,1.7E0,1.8E0,-5.910601E-2,2.4297008E-2,1.6E0,7.632802E-2,3.0503819E-2,-2.9089327E-3],"split_indices":[2,3,3,0,0,3,0,0,0],"split_type":[0,0,0,0,0,0,0,0,0],"sum_hessian":[4.133612E1,2.3371689E1,1.7964432E1,2.1899986E1,1.4717032E0,2.8117175E0,1.5152714E1,1.4434601E0,1.3682575E0],"tree_param":{"num_deleted":"0","num_feature":"4","num_nodes":"9","size_leaf_vector":"1"}},{"base_weights":[3.190186E-3,7.2377644E-2,-5.807499E-2],"categories":[],"categories_nodes":[],"categories_segments":[],"categories_sizes":[],"default_left":[0,0,0],"id":24,"left_children":[1,-1,-1],"loss_changes":[1.7131874E1,0E0,0E0],"parents":[2147483647,0,0],"right_children":[2,-1,-1],"split_conditions":[3E0,7.2377644E-2,-5.807499E-2],"split_indices":[2,0,0],"split_type":[0,0,0],"sum_hessian":[3.8715706E1,1.722297E1,2.1492737E1],"tree_param":{"num_deleted":"0","num_feature":"4","num_nodes":"3","size_leaf_vector":"1"}},{"base_weights":[-5.9244074E-3,-5.553637E-2,2.159977E-1,6.7036206E-1,-3.9224923E-1,7.242755E-2,5.2097003E-4,1.4995322E-1,-5.52795E-2,-5.330208E-3,2.8548995E-2],"categories":[],"categories_nodes":[],"categories_segments":[],"categories_sizes":[],"default_left":[0,0,0,0,0,0,0,0,0,0,0],"id":25,"left_children":[1,-1,3,5,7,-1,-1,9,-1,-1,-1],"loss_changes":[5.073621E0,0E0,8.459389E0,6.182499E-1,1.2417126E0,0E0,0E0,1.2066996E-1,0E0,0E0,0E0],"parents":[2147483647,0,0,2,2,3,3,4,4,7,7],"right_children":[2,-1,4,6,8,-1,-1,10,-1,-1,-1],"split_conditions":[3E0,-5.553637E-2,4.9E0,1.7E0,1.8E0,7.242755E-2,5.2097003E-4,1.6E0,-5.52795E-2,-5.330208E-3,2.8548995E-2],"split_indices":[2,0,2,3,3,0,0,3,0,0,0],"split_type":[0,0,0,0,0,0,0,0,0,0,0],"sum_hessian":[3.96262E1,1.0968254E1,2.8657948E1,1.6345575E1,1.2312371E1,1.503781E1,1.3077649E0,2.8278856E0,9.484486E0,1.3740497E0,1.453836E0],"tree_param":{"num_deleted":"0","num_feature":"4","num_nodes":"11","size_leaf_vector":"1"}},{"base_weights":[2.8205707E-3,-5.1624316E-1,6.4850277E-1,-5.7804417E-2,2.2880316E-2,1.6701606E-1,7.2472684E-2,2.8739307E-2,-2.8386225E-3],"categories":[],"categories_nodes":[],"categories_segments":[],"categories_sizes":[],"default_left":[0,0,0,0,0,0,0,0,0],"id":26,"left_children":[1,3,5,-1,-1,7,-1,-1,-1],"loss_changes":[1.3878931E1,1.1894178E0,5.561905E-1,0E0,0E0,9.8046154E-2,0E0,0E0,0E0],"parents":[2147483647,0,0,1,1,2,2,5,5],"right_children":[2,4,6,-1,-1,8,-1,-1,-1],"split_conditions":[4.9E0,1.7E0,1.8E0,-5.7804417E-2,2.2880316E-2,1.6E0,7.2472684E-2,2.8739307E-2,-2.8386225E-3],"split_indices":[2,3,3,0,0,3,0,0,0],"split_type":[0,0,0,0,0,0,0,0,0],"sum_hessian":[3.9412167E1,2.1959444E1,1.7452723E1,2.0484426E1,1.475018E0,2.8214593E0,1.4631264E1,1.454588E0,1.3668711E0],"tree_param":{"num_deleted":"0","num_feature":"4","num_nodes":"9","size_leaf_vector":"1"}},{"base_weights":[1.9709398E-3,6.916894E-2,-5.694076E-2],"categories":[],"categories_nodes":[],"categories_segments":[],"categories_sizes":[],"default_left":[0,0,0],"id":27,"left_children":[1,-1,-1],"loss_changes":[1.5218329E1,0E0,0E0],"parents":[2147483647,0,0],"right_children":[2,-1,-1],"split_conditions":[3E0,6.916894E-2,-5.694076E-2],"split_indices":[2,0,0],"split_type":[0,0,0],"sum_hessian":[3.6616947E1,1.6495026E1,2.0121922E1],"tree_param":{"num_deleted":"0","num_feature":"4","num_nodes":"3","size_leaf_vector":"1"}},{"base_weights":[-5.840197E-3,-5.4274976E-2,2.0677312E-1,6.3789505E-1,-3.7665337E-1,6.912582E-2,5.01497E-4,1.4131895E-1,-5.3958546E-2,-5.105575E-3,2.6916891E-2],"categories":[],"categories_nodes":[],"categories_segments":[],"categories_sizes":[],"default_left":[0,0,0,0,0,0,0,0,0,0,0],"id":28,"left_children":[1,-1,3,5,7,-1,-1,9,-1,-1,-1],"loss_changes":[4.5279436E0,0E0,7.3920727E0,5.612831E-1,1.1490113E0,0E0,0E0,1.08042724E-1,0E0,0E0,0E0],"parents":[2147483647,0,0,2,2,3,3,4,4,7,7],"right_children":[2,-1,4,6,8,-1,-1,10,-1,-1,-1],"split_conditions":[3E0,-5.4274976E-2,4.9E0,1.7E0,1.8E0,6.912582E-2,5.01497E-4,1.6E0,-5.3958546E-2,-5.105575E-3,2.6916891E-2],"split_indices":[2,0,2,3,3,0,0,3,0,0,0],"split_type":[0,0,0,0,0,0,0,0,0,0,0],"sum_hessian":[3.7682068E1,1.0248616E1,2.743345E1,1.5722199E1,1.171125E1,1.4414553E1,1.3076465E0,2.8341014E0,8.877149E0,1.371331E0,1.4627705E0],"tree_param":{"num_deleted":"0","num_feature":"4","num_nodes":"11","size_leaf_vector":"1"}},{"base_weights":[3.9465236E-3,-5.0268793E-1,6.159873E-1,-5.6614157E-2,2.155873E-2,1.5738545E-1,6.917794E-2,2.7095318E-2,-2.7434097E-3],"categories":[],"categories_nodes":[],"categories_segments":[],"categories_sizes":[],"default_left":[0,0,0,0,0,0,0,0,0],"id":29,"left_children":[1,3,5,-1,-1,7,-1,-1,-1],"loss_changes":[1.2234219E1,1.1060886E0,5.121083E-1,0E0,0E0,8.778924E-2,0E0,0E0,0E0],"parents":[2147483647,0,0,1,1,2,2,5,5],"right_children":[2,4,6,-1,-1,8,-1,-1,-1],"split_conditions":[4.9E0,1.7E0,1.8E0,-5.6614157E-2,2.155873E-2,1.6E0,6.917794E-2,2.7095318E-2,-2.7434097E-3],"split_indices":[2,3,3,0,0,3,0,0,0],"split_type":[0,0,0,0,0,0,0,0,0],"sum_hessian":[3.745631E1,2.0590553E1,1.6865757E1,1.9113813E1,1.4767399E0,2.8283784E0,1.4037379E1,1.4632194E0,1.365159E0],"tree_param":{"num_deleted":"0","num_feature":"4","num_nodes":"9","size_leaf_vector":"1"}},{"base_weights":[7.724177E-4,6.639959E-2,-5.5899095E-2],"categories":[],"categories_nodes":[],"categories_segments":[],"categories_sizes":[],"default_left":[0,0,0],"id":30,"left_children":[1,-1,-1],"loss_changes":[1.3556698E1,0E0,0E0],"parents":[2147483647,0,0],"right_children":[2,-1,-1],"split_conditions":[3E0,6.639959E-2,-5.5899095E-2],"split_indices":[2,0,0],"split_type":[0,0,0],"sum_hessian":[3.451675E1,1.5713155E1,1.8803596E1],"tree_param":{"num_deleted":"0","num_feature":"4","num_nodes":"3","size_leaf_vector":"1"}},{"base_weights":[-5.7709035E-3,-5.3095873E-2,1.984485E-1,6.094724E-1,-3.6167687E-1,6.627422E-2,5.002082E-4,1.333507E-1,-5.2722067E-2,-4.868285E-3,2.5393233E-2],"categories":[],"categories_nodes":[],"categories_segments":[],"categories_sizes":[],"default_left":[0,0,0,0,0,0,0,0,0,0,0],"id":31,"left_children":[1,-1,3,5,7,-1,-1,9,-1,-1,-1],"loss_changes":[4.0452642E0,0E0,6.477358E0,5.134115E-1,1.0643445E0,0E0,0E0,9.660576E-2,0E0,0E0,0E0],"parents":[2147483647,0,0,2,2,3,3,4,4,7,7],"right_children":[2,-1,4,6,8,-1,-1,10,-1,-1,-1],"split_conditions":[3E0,-5.3095873E-2,4.9E0,1.7E0,1.8E0,6.627422E-2,5.002082E-4,1.6E0,-5.2722067E-2,-4.868285E-3,2.5393233E-2],"split_indices":[2,0,2,3,3,0,0,3,0,0,0],"split_type":[0,0,0,0,0,0,0,0,0,0,0],"sum_hessian":[3.5734417E1,9.556969E0,2.6177448E1,1.5047436E1,1.1130013E1,1.3740165E1,1.3072708E0,2.8379943E0,8.292019E0,1.3684336E0,1.4695607E0],"tree_param":{"num_deleted":"0","num_feature":"4","num_nodes":"11","size_leaf_vector":"1"}},{"base_weights":[5.056248E-3,-4.8991257E-1,5.872766E-1,-5.55195E-2,2.0323543E-2,1.4848822E-1,6.633172E-2,2.5560368E-2,-2.6286466E-3],"categories":[],"categories_nodes":[],"categories_segments":[],"categories_sizes":[],"default_left":[0,0,0,0,0,0,0,0,0],"id":32,"left_children":[1,3,5,-1,-1,7,-1,-1,-1],"loss_changes":[1.0806511E1,1.0302324E0,4.762926E-1,0E0,0E0,7.847385E-2,0E0,0E0,0E0],"parents":[2147483647,0,0,1,1,2,2,5,5],"right_children":[2,4,6,-1,-1,8,-1,-1,-1],"split_conditions":[4.9E0,1.7E0,1.8E0,-5.55195E-2,2.0323543E-2,1.6E0,6.633172E-2,2.5560368E-2,-2.6286466E-3],"split_indices":[2,3,3,0,0,3,0,0,0],"split_type":[0,0,0,0,0,0,0,0,0],"sum_hessian":[3.5500675E1,1.9273794E1,1.622688E1,1.7796682E1,1.4771125E0,2.8328443E0,1.3394035E1,1.4696524E0,1.3631918E0],"tree_param":{"num_deleted":"0","num_feature":"4","num_nodes":"9","size_leaf_vector":"1"}},{"base_weights":[-4.121982E-4,6.398587E-2,-5.4937173E-2],"categories":[],"categories_nodes":[],"categories_segments":[],"categories_sizes":[],"default_left":[0,0,0],"id":33,"left_children":[1,-1,-1],"loss_changes":[1.2106243E1,0E0,0E0],"parents":[2147483647,0,0],"right_children":[2,-1,-1],"split_conditions":[3E0,6.398587E-2,-5.4937173E-2],"split_indices":[2,0,0],"split_type":[0,0,0],"sum_hessian":[3.2443237E1,1.4899657E1,1.7543581E1],"tree_param":{"num_deleted":"0","num_feature":"4","num_nodes":"3","size_leaf_vector":"1"}},{"base_weights":[-5.7158573E-3,-5.198608E-2,1.9086103E-1,5.188466E-1,-4.5480797E-1,6.521385E-2,-7.7585354E-2,9.773176E-4,-5.4153055E-2,-4.053061E-2,2.699236E-2],"categories":[],"categories_nodes":[],"categories_segments":[],"categories_sizes":[],"default_left":[0,0,0,0,0,0,0,0,0,0,0],"id":34,"left_children":[1,-1,3,5,7,-1,9,-1,-1,-1,-1],"loss_changes":[3.6174102E0,0E0,5.7236323E0,1.4538622E0,3.7845683E-1,0E0,5.783688E-1,0E0,0E0,0E0,0E0],"parents":[2147483647,0,0,2,2,3,3,4,4,6,6],"right_children":[2,-1,4,6,8,-1,10,-1,-1,-1,-1],"split_conditions":[3E0,-5.198608E-2,5.1E0,1.7E0,6.1E0,6.521385E-2,2.9E0,9.773176E-4,-5.4153055E-2,-4.053061E-2,2.699236E-2],"split_indices":[2,0,2,3,0,0,1,0,0,0,0],"split_type":[0,0,0,0,0,0,0,0,0,0,0],"sum_hessian":[3.3809772E1,8.8965E0,2.4913275E1,1.6651236E1,8.262038E0,1.3533368E1,3.1178677E0,1.4392335E0,6.822805E0,1.5190235E0,1.5988442E0],"tree_param":{"num_deleted":"0","num_feature":"4","num_nodes":"11","size_leaf_vector":"1"}},{"base_weights":[6.153976E-3,-4.7778663E-1,5.61629E-1,-5.450661E-2,1.9167231E-2,1.4024885E-1,6.384811E-2,2.417632E-2,-2.5471905E-3],"categories":[],"categories_nodes":[],"categories_segments":[],"categories_sizes":[],"default_left":[0,0,0,0,0,0,0,0,0],"id":35,"left_children":[1,3,5,-1,-1,7,-1,-1,-1],"loss_changes":[9.561657E0,9.609499E-1,4.4658995E-1,0E0,0E0,7.0677705E-2,0E0,0E0,0E0],"parents":[2147483647,0,0,1,1,2,2,5,5],"right_children":[2,4,6,-1,-1,8,-1,-1,-1],"split_conditions":[4.9E0,1.7E0,1.8E0,-5.450661E-2,1.9167231E-2,6.4E0,6.384811E-2,2.417632E-2,-2.5471905E-3],"split_indices":[2,3,3,0,0,0,0,0,0],"split_type":[0,0,0,0,0,0,0,0,0],"sum_hessian":[3.357118E1,1.8015545E1,1.5555634E1,1.6539196E1,1.4763502E0,2.8351905E0,1.2720443E1,1.4736369E0,1.3615538E0],"tree_param":{"num_deleted":"0","num_feature":"4","num_nodes":"9","size_leaf_vector":"1"}},{"base_weights":[-1.5711252E-3,6.1862476E-2,-5.405113E-2],"categories":[],"categories_nodes":[],"categories_segments":[],"categories_sizes":[],"default_left":[0,0,0],"id":36,"left_children":[1,-1,-1],"loss_changes":[1.0834826E1,0E0,0E0],"parents":[2147483647,0,0],"right_children":[2,-1,-1],"split_conditions":[3E0,6.1862476E-2,-5.405113E-2],"split_indices":[2,0,0],"split_type":[0,0,0],"sum_hessian":[3.041511E1,1.4072758E1,1.6342352E1],"tree_param":{"num_deleted":"0","num_feature":"4","num_nodes":"3","size_leaf_vector":"1"}},{"base_weights":[-6.1430424E-3,-5.0934106E-2,1.8309188E-1,4.9893138E-1,-4.4142973E-1,6.299975E-2,-7.034291E-2,1.8486578E-3,-5.3132158E-2,-3.9442886E-2,2.6250556E-2],"categories":[],"categories_nodes":[],"categories_segments":[],"categories_sizes":[],"default_left":[0,0,0,0,0,0,0,0,0,0,0],"id":37,"left_children":[1,-1,3,5,7,-1,9,-1,-1,-1,-1],"loss_changes":[3.230849E0,0E0,5.0884833E0,1.3023295E0,3.744694E-1,0E0,5.409546E-1,0E0,0E0,0E0,0E0],"parents":[2147483647,0,0,2,2,3,3,4,4,6,6],"right_children":[2,-1,4,6,8,-1,10,-1,-1,-1,-1],"split_conditions":[3E0,-5.0934106E-2,5.1E0,1.7E0,6.1E0,6.299975E-2,2.9E0,1.8486578E-3,-5.3132158E-2,-3.9442886E-2,2.6250556E-2],"split_indices":[2,0,2,3,0,0,1,0,0,0,0],"split_type":[0,0,0,0,0,0,0,0,0,0,0],"sum_hessian":[3.195007E1,8.26934E0,2.368073E1,1.5860629E1,7.820102E0,1.2805667E1,3.0549622E0,1.4084346E0,6.4116673E0,1.4541163E0,1.6008457E0],"tree_param":{"num_deleted":"0","num_feature":"4","num_nodes":"11","size_leaf_vector":"1"}},{"base_weights":[7.696472E-3,-4.659323E-1,5.381252E-1,-5.3557813E-2,1.811414E-2,1.2756716E-1,6.1750144E-2,2.3006748E-2,-3.301514E-3],"categories":[],"categories_nodes":[],"categories_segments":[],"categories_sizes":[],"default_left":[0,0,0,0,0,0,0,0,0],"id":38,"left_children":[1,3,5,-1,-1,7,-1,-1,-1],"loss_changes":[8.468962E0,8.9997625E-1,4.3922234E-1,0E0,0E0,7.0728496E-2,0E0,0E0,0E0],"parents":[2147483647,0,0,1,1,2,2,5,5],"right_children":[2,4,6,-1,-1,8,-1,-1,-1],"split_conditions":[4.9E0,1.7E0,1.8E0,-5.3557813E-2,1.811414E-2,1.6E0,6.1750144E-2,2.3006748E-2,-3.301514E-3],"split_indices":[2,3,3,0,0,3,0,0,0],"split_type":[0,0,0,0,0,0,0,0,0],"sum_hessian":[3.1712463E1,1.6817461E1,1.4895002E1,1.5338821E1,1.4786398E0,2.835589E0,1.2059413E1,1.4666885E0,1.3689005E0],"tree_param":{"num_deleted":"0","num_feature":"4","num_nodes":"9","size_leaf_vector":"1"}},{"base_weights":[-2.761547E-3,5.997773E-2,-5.322658E-2],"categories":[],"categories_nodes":[],"categories_segments":[],"categories_sizes":[],"default_left":[0,0,0],"id":39,"left_children":[1,-1,-1],"loss_changes":[9.716465E0,0E0,0E0],"parents":[2147483647,0,0],"right_children":[2,-1,-1],"split_conditions":[3E0,5.997773E-2,-5.322658E-2],"split_indices":[2,0,0],"split_type":[0,0,0],"sum_hessian":[2.8454054E1,1.3247083E1,1.5206971E1],"tree_param":{"num_deleted":"0","num_feature":"4","num_nodes":"3","size_leaf_vector":"1"}},{"base_weights":[-6.5241857E-3,-4.992981E-2,1.7593402E-1,4.8117638E-1,-4.2884877E-1,6.10736E-2,-6.3504554E-2,2.5029515E-3,-5.216353E-2,-3.8396593E-2,2.5547275E-2],"categories":[],"categories_nodes":[],"categories_segments":[],"categories_sizes":[],"default_left":[0,0,0,0,0,0,0,0,0,0,0],"id":40,"left_children":[1,-1,3,5,7,-1,9,-1,-1,-1,-1],"loss_changes":[2.888212E0,0E0,4.5389304E0,1.1727171E0,3.6685014E-1,0E0,5.063059E-1,0E0,0E0,0E0,0E0],"parents":[2147483647,0,0,2,2,3,3,4,4,6,6],"right_children":[2,-1,4,6,8,-1,10,-1,-1,-1,-1],"split_conditions":[3E0,-4.992981E-2,5.1E0,1.7E0,6.1E0,6.10736E-2,2.9E0,2.5029515E-3,-5.216353E-2,-3.8396593E-2,2.5547275E-2],"split_indices":[2,0,2,3,0,0,1,0,0,0,0],"split_type":[0,0,0,0,0,0,0,0,0,0,0],"sum_hessian":[3.0146132E1,7.676722E0,2.246941E1,1.5068505E1,7.4009047E0,1.20750265E1,2.9934785E0,1.380117E0,6.0207877E0,1.3916316E0,1.6018469E0],"tree_param":{"num_deleted":"0","num_feature":"4","num_nodes":"11","size_leaf_vector":"1"}},{"base_weights":[9.204023E-3,-4.545007E-1,5.166193E-1,-5.2668173E-2,1.7132645E-2,1.1574142E-1,5.9884664E-2,2.169438E-2,-3.7922324E-3],"categories":[],"categories_nodes":[],"categories_segments":[],"categories_sizes":[],"default_left":[0,0,0,0,0,0,0,0,0],"id":41,"left_children":[1,3,5,-1,-1,7,-1,-1,-1],"loss_changes":[7.5087867E0,8.439503E-1,4.3270683E-1,0E0,0E0,6.781526E-2,0E0,0E0,0E0],"parents":[2147483647,0,0,1,1,2,2,5,5],"right_children":[2,4,6,-1,-1,8,-1,-1,-1],"split_conditions":[4.9E0,1.7E0,1.8E0,-5.2668173E-2,1.7132645E-2,1.6E0,5.9884664E-2,2.169438E-2,-3.7922324E-3],"split_indices":[2,3,3,0,0,3,0,0,0],"split_type":[0,0,0,0,0,0,0,0,0],"sum_hessian":[2.9914852E1,1.5685155E1,1.4229698E1,1.42051935E1,1.4799614E0,2.8317611E0,1.1397937E1,1.4590364E0,1.3727248E0],"tree_param":{"num_deleted":"0","num_feature":"4","num_nodes":"9","size_leaf_vector":"1"}},{"base_weights":[-3.9653433E-3,5.829015E-2,-5.245241E-2],"categories":[],"categories_nodes":[],"categories_segments":[],"categories_sizes":[],"default_left":[0,0,0],"id":42,"left_children":[1,-1,-1],"loss_changes":[8.728905E0,0E0,0E0],"parents":[2147483647,0,0],"right_children":[2,-1,-1],"split_conditions":[3E0,5.829015E-2,-5.245241E-2],"split_indices":[2,0,0],"split_type":[0,0,0],"sum_hessian":[2.6571836E1,1.2434117E1,1.4137719E1],"tree_param":{"num_deleted":"0","num_feature":"4","num_nodes":"3","size_leaf_vector":"1"}},{"base_weights":[-6.8789762E-3,-4.8964262E-2,1.6927752E-1,4.64954E-1,-4.1659284E-1,5.9354722E-2,-5.7056546E-2,3.1275693E-3,-5.1239144E-2,-3.7388917E-2,2.4879687E-2],"categories":[],"categories_nodes":[],"categories_segments":[],"categories_sizes":[],"default_left":[0,0,0,0,0,0,0,0,0,0,0],"id":43,"left_children":[1,-1,3,5,7,-1,9,-1,-1,-1,-1],"loss_changes":[2.583888E0,0E0,4.054932E0,1.0599887E0,3.594215E-1,0E0,4.742121E-1,0E0,0E0,0E0,0E0],"parents":[2147483647,0,0,2,2,3,3,4,4,6,6],"right_children":[2,-1,4,6,8,-1,10,-1,-1,-1,-1],"split_conditions":[3E0,-4.8964262E-2,5.1E0,1.7E0,6.1E0,5.9354722E-2,2.9E0,3.1275693E-3,-5.1239144E-2,-3.7388917E-2,2.4879687E-2],"split_indices":[2,0,2,3,0,0,1,0,0,0,0],"split_type":[0,0,0,0,0,0,0,0,0,0,0],"sum_hessian":[2.8409046E1,7.1191506E0,2.1289894E1,1.4286291E1,7.003604E0,1.1352621E1,2.93367E0,1.3527733E0,5.6508307E0,1.3317101E0,1.6019598E0],"tree_param":{"num_deleted":"0","num_feature":"4","num_nodes":"11","size_leaf_vector":"1"}},{"base_weights":[1.06766E-2,-4.4340226E-1,4.9676117E-1,-5.1827785E-2,1.6217198E-2,1.046922E-1,5.8211863E-2,2.0470886E-2,-4.247245E-3],"categories":[],"categories_nodes":[],"categories_segments":[],"categories_sizes":[],"default_left":[0,0,0,0,0,0,0,0,0],"id":44,"left_children":[1,3,5,-1,-1,7,-1,-1,-1],"loss_changes":[6.6628265E0,7.9228425E-1,4.266286E-1,0E0,0E0,6.498044E-2,0E0,0E0,0E0],"parents":[2147483647,0,0,1,1,2,2,5,5],"right_children":[2,4,6,-1,-1,8,-1,-1,-1],"split_conditions":[4.9E0,1.7E0,1.8E0,-5.1827785E-2,1.6217198E-2,1.6E0,5.8211863E-2,2.0470886E-2,-4.247245E-3],"split_indices":[2,3,3,0,0,3,0,0,0],"split_type":[0,0,0,0,0,0,0,0,0],"sum_hessian":[2.8188745E1,1.4619582E1,1.3569163E1,1.313916E1,1.480422E0,2.8240554E0,1.0745108E1,1.4485598E0,1.3754957E0],"tree_param":{"num_deleted":"0","num_feature":"4","num_nodes":"9","size_leaf_vector":"1"}},{"base_weights":[-5.1829196E-3,5.676605E-2,-5.172047E-2],"categories":[],"categories_nodes":[],"categories_segments":[],"categories_sizes":[],"default_left":[0,0,0],"id":45,"left_children":[1,-1,-1],"loss_changes":[7.8541956E0,0E0,0E0],"parents":[2147483647,0,0],"right_children":[2,-1,-1],"split_conditions":[3E0,5.676605E-2,-5.172047E-2],"split_indices":[2,0,0],"split_type":[0,0,0],"sum_hessian":[2.4776966E1,1.1642652E1,1.3134315E1],"tree_param":{"num_deleted":"0","num_feature":"4","num_nodes":"3","size_leaf_vector":"1"}},{"base_weights":[-7.2079725E-3,-4.8029628E-2,1.6304544E-1,4.4999826E-1,-4.0461746E-1,5.78075E-2,-5.0992467E-2,3.7221927E-3,-5.03519E-2,-3.641744E-2,2.4244202E-2],"categories":[],"categories_nodes":[],"categories_segments":[],"categories_sizes":[],"default_left":[0,0,0,0,0,0,0,0,0,0,0],"id":46,"left_children":[1,-1,3,5,7,-1,9,-1,-1,-1,-1],"loss_changes":[2.3132336E0,0E0,3.62742E0,9.613261E-1,3.5209203E-1,0E0,4.4446313E-1,0E0,0E0,0E0,0E0],"parents":[2147483647,0,0,2,2,3,3,4,4,6,6],"right_children":[2,-1,4,6,8,-1,10,-1,-1,-1,-1],"split_conditions":[3E0,-4.8029628E-2,5.1E0,1.7E0,6.1E0,5.78075E-2,2.9E0,3.7221927E-3,-5.03519E-2,-3.641744E-2,2.4244202E-2],"split_indices":[2,0,2,3,0,0,1,0,0,0,0],"split_type":[0,0,0,0,0,0,0,0,0,0,0],"sum_hessian":[2.6747551E1,6.5965242E0,2.0151028E1,1.3522634E1,6.6283937E0,1.0646918E1,2.8757153E0,1.3263984E0,5.3019953E0,1.2744366E0,1.6012788E0],"tree_param":{"num_deleted":"0","num_feature":"4","num_nodes":"11","size_leaf_vector":"1"}},{"base_weights":[1.2112764E-2,-4.3256128E-1,4.782721E-1,-5.1027935E-2,1.5362878E-2,9.4356366E-2,5.6699563E-2,1.9328678E-2,-4.6690586E-3],"categories":[],"categories_nodes":[],"categories_segments":[],"categories_sizes":[],"default_left":[0,0,0,0,0,0,0,0,0],"id":47,"left_children":[1,3,5,-1,-1,7,-1,-1,-1],"loss_changes":[5.9159365E0,7.4447656E-1,4.206767E-1,0E0,0E0,6.2228497E-2,0E0,0E0,0E0],"parents":[2147483647,0,0,1,1,2,2,5,5],"right_children":[2,4,6,-1,-1,8,-1,-1,-1],"split_conditions":[4.9E0,1.7E0,1.8E0,-5.1027935E-2,1.5362878E-2,1.6E0,5.6699563E-2,1.9328678E-2,-4.6690586E-3],"split_indices":[2,3,3,0,0,3,0,0,0],"split_type":[0,0,0,0,0,0,0,0,0],"sum_hessian":[2.6541525E1,1.3620688E1,1.2920836E1,1.214057E1,1.480119E0,2.8128467E0,1.010799E1,1.435567E0,1.3772795E0],"tree_param":{"num_deleted":"0","num_feature":"4","num_nodes":"9","size_leaf_vector":"1"}},{"base_weights":[-6.414095E-3,5.5377822E-2,-5.1023543E-2],"categories":[],"categories_nodes":[],"categories_segments":[],"categories_sizes":[],"default_left":[0,0,0],"id":48,"left_children":[1,-1,-1],"loss_changes":[7.077362E0,0E0,0E0],"parents":[2147483647,0,0],"right_children":[2,-1,-1],"split_conditions":[3E0,5.5377822E-2,-5.1023543E-2],"split_indices":[2,0,0],"split_type":[0,0,0],"sum_hessian":[2.3074833E1,1.0879218E1,1.2195615E1],"tree_param":{"num_deleted":"0","num_feature":"4","num_nodes":"3","size_leaf_vector":"1"}},{"base_weights":[-7.5114807E-3,-4.7119062E-2,1.5717505E-1,4.3609244E-1,-3.9288774E-1,5.6402754E-2,-4.530436E-2,4.2867563E-3,-4.9495686E-2,-3.5480093E-2,2.36377E-2],"categories":[],"categories_nodes":[],"categories_segments":[],"categories_sizes":[],"default_left":[0,0,0,0,0,0,0,0,0,0,0],"id":49,"left_children":[1,-1,3,5,7,-1,9,-1,-1,-1,-1],"loss_changes":[2.0722477E0,0E0,3.2488506E0,8.744767E-1,3.447945E-1,0E0,4.1686913E-1,0E0,0E0,0E0,0E0],"parents":[2147483647,0,0,2,2,3,3,4,4,6,6],"right_children":[2,-1,4,6,8,-1,10,-1,-1,-1,-1],"split_conditions":[3E0,-4.7119062E-2,5.1E0,1.7E0,6.1E0,5.6402754E-2,2.9E0,4.2867563E-3,-4.9495686E-2,-3.5480093E-2,2.36377E-2],"split_indices":[2,0,2,3,0,0,1,0,0,0,0],"split_type":[0,0,0,0,0,0,0,0,0,0,0],"sum_hessian":[2.5167416E1,6.1082754E0,1.9059141E1,1.2784015E1,6.2751265E0,9.964278E0,2.8197362E0,1.3009788E0,4.974148E0,1.2198486E0,1.5998876E0],"tree_param":{"num_deleted":"0","num_feature":"4","num_nodes":"11","size_leaf_vector":"1"}},{"base_weights":[1.3510414E-2,-4.2191318E-1,4.6092775E-1,-5.0260898E-2,1.4565261E-2,8.467828E-2,5.5321362E-2,1.826104E-2,-5.0599184E-3],"categories":[],"categories_nodes":[],"categories_segments":[],"categories_sizes":[],"default_left":[0,0,0,0,0,0,0,0,0],"id":50,"left_children":[1,3,5,-1,-1,7,-1,-1,-1],"loss_changes":[5.2553763E0,7.0009565E-1,4.1462994E-1,0E0,0E0,5.956237E-2,0E0,0E0,0E0],"parents":[2147483647,0,0,1,1,2,2,5,5],"right_children":[2,4,6,-1,-1,8,-1,-1,-1],"split_conditions":[4.9E0,1.7E0,1.8E0,-5.0260898E-2,1.4565261E-2,1.6E0,5.5321362E-2,1.826104E-2,-5.0599184E-3],"split_indices":[2,3,3,0,0,3,0,0,0],"split_type":[0,0,0,0,0,0,0,0,0],"sum_hessian":[2.4977861E1,1.2687487E1,1.2290375E1,1.1208346E1,1.4791404E0,2.7984908E0,9.491884E0,1.4203525E0,1.3781383E0],"tree_param":{"num_deleted":"0","num_feature":"4","num_nodes":"9","size_leaf_vector":"1"}},{"base_weights":[-7.6577547E-3,5.4102626E-2,-5.0355263E-2],"categories":[],"categories_nodes":[],"categories_segments":[],"categories_sizes":[],"default_left":[0,0,0],"id":51,"left_children":[1,-1,-1],"loss_changes":[6.3858256E0,0E0,0E0],"parents":[2147483647,0,0],"right_children":[2,-1,-1],"split_conditions":[3E0,5.4102626E-2,-5.0355263E-2],"split_indices":[2,0,0],"split_type":[0,0,0],"sum_hessian":[2.1468302E1,1.0148482E1,1.131982E1],"tree_param":{"num_deleted":"0","num_feature":"4","num_nodes":"3","size_leaf_vector":"1"}},{"base_weights":[-7.789379E-3,-4.6226643E-2,1.5161525E-1,4.2305917E-1,-3.8137776E-1,5.5116363E-2,-3.9982863E-2,4.8213634E-3,-4.8665334E-2,-3.4575116E-2,2.3057492E-2],"categories":[],"categories_nodes":[],"categories_segments":[],"categories_sizes":[],"default_left":[0,0,0,0,0,0,0,0,0,0,0],"id":52,"left_children":[1,-1,3,5,7,-1,9,-1,-1,-1,-1],"loss_changes":[1.8574647E0,0E0,2.912897E0,7.976229E-1,3.3748102E-1,0E0,3.912592E-1,0E0,0E0,0E0,0E0],"parents":[2147483647,0,0,2,2,3,3,4,4,6,6],"right_children":[2,-1,4,6,8,-1,10,-1,-1,-1,-1],"split_conditions":[3E0,-4.6226643E-2,5.1E0,1.7E0,6.1E0,5.5116363E-2,2.9E0,4.8213634E-3,-4.8665334E-2,-3.4575116E-2,2.3057492E-2],"split_indices":[2,0,2,3,0,0,1,0,0,0,0],"split_type":[0,0,0,0,0,0,0,0,0,0,0],"sum_hessian":[2.3671953E1,5.653463E0,1.8018492E1,1.20751095E1,5.943382E0,9.309302E0,2.7658072E0,1.2764946E0,4.6668873E0,1.1679451E0,1.5978619E0],"tree_param":{"num_deleted":"0","num_feature":"4","num_nodes":"11","size_leaf_vector":"1"}},{"base_weights":[1.4866701E-2,-4.114034E-1,4.4454706E-1,-4.9519747E-2,1.38203325E-2,7.560894E-2,5.405541E-2,1.726204E-2,-5.421845E-3],"categories":[],"categories_nodes":[],"categories_segments":[],"categories_sizes":[],"default_left":[0,0,0,0,0,0,0,0,0],"id":53,"left_children":[1,3,5,-1,-1,7,-1,-1,-1],"loss_changes":[4.6703405E0,6.5876746E-1,4.0833163E-1,0E0,0E0,5.6984045E-2,0E0,0E0,0E0],"parents":[2147483647,0,0,1,1,2,2,5,5],"right_children":[2,4,6,-1,-1,8,-1,-1,-1],"split_conditions":[4.9E0,1.7E0,1.8E0,-4.9519747E-2,1.38203325E-2,1.6E0,5.405541E-2,1.726204E-2,-5.421845E-3],"split_indices":[2,3,3,0,0,3,0,0,0],"split_type":[0,0,0,0,0,0,0,0,0],"sum_hessian":[2.350019E1,1.1818263E1,1.1681929E1,1.0340697E1,1.4775658E0,2.781325E0,8.900603E0,1.4031949E0,1.3781301E0],"tree_param":{"num_deleted":"0","num_feature":"4","num_nodes":"9","size_leaf_vector":"1"}},{"base_weights":[-8.913344E-3,5.2921373E-2,-4.9710006E-2],"categories":[],"categories_nodes":[],"categories_segments":[],"categories_sizes":[],"default_left":[0,0,0],"id":54,"left_children":[1,-1,-1],"loss_changes":[5.76892E0,0E0,0E0],"parents":[2147483647,0,0],"right_children":[2,-1,-1],"split_conditions":[3E0,5.2921373E-2,-4.9710006E-2],"split_indices":[2,0,0],"split_type":[0,0,0],"sum_hessian":[1.995817E1,9.453528E0,1.0504642E1],"tree_param":{"num_deleted":"0","num_feature":"4","num_nodes":"3","size_leaf_vector":"1"}},{"base_weights":[-8.041076E-3,-4.53473E-2,1.463249E-1,4.107532E-1,-3.7006918E-1,5.3928226E-2,-3.5017386E-2,5.32629E-3,-4.7856487E-2,-3.3700995E-2,2.2501232E-2],"categories":[],"categories_nodes":[],"categories_segments":[],"categories_sizes":[],"default_left":[0,0,0,0,0,0,0,0,0,0,0],"id":55,"left_children":[1,-1,3,5,7,-1,9,-1,-1,-1,-1],"loss_changes":[1.6658739E0,0E0,2.614213E0,7.292845E-1,3.301199E-1,0E0,3.6747798E-1,0E0,0E0,0E0,0E0],"parents":[2147483647,0,0,2,2,3,3,4,4,6,6],"right_children":[2,-1,4,6,8,-1,10,-1,-1,-1,-1],"split_conditions":[3E0,-4.53473E-2,5.1E0,1.7E0,6.1E0,5.3928226E-2,2.9E0,5.32629E-3,-4.7856487E-2,-3.3700995E-2,2.2501232E-2],"split_indices":[2,0,2,3,0,0,1,0,0,0,0],"split_type":[0,0,0,0,0,0,0,0,0,0,0],"sum_hessian":[2.2262516E1,5.2308755E0,1.7031641E1,1.1399109E1,5.6325316E0,8.685144E0,2.7139642E0,1.2529211E0,4.3796105E0,1.1186943E0,1.5952699E0],"tree_param":{"num_deleted":"0","num_feature":"4","num_nodes":"11","size_leaf_vector":"1"}},{"base_weights":[1.617816E-2,-4.0098685E-1,4.2898387E-1,-4.8798356E-2,1.3124478E-2,6.710468E-2,5.2883517E-2,1.6326375E-2,-5.756657E-3],"categories":[],"categories_nodes":[],"categories_segments":[],"categories_sizes":[],"default_left":[0,0,0,0,0,0,0,0,0],"id":56,"left_children":[1,3,5,-1,-1,7,-1,-1,-1],"loss_changes":[4.1516013E0,6.2017214E-1,4.016776E-1,0E0,0E0,5.4494422E-2,0E0,0E0,0E0],"parents":[2147483647,0,0,1,1,2,2,5,5],"right_children":[2,4,6,-1,-1,8,-1,-1,-1],"split_conditions":[4.9E0,1.7E0,1.8E0,-4.8798356E-2,1.3124478E-2,1.6E0,5.2883517E-2,1.6326375E-2,-5.756657E-3],"split_indices":[2,3,3,0,0,3,0,0,0],"split_type":[0,0,0,0,0,0,0,0,0],"sum_hessian":[2.2109158E1,1.10107565E1,1.1098402E1,9.535289E0,1.4754674E0,2.7616665E0,8.336735E0,1.3843565E0,1.3773099E0],"tree_param":{"num_deleted":"0","num_feature":"4","num_nodes":"9","size_leaf_vector":"1"}},{"base_weights":[-1.0178765E-2,5.181809E-2,-4.9082812E-2],"categories":[],"categories_nodes":[],"categories_segments":[],"categories_sizes":[],"default_left":[0,0,0],"id":57,"left_children":[1,-1,-1],"loss_changes":[5.2175627E0,0E0,0E0],"parents":[2147483647,0,0],"right_children":[2,-1,-1],"split_conditions":[3E0,5.181809E-2,-4.9082812E-2],"split_indices":[2,0,0],"split_type":[0,0,0],"sum_hessian":[1.8543663E1,8.796223E0,9.74744E0],"tree_param":{"num_deleted":"0","num_feature":"4","num_nodes":"3","size_leaf_vector":"1"}},{"base_weights":[-8.266353E-3,-4.447673E-2,1.4127024E-1,3.9905518E-1,-3.5895047E-1,5.2821483E-2,-3.0396348E-2,5.8019212E-3,-4.7065552E-2,-3.285643E-2,2.196688E-2],"categories":[],"categories_nodes":[],"categories_segments":[],"categories_sizes":[],"default_left":[0,0,0,0,0,0,0,0,0,0,0],"id":58,"left_children":[1,-1,3,5,7,-1,9,-1,-1,-1,-1],"loss_changes":[1.4948457E0,0E0,2.348246E0,6.6824484E-1,3.226928E-1,0E0,3.453842E-1,0E0,0E0,0E0,0E0],"parents":[2147483647,0,0,2,2,3,3,4,4,6,6],"right_children":[2,-1,4,6,8,-1,10,-1,-1,-1,-1],"split_conditions":[3E0,-4.447673E-2,5.1E0,1.7E0,6.1E0,5.2821483E-2,2.9E0,5.8019212E-3,-4.7065552E-2,-3.285643E-2,2.196688E-2],"split_indices":[2,0,2,3,0,0,1,0,0,0,0],"split_type":[0,0,0,0,0,0,0,0,0,0,0],"sum_hessian":[2.093888E1,4.8391066E0,1.6099773E1,1.0757975E1,5.341799E0,8.093761E0,2.6642132E0,1.2302301E0,4.111569E0,1.0720398E0,1.5921732E0],"tree_param":{"num_deleted":"0","num_feature":"4","num_nodes":"11","size_leaf_vector":"1"}},{"base_weights":[1.7440988E-2,-3.9062724E-1,4.1412082E-1,-4.809125E-2,1.2474371E-2,5.912675E-2,5.1790442E-2,1.5449317E-2,-6.065996E-3],"categories":[],"categories_nodes":[],"categories_segments":[],"categories_sizes":[],"default_left":[0,0,0,0,0,0,0,0,0],"id":59,"left_children":[1,3,5,-1,-1,7,-1,-1,-1],"loss_changes":[3.691234E0,5.840312E-1,3.9460313E-1,0E0,0E0,5.209376E-2,0E0,0E0,0E0],"parents":[2147483647,0,0,1,1,2,2,5,5],"right_children":[2,4,6,-1,-1,8,-1,-1,-1],"split_conditions":[4.9E0,1.7E0,1.8E0,-4.809125E-2,1.2474371E-2,1.6E0,5.1790442E-2,1.5449317E-2,-6.065996E-3],"split_indices":[2,3,3,0,0,3,0,0,0],"split_type":[0,0,0,0,0,0,0,0,0],"sum_hessian":[2.0804005E1,1.026232E1,1.0541685E1,8.789409E0,1.472911E0,2.7398114E0,7.8018737E0,1.3640821E0,1.3757293E0],"tree_param":{"num_deleted":"0","num_feature":"4","num_nodes":"9","size_leaf_vector":"1"}},{"base_weights":[-1.1451991E-2,5.0779283E-2,-4.8469342E-2],"categories":[],"categories_nodes":[],"categories_segments":[],"categories_sizes":[],"default_left":[0,0,0],"id":60,"left_children":[1,-1,-1],"loss_changes":[4.7239666E0,0E0,0E0],"parents":[2147483647,0,0],"right_children":[2,-1,-1],"split_conditions":[3E0,5.0779283E-2,-4.8469342E-2],"split_indices":[2,0,0],"split_type":[0,0,0],"sum_hessian":[1.722275E1,8.17741E0,9.04534E0],"tree_param":{"num_deleted":"0","num_feature":"4","num_nodes":"3","size_leaf_vector":"1"}},{"base_weights":[-8.464313E-3,-4.361139E-2,1.364247E-1,3.878678E-1,-3.4801576E-1,5.1781923E-2,-2.6107337E-2,6.248774E-3,-4.62896E-2,-3.2040283E-2,2.1452636E-2],"categories":[],"categories_nodes":[],"categories_segments":[],"categories_sizes":[],"default_left":[0,0,0,0,0,0,0,0,0,0,0],"id":61,"left_children":[1,-1,3,5,7,-1,9,-1,-1,-1,-1],"loss_changes":[1.3420804E0,0E0,2.1110952E0,6.134969E-1,3.1519276E-1,0E0,3.2484847E-1,0E0,0E0,0E0,0E0],"parents":[2147483647,0,0,2,2,3,3,4,4,6,6],"right_children":[2,-1,4,6,8,-1,10,-1,-1,-1,-1],"split_conditions":[3E0,-4.361139E-2,5.1E0,1.7E0,6.1E0,5.1781923E-2,2.9E0,6.248774E-3,-4.62896E-2,-3.2040283E-2,2.1452636E-2],"split_indices":[2,0,2,3,0,0,1,0,0,0,0],"split_type":[0,0,0,0,0,0,0,0,0,0,0],"sum_hessian":[1.9699612E1,4.4766116E0,1.52230015E1,1.0152707E1,5.0702934E0,7.536173E0,2.6165347E0,1.208391E0,3.8619027E0,1.0279068E0,1.588628E0],"tree_param":{"num_deleted":"0","num_feature":"4","num_nodes":"11","size_leaf_vector":"1"}},{"base_weights":[1.8651208E-2,-3.802964E-1,3.9986393E-1,-4.739361E-2,1.1866979E-2,5.16403E-2,5.0763395E-2,1.4626615E-2,-6.351366E-3],"categories":[],"categories_nodes":[],"categories_segments":[],"categories_sizes":[],"default_left":[0,0,0,0,0,0,0,0,0],"id":62,"left_children":[1,3,5,-1,-1,7,-1,-1,-1],"loss_changes":[3.2823923E0,5.501056E-1,3.8707662E-1,0E0,0E0,4.9781837E-2,0E0,0E0,0E0],"parents":[2147483647,0,0,1,1,2,2,5,5],"right_children":[2,4,6,-1,-1,8,-1,-1,-1],"split_conditions":[4.9E0,1.7E0,1.8E0,-4.739361E-2,1.1866979E-2,1.6E0,5.0763395E-2,1.4626615E-2,-6.351366E-3],"split_indices":[2,3,3,0,0,3,0,0,0],"split_type":[0,0,0,0,0,0,0,0,0],"sum_hessian":[1.9582886E1,9.570034E0,1.0012852E1,8.100079E0,1.469956E0,2.716036E0,7.296815E0,1.3425988E0,1.3734374E0],"tree_param":{"num_deleted":"0","num_feature":"4","num_nodes":"9","size_leaf_vector":"1"}},{"base_weights":[-1.2730465E-2,4.9793527E-2,-4.7865793E-2],"categories":[],"categories_nodes":[],"categories_segments":[],"categories_sizes":[],"default_left":[0,0,0],"id":63,"left_children":[1,-1,-1],"loss_changes":[4.2814164E0,0E0,0E0],"parents":[2147483647,0,0],"right_children":[2,-1,-1],"split_conditions":[3E0,4.9793527E-2,-4.7865793E-2],"split_indices":[2,0,0],"split_type":[0,0,0],"sum_hessian":[1.5992481E1,7.5971537E0,8.395328E0],"tree_param":{"num_deleted":"0","num_feature":"4","num_nodes":"3","size_leaf_vector":"1"}},{"base_weights":[-8.63461E-3,-4.274841E-2,1.3176678E-1,3.7711164E-1,-3.3726394E-1,5.079754E-2,-2.2137199E-2,6.667439E-3,-4.552631E-2,8.985535E-3,-1.1303339E-2],"categories":[],"categories_nodes":[],"categories_segments":[],"categories_sizes":[],"default_left":[0,0,0,0,0,0,0,0,0,0,0],"id":64,"left_children":[1,-1,3,5,7,-1,9,-1,-1,-1,-1],"loss_changes":[1.205556E0,0E0,1.8993965E0,5.642048E-1,3.0762082E-1,0E0,4.650725E-2,0E0,0E0,0E0,0E0],"parents":[2147483647,0,0,2,2,3,3,4,4,6,6],"right_children":[2,-1,4,6,8,-1,10,-1,-1,-1,-1],"split_conditions":[3E0,-4.274841E-2,5.1E0,1.7E0,6.1E0,5.079754E-2,6E0,6.667439E-3,-4.552631E-2,8.985535E-3,-1.1303339E-2],"split_indices":[2,0,2,3,0,0,0,0,0,0,0],"split_type":[0,0,0,0,0,0,0,0,0,0,0],"sum_hessian":[1.8542349E1,4.1417704E0,1.4400578E1,9.58352E0,4.817058E0,7.012628E0,2.5708919E0,1.1873711E0,3.6296868E0,1.1569154E0,1.4139764E0],"tree_param":{"num_deleted":"0","num_feature":"4","num_nodes":"11","size_leaf_vector":"1"}},{"base_weights":[1.980455E-2,-3.6997396E-1,3.8613832E-1,-4.6701193E-2,1.1299527E-2,4.4613805E-2,4.979157E-2,1.3854414E-2,-6.6141384E-3],"categories":[],"categories_nodes":[],"categories_segments":[],"categories_sizes":[],"default_left":[0,0,0,0,0,0,0,0,0],"id":65,"left_children":[1,3,5,-1,-1,7,-1,-1,-1],"loss_changes":[2.919127E0,5.1819146E-1,3.7909067E-1,0E0,0E0,4.7557782E-2,0E0,0E0,0E0],"parents":[2147483647,0,0,1,1,2,2,5,5],"right_children":[2,4,6,-1,-1,8,-1,-1,-1],"split_conditions":[4.9E0,1.7E0,1.8E0,-4.6701193E-2,1.1299527E-2,1.6E0,4.979157E-2,1.3854414E-2,-6.6141384E-3],"split_indices":[2,3,3,0,0,3,0,0,0],"split_type":[0,0,0,0,0,0,0,0,0],"sum_hessian":[1.8443134E1,8.93082E0,9.512315E0,7.464164E0,1.4666564E0,2.690597E0,6.8217173E0,1.3201159E0,1.3704811E0],"tree_param":{"num_deleted":"0","num_feature":"4","num_nodes":"9","size_leaf_vector":"1"}},{"base_weights":[-1.4087779E-2,4.885116E-2,-4.7271E-2],"categories":[],"categories_nodes":[],"categories_segments":[],"categories_sizes":[],"default_left":[0,0,0],"id":66,"left_children":[1,-1,-1],"loss_changes":[3.88474E0,0E0,0E0],"parents":[2147483647,0,0],"right_children":[2,-1,-1],"split_conditions":[3E0,4.885116E-2,-4.7271E-2],"split_indices":[2,0,0],"split_type":[0,0,0],"sum_hessian":[1.4851475E1,7.0549045E0,7.79657E0],"tree_param":{"num_deleted":"0","num_feature":"4","num_nodes":"3","size_leaf_vector":"1"}},{"base_weights":[-8.538952E-3,-4.1885596E-2,1.2746629E-1,3.667037E-1,-3.2669765E-1,4.9858183E-2,-1.7197942E-2,7.0585967E-3,-4.4773888E-2,9.1025345E-3,-1.0743765E-2],"categories":[],"categories_nodes":[],"categories_segments":[],"categories_sizes":[],"default_left":[0,0,0,0,0,0,0,0,0,0,0],"id":67,"left_children":[1,-1,3,5,7,-1,9,-1,-1,-1,-1],"loss_changes":[1.0844628E0,0E0,1.7108439E0,5.1800823E-1,2.9998606E-1,0E0,4.434586E-2,0E0,0E0,0E0,0E0],"parents":[2147483647,0,0,2,2,3,3,4,4,6,6],"right_children":[2,-1,4,6,8,-1,10,-1,-1,-1,-1],"split_conditions":[3E0,-4.1885596E-2,5.1E0,1.7E0,6.1E0,4.9858183E-2,6E0,7.0585967E-3,-4.4773888E-2,9.1025345E-3,-1.0743765E-2],"split_indices":[2,0,2,3,0,0,0,0,0,0,0],"split_type":[0,0,0,0,0,0,0,0,0,0,0],"sum_hessian":[1.7476265E1,3.8329265E0,1.3643338E1,9.062244E0,4.5810933E0,6.522804E0,2.5394409E0,1.1671377E0,3.4139557E0,1.150707E0,1.3887339E0],"tree_param":{"num_deleted":"0","num_feature":"4","num_nodes":"11","size_leaf_vector":"1"}},{"base_weights":[2.071925E-2,-2.906675E-1,4.5402277E-1,-4.747716E-2,1.6526838E-1,6.4226957E-3,5.2940615E-2,3.929956E-2,-9.762994E-3],"categories":[],"categories_nodes":[],"categories_segments":[],"categories_sizes":[],"default_left":[0,0,0,0,0,0,0,0,0],"id":68,"left_children":[1,3,5,-1,7,-1,-1,-1,-1],"loss_changes":[2.6135764E0,1.0279472E0,2.0345128E-1,0E0,2.7757356E-1,0E0,0E0,0E0,0E0],"parents":[2147483647,0,0,1,1,2,2,4,4],"right_children":[2,4,6,-1,8,-1,-1,-1,-1],"split_conditions":[5.1E0,1.7E0,6.1E0,-4.747716E-2,2.9E0,6.4226957E-3,5.2940615E-2,3.929956E-2,-9.762994E-3],"split_indices":[2,3,0,0,1,0,0,0,0],"split_type":[0,0,0,0,0,0,0,0,0],"sum_hessian":[1.7392494E1,1.0311488E1,7.0810065E0,7.316015E0,2.9954736E0,1.4476151E0,5.6333914E0,1.3399378E0,1.6555358E0],"tree_param":{"num_deleted":"0","num_feature":"4","num_nodes":"9","size_leaf_vector":"1"}},{"base_weights":[-1.53901335E-2,4.7937088E-2,-4.6654325E-2],"categories":[],"categories_nodes":[],"categories_segments":[],"categories_sizes":[],"default_left":[0,0,0],"id":69,"left_children":[1,-1,-1],"loss_changes":[3.5243082E0,0E0,0E0],"parents":[2147483647,0,0],"right_children":[2,-1,-1],"split_conditions":[3E0,4.7937088E-2,-4.6654325E-2],"split_indices":[2,0,0],"split_type":[0,0,0],"sum_hessian":[1.3787047E1,6.545892E0,7.241155E0],"tree_param":{"num_deleted":"0","num_feature":"4","num_nodes":"3","size_leaf_vector":"1"}},{"base_weights":[-9.042774E-3,-4.1022047E-2,1.2255338E-1,3.537745E-1,-3.1394017E-1,4.8825048E-2,-1.5860962E-2,6.8565006E-3,-4.3715473E-2,9.206143E-3,-1.065627E-2],"categories":[],"categories_nodes":[],"categories_segments":[],"categories_sizes":[],"default_left":[0,0,0,0,0,0,0,0,0,0,0],"id":70,"left_children":[1,-1,3,5,7,-1,9,-1,-1,-1,-1],"loss_changes":[9.7332114E-1,0E0,1.517524E0,4.839368E-1,2.8237987E-1,0E0,4.4306614E-2,0E0,0E0,0E0,0E0],"parents":[2147483647,0,0,2,2,3,3,4,4,6,6],"right_children":[2,-1,4,6,8,-1,10,-1,-1,-1,-1],"split_conditions":[3E0,-4.1022047E-2,5.1E0,1.7E0,6.1E0,4.8825048E-2,6E0,6.8565006E-3,-4.3715473E-2,9.206143E-3,-1.065627E-2],"split_indices":[2,0,2,3,0,0,0,0,0,0,0],"split_type":[0,0,0,0,0,0,0,0,0,0,0],"sum_hessian":[1.6484129E1,3.5486417E0,1.2935487E1,8.579976E0,4.355511E0,6.0558996E0,2.5240762E0,1.1692482E0,3.1862626E0,1.1457742E0,1.378302E0],"tree_param":{"num_deleted":"0","num_feature":"4","num_nodes":"11","size_leaf_vector":"1"}},{"base_weights":[2.2142163E-2,-2.8042418E-1,4.3951952E-1,-4.6754315E-2,1.5745768E-1,6.006043E-3,5.1681306E-2,3.8454868E-2,-9.859466E-3],"categories":[],"categories_nodes":[],"categories_segments":[],"categories_sizes":[],"default_left":[0,0,0,0,0,0,0,0,0],"id":71,"left_children":[1,3,5,-1,7,-1,-1,-1,-1],"loss_changes":[2.3229287E0,9.510374E-1,1.9508767E-1,0E0,2.678349E-1,0E0,0E0,0E0,0E0],"parents":[2147483647,0,0,1,1,2,2,4,4],"right_children":[2,4,6,-1,8,-1,-1,-1,-1],"split_conditions":[5.1E0,1.7E0,6.1E0,-4.6754315E-2,2.9E0,6.006043E-3,5.1681306E-2,3.8454868E-2,-9.859466E-3],"split_indices":[2,3,0,0,1,0,0,0,0],"split_type":[0,0,0,0,0,0,0,0,0],"sum_hessian":[1.6418442E1,9.708591E0,6.709851E0,6.754479E0,2.9541128E0,1.436186E0,5.273665E0,1.2996376E0,1.6544753E0],"tree_param":{"num_deleted":"0","num_feature":"4","num_nodes":"9","size_leaf_vector":"1"}},{"base_weights":[-1.6671518E-2,4.7051664E-2,-4.6039347E-2],"categories":[],"categories_nodes":[],"categories_segments":[],"categories_sizes":[],"default_left":[0,0,0],"id":72,"left_children":[1,-1,-1],"loss_changes":[3.2001631E0,0E0,0E0],"parents":[2147483647,0,0],"right_children":[2,-1,-1],"split_conditions":[3E0,4.7051664E-2,-4.6039347E-2],"split_indices":[2,0,0],"split_type":[0,0,0],"sum_hessian":[1.2801436E1,6.0730715E0,6.7283654E0],"tree_param":{"num_deleted":"0","num_feature":"4","num_nodes":"3","size_leaf_vector":"1"}},{"base_weights":[-9.526944E-3,-4.0155977E-2,1.1778149E-1,3.411782E-1,-3.0144283E-1,4.7823034E-2,-1.4618216E-2,6.659818E-3,-4.2665474E-2,9.303179E-3,-1.0575833E-2],"categories":[],"categories_nodes":[],"categories_segments":[],"categories_sizes":[],"default_left":[0,0,0,0,0,0,0,0,0,0,0],"id":73,"left_children":[1,-1,3,5,7,-1,9,-1,-1,-1,-1],"loss_changes":[8.739494E-1,0E0,1.3462045E0,4.5219493E-1,2.6556572E-1,0E0,4.4268753E-2,0E0,0E0,0E0,0E0],"parents":[2147483647,0,0,2,2,3,3,4,4,6,6],"right_children":[2,-1,4,6,8,-1,10,-1,-1,-1,-1],"split_conditions":[3E0,-4.0155977E-2,5.1E0,1.7E0,6.1E0,4.7823034E-2,6E0,6.659818E-3,-4.2665474E-2,9.303179E-3,-1.0575833E-2],"split_indices":[2,0,2,3,0,0,0,0,0,0,0],"split_type":[0,0,0,0,0,0,0,0,0,0,0],"sum_hessian":[1.5563179E1,3.286996E0,1.2276183E1,8.130018E0,4.146165E0,5.6207886E0,2.5092297E0,1.1713319E0,2.974833E0,1.1409007E0,1.3683289E0],"tree_param":{"num_deleted":"0","num_feature":"4","num_nodes":"11","size_leaf_vector":"1"}},{"base_weights":[2.3489295E-2,-2.702725E-1,4.254539E-1,-4.6029724E-2,1.5009584E-1,5.618056E-3,5.046763E-2,3.7647918E-2,-9.937749E-3],"categories":[],"categories_nodes":[],"categories_segments":[],"categories_sizes":[],"default_left":[0,0,0,0,0,0,0,0,0],"id":74,"left_children":[1,3,5,-1,7,-1,-1,-1,-1],"loss_changes":[2.0649285E0,8.8006496E-1,1.8699336E-1,0E0,2.5850213E-1,0E0,0E0,0E0,0E0],"parents":[2147483647,0,0,1,1,2,2,4,4],"right_children":[2,4,6,-1,8,-1,-1,-1,-1],"split_conditions":[5.1E0,1.7E0,6.1E0,-4.6029724E-2,2.9E0,5.618056E-3,5.046763E-2,3.7647918E-2,-9.937749E-3],"split_indices":[2,3,0,0,1,0,0,0,0],"split_type":[0,0,0,0,0,0,0,0,0],"sum_hessian":[1.5513461E1,9.152383E0,6.361078E0,6.2376904E0,2.9146924E0,1.4255269E0,4.935551E0,1.2611617E0,1.6535308E0],"tree_param":{"num_deleted":"0","num_feature":"4","num_nodes":"9","size_leaf_vector":"1"}},{"base_weights":[-1.792977E-2,4.6188954E-2,-4.542419E-2],"categories":[],"categories_nodes":[],"categories_segments":[],"categories_sizes":[],"default_left":[0,0,0],"id":75,"left_children":[1,-1,-1],"loss_changes":[2.9083712E0,0E0,0E0],"parents":[2147483647,0,0],"right_children":[2,-1,-1],"split_conditions":[3E0,4.6188954E-2,-4.542419E-2],"split_indices":[2,0,0],"split_type":[0,0,0],"sum_hessian":[1.1890132E1,5.634815E0,6.2553167E0],"tree_param":{"num_deleted":"0","num_feature":"4","num_nodes":"3","size_leaf_vector":"1"}},{"base_weights":[-9.99044E-3,-3.9286893E-2,1.1314411E-1,3.2889014E-1,-2.8922284E-1,4.6846148E-2,-1.3467528E-2,6.4683855E-3,-4.162404E-2,9.393349E-3,-1.0501858E-2],"categories":[],"categories_nodes":[],"categories_segments":[],"categories_sizes":[],"default_left":[0,0,0,0,0,0,0,0,0,0,0],"id":76,"left_children":[1,-1,3,5,7,-1,9,-1,-1,-1,-1],"loss_changes":[7.850865E-1,0E0,1.1943988E0,4.2255515E-1,2.4952951E-1,0E0,4.422878E-2,0E0,0E0,0E0,0E0],"parents":[2147483647,0,0,2,2,3,3,4,4,6,6],"right_children":[2,-1,4,6,8,-1,10,-1,-1,-1,-1],"split_conditions":[3E0,-3.9286893E-2,5.1E0,1.7E0,6.1E0,4.6846148E-2,6E0,6.4683855E-3,-4.162404E-2,9.393349E-3,-1.0501858E-2],"split_indices":[2,0,2,3,0,0,0,0,0,0,0],"split_type":[0,0,0,0,0,0,0,0,0,0,0],"sum_hessian":[1.4709553E1,3.0464034E0,1.1663149E1,7.7111187E0,3.952031E0,5.216239E0,2.4948797E0,1.1733886E0,2.7786422E0,1.1360848E0,1.3587949E0],"tree_param":{"num_deleted":"0","num_feature":"4","num_nodes":"11","size_leaf_vector":"1"}},{"base_weights":[2.4758881E-2,-2.6022387E-1,4.1178745E-1,-4.5301463E-2,1.4315966E-1,5.2569713E-3,4.9293675E-2,3.6876358E-2,-9.999168E-3],"categories":[],"categories_nodes":[],"categories_segments":[],"categories_sizes":[],"default_left":[0,0,0,0,0,0,0,0,0],"id":77,"left_children":[1,3,5,-1,7,-1,-1,-1,-1],"loss_changes":[1.8359151E0,8.145179E-1,1.7913115E-1,0E0,2.4955761E-1,0E0,0E0,0E0,0E0],"parents":[2147483647,0,0,1,1,2,2,4,4],"right_children":[2,4,6,-1,8,-1,-1,-1,-1],"split_conditions":[5.1E0,1.7E0,6.1E0,-4.5301463E-2,2.9E0,5.2569713E-3,4.9293675E-2,3.6876358E-2,-9.999168E-3],"split_indices":[2,3,0,0,1,0,0,0,0],"split_type":[0,0,0,0,0,0,0,0,0],"sum_hessian":[1.467374E1,8.639678E0,6.034062E0,5.7625313E0,2.8771472E0,1.4155891E0,4.618473E0,1.2244555E0,1.6526916E0],"tree_param":{"num_deleted":"0","num_feature":"4","num_nodes":"9","size_leaf_vector":"1"}},{"base_weights":[-1.9162E-2,4.5344017E-2,-4.480737E-2],"categories":[],"categories_nodes":[],"categories_segments":[],"categories_sizes":[],"default_left":[0,0,0],"id":78,"left_children":[1,-1,-1],"loss_changes":[2.6454735E0,0E0,0E0],"parents":[2147483647,0,0],"right_children":[2,-1,-1],"split_conditions":[3E0,4.5344017E-2,-4.480737E-2],"split_indices":[2,0,0],"split_type":[0,0,0],"sum_hessian":[1.1048563E1,5.2293477E0,5.8192153E0],"tree_param":{"num_deleted":"0","num_feature":"4","num_nodes":"3","size_leaf_vector":"1"}},{"base_weights":[-1.0432726E-2,-3.8414773E-2,1.0863637E-1,3.5698065E-1,-2.2008634E-1,4.5889385E-2,-3.4919665E-3,-3.3677176E-1,1.4475389E-2,-4.4169273E-2,1.964918E-3],"categories":[],"categories_nodes":[],"categories_segments":[],"categories_sizes":[],"default_left":[0,0,0,0,0,0,0,0,0,0,0],"id":79,"left_children":[1,-1,3,5,7,-1,-1,9,-1,-1,-1],"loss_changes":[7.0560956E-1,0E0,1.0658739E0,3.0641228E-1,2.9665667E-1,0E0,0E0,1.84919E-1,0E0,0E0,0E0],"parents":[2147483647,0,0,2,2,3,3,4,4,7,7],"right_children":[2,-1,4,6,8,-1,-1,10,-1,-1,-1],"split_conditions":[3E0,-3.8414773E-2,1.7E0,5E0,3.2E0,4.5889385E-2,-3.4919665E-3,6.6E0,1.4475389E-2,-4.4169273E-2,1.964918E-3],"split_indices":[2,0,3,2,1,0,0,0,0,0,0],"split_type":[0,0,0,0,0,0,0,0,0,0,0],"sum_hessian":[1.391929E1,2.825332E0,1.1093958E1,6.2706375E0,4.8233204E0,4.8408384E0,1.4297994E0,3.712803E0,1.1105174E0,2.683582E0,1.029221E0],"tree_param":{"num_deleted":"0","num_feature":"4","num_nodes":"11","size_leaf_vector":"1"}},{"base_weights":[2.5949303E-2,-2.5029254E-1,3.98491E-1,-4.4568013E-2,1.3662693E-1,4.9211076E-3,4.815454E-2,3.613803E-2,-1.0044977E-2],"categories":[],"categories_nodes":[],"categories_segments":[],"categories_sizes":[],"default_left":[0,0,0,0,0,0,0,0,0],"id":80,"left_children":[1,3,5,-1,7,-1,-1,-1,-1],"loss_changes":[1.6326514E0,7.539407E-1,1.7147744E-1,0E0,2.4098513E-1,0E0,0E0,0E0,0E0],"parents":[2147483647,0,0,1,1,2,2,4,4],"right_children":[2,4,6,-1,8,-1,-1,-1,-1],"split_conditions":[5.1E0,1.7E0,6.1E0,-4.4568013E-2,2.9E0,4.9211076E-3,4.815454E-2,3.613803E-2,-1.0044977E-2],"split_indices":[2,3,0,0,1,0,0,0,0],"split_type":[0,0,0,0,0,0,0,0,0],"sum_hessian":[1.3895426E1,8.1674E0,5.728026E0,5.3259964E0,2.8414037E0,1.4063268E0,4.321699E0,1.189457E0,1.6519467E0],"tree_param":{"num_deleted":"0","num_feature":"4","num_nodes":"9","size_leaf_vector":"1"}},{"base_weights":[-2.0374719E-2,4.451276E-2,-4.4186983E-2],"categories":[],"categories_nodes":[],"categories_segments":[],"categories_sizes":[],"default_left":[0,0,0],"id":81,"left_children":[1,-1,-1],"loss_changes":[2.4084327E0,0E0,0E0],"parents":[2147483647,0,0],"right_children":[2,-1,-1],"split_conditions":[3E0,4.451276E-2,-4.4186983E-2],"split_indices":[2,0,0],"split_type":[0,0,0],"sum_hessian":[1.0272508E1,4.854782E0,5.4177256E0],"tree_param":{"num_deleted":"0","num_feature":"4","num_nodes":"3","size_leaf_vector":"1"}},{"base_weights":[-1.0625994E-2,-3.7540033E-2,1.0447332E-1,3.102529E-1,-2.6861948E-1,4.494865E-2,-3.2305908E-3,7.071044E-3,-4.0032472E-2,1.041898E-2,-9.932782E-3],"categories":[],"categories_nodes":[],"categories_segments":[],"categories_sizes":[],"default_left":[0,0,0,0,0,0,0,0,0,0,0],"id":82,"left_children":[1,-1,3,5,7,-1,9,-1,-1,-1,-1],"loss_changes":[6.351805E-1,0E0,9.7179514E-1,3.4724975E-1,2.361089E-1,0E0,4.5750394E-2,0E0,0E0,0E0,0E0],"parents":[2147483647,0,0,2,2,3,3,4,4,6,6],"right_children":[2,-1,4,6,8,-1,10,-1,-1,-1,-1],"split_conditions":[3E0,-3.7540033E-2,5.1E0,1.7E0,6.1E0,4.494865E-2,6E0,7.071044E-3,-4.0032472E-2,1.041898E-2,-9.932782E-3],"split_indices":[2,0,2,3,0,0,0,0,0,0,0],"split_type":[0,0,0,0,0,0,0,0,0,0,0],"sum_hessian":[1.3194526E1,2.622315E0,1.057221E1,6.9225197E0,3.6496906E0,4.4930773E0,2.4294424E0,1.1499738E0,2.499717E0,1.107374E0,1.3220685E0],"tree_param":{"num_deleted":"0","num_feature":"4","num_nodes":"11","size_leaf_vector":"1"}},{"base_weights":[2.6831903E-2,-2.4436854E-1,3.87066E-1,-4.3828256E-2,1.2443771E-1,3.8938262E-3,4.7320753E-2,3.485126E-2,-1.0382425E-2],"categories":[],"categories_nodes":[],"categories_segments":[],"categories_sizes":[],"default_left":[0,0,0,0,0,0,0,0,0],"id":83,"left_children":[1,3,5,-1,7,-1,-1,-1,-1],"loss_changes":[1.4799997E0,6.769643E-1,1.758287E-1,0E0,2.2942044E-1,0E0,0E0,0E0,0E0],"parents":[2147483647,0,0,1,1,2,2,4,4],"right_children":[2,4,6,-1,8,-1,-1,-1,-1],"split_conditions":[5.1E0,1.7E0,6.1E0,-4.3828256E-2,2.9E0,3.8938262E-3,4.7320753E-2,3.485126E-2,-1.0382425E-2],"split_indices":[2,3,0,0,1,0,0,0,0],"split_type":[0,0,0,0,0,0,0,0,0],"sum_hessian":[1.3180907E1,7.703218E0,5.4776893E0,4.9252157E0,2.7780023E0,1.3745766E0,4.1031127E0,1.1360155E0,1.6419868E0],"tree_param":{"num_deleted":"0","num_feature":"4","num_nodes":"9","size_leaf_vector":"1"}},{"base_weights":[-2.1558087E-2,4.3691963E-2,-4.3564353E-2],"categories":[],"categories_nodes":[],"categories_segments":[],"categories_sizes":[],"default_left":[0,0,0],"id":84,"left_children":[1,-1,-1],"loss_changes":[2.1945796E0,0E0,0E0],"parents":[2147483647,0,0],"right_children":[2,-1,-1],"split_conditions":[3E0,4.3691963E-2,-4.3564353E-2],"split_indices":[2,0,0],"split_type":[0,0,0],"sum_hessian":[9.557015E0,4.5092287E0,5.0477867E0],"tree_param":{"num_deleted":"0","num_feature":"4","num_nodes":"3","size_leaf_vector":"1"}},{"base_weights":[-1.09195085E-2,-3.666345E-2,1.0037325E-1,3.4273806E-1,-2.0368305E-1,4.4020623E-2,-1.5019256E-3,-3.2461235E-1,1.6035266E-2,-4.2939644E-2,2.430107E-4],"categories":[],"categories_nodes":[],"categories_segments":[],"categories_sizes":[],"default_left":[0,0,0,0,0,0,0,0,0,0,0],"id":85,"left_children":[1,-1,3,5,7,-1,-1,9,-1,-1,-1],"loss_changes":[5.71883E-1,0E0,8.8633484E-1,2.3460233E-1,2.960185E-1,0E0,0E0,1.5493089E-1,0E0,0E0,0E0],"parents":[2147483647,0,0,2,2,3,3,4,4,7,7],"right_children":[2,-1,4,6,8,-1,-1,10,-1,-1,-1],"split_conditions":[3E0,-3.666345E-2,1.7E0,5E0,3.2E0,4.4020623E-2,-1.5019256E-3,6.5E0,1.6035266E-2,-4.2939644E-2,2.430107E-4],"split_indices":[2,0,3,2,1,0,0,0,0,0,0],"split_type":[0,0,0,0,0,0,0,0,0,0,0],"sum_hessian":[1.2516113E1,2.4359577E0,1.0080155E1,5.5383167E0,4.541839E0,4.171393E0,1.3669237E0,3.490592E0,1.0512472E0,2.406563E0,1.0840288E0],"tree_param":{"num_deleted":"0","num_feature":"4","num_nodes":"11","size_leaf_vector":"1"}},{"base_weights":[2.7767973E-2,-2.815053E-1,3.2644475E-1,-4.3081414E-2,1.4307148E-2,4.1423768E-1,8.811073E-5,4.8595123E-2,1.0096992E-2],"categories":[],"categories_nodes":[],"categories_segments":[],"categories_sizes":[],"default_left":[0,0,0,0,0,0,0,0,0],"id":86,"left_children":[1,3,5,-1,-1,7,-1,-1,-1],"loss_changes":[1.339971E0,5.164732E-1,2.0932639E-1,0E0,0E0,8.069712E-2,0E0,0E0,0E0],"parents":[2147483647,0,0,1,1,2,2,5,5],"right_children":[2,4,6,-1,-1,8,-1,-1,-1],"split_conditions":[1.7E0,5E0,3.2E0,-4.3081414E-2,1.4307148E-2,6.6E0,8.811073E-5,4.8595123E-2,1.0096992E-2],"split_indices":[3,2,1,0,0,0,0,0,0],"split_type":[0,0,0,0,0,0,0,0,0],"sum_hessian":[1.2511292E1,6.1748557E0,6.3364363E0,4.557464E0,1.6173916E0,4.776117E0,1.5603197E0,3.437881E0,1.3382356E0],"tree_param":{"num_deleted":"0","num_feature":"4","num_nodes":"9","size_leaf_vector":"1"}},{"base_weights":[-2.376099E-2,4.2878993E-2,-4.2975277E-2],"categories":[],"categories_nodes":[],"categories_segments":[],"categories_sizes":[],"default_left":[0,0,0],"id":87,"left_children":[1,-1,-1],"loss_changes":[2.006572E0,0E0,0E0],"parents":[2147483647,0,0],"right_children":[2,-1,-1],"split_conditions":[3E0,4.2878993E-2,-4.2975277E-2],"split_indices":[2,0,0],"split_type":[0,0,0],"sum_hessian":[8.918245E0,4.1907477E0,4.727497E0],"tree_param":{"num_deleted":"0","num_feature":"4","num_nodes":"3","size_leaf_vector":"1"}},{"base_weights":[-1.0125936E-2,-3.5786126E-2,9.752244E-2,2.9764837E-1,-2.5140557E-1,4.3102648E-2,1.4397294E-2,8.382941E-3,-3.886843E-2,1.1626007E-2,-8.498389E-3],"categories":[],"categories_nodes":[],"categories_segments":[],"categories_sizes":[],"default_left":[0,0,0,0,0,0,0,0,0,0,0],"id":88,"left_children":[1,-1,3,5,7,-1,9,-1,-1,-1,-1],"loss_changes":[5.180011E-1,0E0,8.1787086E-1,2.6656932E-1,2.3602158E-1,0E0,4.3752596E-2,0E0,0E0,0E0,0E0],"parents":[2147483647,0,0,2,2,3,3,4,4,6,6],"right_children":[2,-1,4,6,8,-1,10,-1,-1,-1,-1],"split_conditions":[3E0,-3.5786126E-2,5.1E0,1.7E0,6.1E0,4.3102648E-2,6E0,8.382941E-3,-3.886843E-2,1.1626007E-2,-8.498389E-3],"split_indices":[2,0,2,3,0,0,0,0,0,0,0],"split_type":[0,0,0,0,0,0,0,0,0,0,0],"sum_hessian":[1.1905718E1,2.2649436E0,9.640775E0,6.220183E0,3.4205916E0,3.8741837E0,2.3459992E0,1.1068965E0,2.3136952E0,1.0746623E0,1.2713369E0],"tree_param":{"num_deleted":"0","num_feature":"4","num_nodes":"11","size_leaf_vector":"1"}},{"base_weights":[2.8325038E-2,-2.3445797E-1,3.6606482E-1,-4.232707E-2,9.858473E-2,1.8035859E-3,4.584143E-2,3.2761704E-2,-1.1809761E-2],"categories":[],"categories_nodes":[],"categories_segments":[],"categories_sizes":[],"default_left":[0,0,0,0,0,0,0,0,0],"id":89,"left_children":[1,3,5,-1,7,-1,-1,-1,-1],"loss_changes":[1.2337261E0,5.374724E-1,1.8618423E-1,0E0,2.2049877E-1,0E0,0E0,0E0,0E0],"parents":[2147483647,0,0,1,1,2,2,4,4],"right_children":[2,4,6,-1,8,-1,-1,-1,-1],"split_conditions":[5.1E0,1.7E0,6.1E0,-4.232707E-2,2.9E0,1.8035859E-3,4.584143E-2,3.2761704E-2,-1.1809761E-2],"split_indices":[2,3,0,0,1,0,0,0,0],"split_type":[0,0,0,0,0,0,0,0,0],"sum_hessian":[1.1933745E1,6.8836393E0,5.0501056E0,4.220169E0,2.6634703E0,1.3096914E0,3.7404141E0,1.0459434E0,1.617527E0],"tree_param":{"num_deleted":"0","num_feature":"4","num_nodes":"9","size_leaf_vector":"1"}},{"base_weights":[-2.4819452E-2,4.207195E-2,-4.2343054E-2],"categories":[],"categories_nodes":[],"categories_segments":[],"categories_sizes":[],"default_left":[0,0,0],"id":90,"left_children":[1,-1,-1],"loss_changes":[1.831445E0,0E0,0E0],"parents":[2147483647,0,0],"right_children":[2,-1,-1],"split_conditions":[3E0,4.207195E-2,-4.2343054E-2],"split_indices":[2,0,0],"split_type":[0,0,0],"sum_hessian":[8.309289E0,3.8974898E0,4.4117994E0],"tree_param":{"num_deleted":"0","num_feature":"4","num_nodes":"3","size_leaf_vector":"1"}},{"base_weights":[-1.021127E-2,-3.490941E-2,9.39069E-2,2.954012E-1,-2.3343468E-1,3.6744177E-1,-6.862343E-5,-4.01202E-2,1.663896E-2,6.989766E-3,4.3587785E-2],"categories":[],"categories_nodes":[],"categories_segments":[],"categories_sizes":[],"default_left":[0,0,0,0,0,0,0,0,0,0,0],"id":91,"left_children":[1,-1,3,5,7,9,-1,-1,-1,-1,-1],"loss_changes":[4.675538E-1,0E0,7.426511E-1,1.4452553E-1,3.652706E-1,8.034736E-2,0E0,0E0,0E0,0E0,0E0],"parents":[2147483647,0,0,2,2,3,3,4,4,5,5],"right_children":[2,-1,4,6,8,10,-1,-1,-1,-1,-1],"split_conditions":[3E0,-3.490941E-2,1.8E0,5.1E0,3.2E0,2.6E0,-6.862343E-5,-4.01202E-2,1.663896E-2,6.989766E-3,4.3587785E-2],"split_indices":[2,0,3,2,1,1,0,0,0,0,0],"split_type":[0,0,0,0,0,0,0,0,0,0,0],"sum_hessian":[1.1322106E1,2.1080337E0,9.214072E0,5.763772E0,3.4503005E0,4.4420037E0,1.3217682E0,2.428042E0,1.0222586E0,1.2086091E0,3.2333946E0],"tree_param":{"num_deleted":"0","num_feature":"4","num_nodes":"11","size_leaf_vector":"1"}},{"base_weights":[2.8886363E-2,-2.2498496E-1,3.5382232E-1,-4.1565135E-2,9.4404444E-2,1.6580754E-3,4.4786017E-2,3.2176513E-2,-1.1701634E-2],"categories":[],"categories_nodes":[],"categories_segments":[],"categories_sizes":[],"default_left":[0,0,0,0,0,0,0,0,0],"id":92,"left_children":[1,3,5,-1,7,-1,-1,-1,-1],"loss_changes":[1.0987564E0,4.9882823E-1,1.7675185E-1,0E0,2.124345E-1,0E0,0E0,0E0,0E0],"parents":[2147483647,0,0,1,1,2,2,4,4],"right_children":[2,4,6,-1,8,-1,-1,-1,-1],"split_conditions":[5.1E0,1.7E0,6.1E0,-4.1565135E-2,2.9E0,1.6580754E-3,4.4786017E-2,3.2176513E-2,-1.1701634E-2],"split_indices":[2,3,0,0,1,0,0,0,0],"split_type":[0,0,0,0,0,0,0,0,0],"sum_hessian":[1.1354564E1,6.54701E0,4.807554E0,3.9109125E0,2.6360974E0,1.3047473E0,3.5028064E0,1.0186881E0,1.6174093E0],"tree_param":{"num_deleted":"0","num_feature":"4","num_nodes":"9","size_leaf_vector":"1"}},{"base_weights":[-2.624682E-2,4.1269366E-2,-4.1718297E-2],"categories":[],"categories_nodes":[],"categories_segments":[],"categories_sizes":[],"default_left":[0,0,0],"id":93,"left_children":[1,-1,-1],"loss_changes":[1.6747311E0,0E0,0E0],"parents":[2147483647,0,0],"right_children":[2,-1,-1],"split_conditions":[3E0,4.1269366E-2,-4.1718297E-2],"split_indices":[2,0,0],"split_type":[0,0,0],"sum_hessian":[7.756309E0,3.6276042E0,4.1287045E0],"tree_param":{"num_deleted":"0","num_feature":"4","num_nodes":"3","size_leaf_vector":"1"}},{"base_weights":[-9.792022E-3,-3.4034867E-2,9.089144E-2,2.2939207E-1,-3.5080682E-2,4.2956438E-2,-8.2361095E-2,-3.186233E-2,1.3207937E-2],"categories":[],"categories_nodes":[],"categories_segments":[],"categories_sizes":[],"default_left":[0,0,0,0,0,0,0,0,0],"id":94,"left_children":[1,-1,3,5,-1,-1,7,-1,-1],"loss_changes":[4.2341632E-1,0E0,6.817466E-1,5.4004884E-1,0E0,0E0,2.4480686E-1,0E0,0E0],"parents":[2147483647,0,0,2,2,3,3,6,6],"right_children":[2,-1,4,6,-1,-1,8,-1,-1],"split_conditions":[3E0,-3.4034867E-2,5.2E0,1.7E0,-3.5080682E-2,4.2956438E-2,2.9E0,-3.186233E-2,1.3207937E-2],"split_indices":[2,0,2,3,0,0,1,0,0],"split_type":[0,0,0,0,0,0,0,0,0],"sum_hessian":[1.0792753E1,1.964072E0,8.828681E0,7.0870857E0,1.7415953E0,4.0857706E0,3.0013149E0,1.1968434E0,1.8044715E0],"tree_param":{"num_deleted":"0","num_feature":"4","num_nodes":"9","size_leaf_vector":"1"}},{"base_weights":[2.9221231E-2,-2.626735E-1,2.9566145E-1,-4.3489546E-2,9.77609E-3,3.886933E-1,-2.6058154E-3,4.6343677E-2,7.1252766E-3],"categories":[],"categories_nodes":[],"categories_segments":[],"categories_sizes":[],"default_left":[0,0,0,0,0,0,0,0,0],"id":95,"left_children":[1,3,5,-1,-1,7,-1,-1,-1],"loss_changes":[9.966806E-1,4.2542696E-1,2.0911026E-1,0E0,0E0,9.082657E-2,0E0,0E0,0E0],"parents":[2147483647,0,0,1,1,2,2,5,5],"right_children":[2,4,6,-1,-1,8,-1,-1,-1],"split_conditions":[1.7E0,6.1E0,3.2E0,-4.3489546E-2,9.77609E-3,6.6E0,-2.6058154E-3,4.6343677E-2,7.1252766E-3],"split_indices":[3,0,1,0,0,0,0,0,0],"split_type":[0,0,0,0,0,0,0,0,0],"sum_hessian":[1.0816751E1,5.168554E0,5.6481967E0,3.357631E0,1.8109229E0,4.219785E0,1.4284117E0,3.043303E0,1.1764822E0],"tree_param":{"num_deleted":"0","num_feature":"4","num_nodes":"9","size_leaf_vector":"1"}},{"base_weights":[-2.8267734E-2,4.045739E-2,-4.1109063E-2],"categories":[],"categories_nodes":[],"categories_segments":[],"categories_sizes":[],"default_left":[0,0,0],"id":96,"left_children":[1,-1,-1],"loss_changes":[1.533161E0,0E0,0E0],"parents":[2147483647,0,0],"right_children":[2,-1,-1],"split_conditions":[3E0,4.045739E-2,-4.1109063E-2],"split_indices":[2,0,0],"split_type":[0,0,0],"sum_hessian":[7.248827E0,3.3754883E0,3.873339E0],"tree_param":{"num_deleted":"0","num_feature":"4","num_nodes":"3","size_leaf_vector":"1"}},{"base_weights":[-9.555821E-3,8.465985E-2,-3.450416E-2,-3.3164904E-2,2.2490169E-1,4.1802607E-2,-7.239419E-2,-3.0800272E-2,1.3343927E-2],"categories":[],"categories_nodes":[],"categories_segments":[],"categories_sizes":[],"default_left":[0,0,0,0,0,0,0,0,0],"id":97,"left_children":[1,3,-1,-1,5,-1,7,-1,-1],"loss_changes":[3.867913E-1,6.3714534E-1,0E0,0E0,4.78295E-1,0E0,2.3146187E-1,0E0,0E0],"parents":[2147483647,0,0,1,1,4,4,6,6],"right_children":[2,4,-1,-1,6,-1,8,-1,-1],"split_conditions":[5.2E0,3E0,-3.450416E-2,-3.3164904E-2,1.7E0,4.1802607E-2,2.9E0,-3.0800272E-2,1.3343927E-2],"split_indices":[2,2,0,0,3,0,1,0,0],"split_type":[0,0,0,0,0,0,0,0,0],"sum_hessian":[1.0312956E1,8.635475E0,1.6774813E0,1.832084E0,6.8033905E0,3.8780818E0,2.925309E0,1.1325548E0,1.7927542E0],"tree_param":{"num_deleted":"0","num_feature":"4","num_nodes":"9","size_leaf_vector":"1"}},{"base_weights":[3.0055767E-2,-2.1664788E-1,3.3845872E-1,-4.0158954E-2,7.61659E-2,4.3838378E-4,4.349953E-2,-4.6125264E-3,1.580347E-2],"categories":[],"categories_nodes":[],"categories_segments":[],"categories_sizes":[],"default_left":[0,0,0,0,0,0,0,0,0],"id":98,"left_children":[1,3,5,-1,7,-1,-1,-1,-1],"loss_changes":[9.37258E-1,4.05234E-1,1.7342955E-1,0E0,4.2517632E-2,0E0,0E0,0E0,0E0],"parents":[2147483647,0,0,1,1,2,2,4,4],"right_children":[2,4,6,-1,8,-1,-1,-1,-1],"split_conditions":[5.1E0,1.7E0,6.1E0,-4.0158954E-2,6E0,4.3838378E-4,4.349953E-2,-4.6125264E-3,1.580347E-2],"split_indices":[2,3,0,0,0,0,0,0,0],"split_type":[0,0,0,0,0,0,0,0,0],"sum_hessian":[1.0354951E1,5.918237E0,4.4367137E0,3.3995755E0,2.5186615E0,1.2290094E0,3.2077043E0,1.1850673E0,1.3335943E0],"tree_param":{"num_deleted":"0","num_feature":"4","num_nodes":"9","size_leaf_vector":"1"}},{"base_weights":[-2.8880985E-2,3.9660715E-2,-4.0448718E-2],"categories":[],"categories_nodes":[],"categories_segments":[],"categories_sizes":[],"default_left":[0,0,0],"id":99,"left_children":[1,-1,-1],"loss_changes":[1.4019525E0,0E0,0E0],"parents":[2147483647,0,0],"right_children":[2,-1,-1],"split_conditions":[3E0,3.9660715E-2,-4.0448718E-2],"split_indices":[2,0,0],"split_type":[0,0,0],"sum_hessian":[6.7684965E0,3.1473053E0,3.6211915E0],"tree_param":{"num_deleted":"0","num_feature":"4","num_nodes":"3","size_leaf_vector":"1"}},{"base_weights":[-1.0323986E-2,8.1107706E-2,-3.3527102E-2,-3.2300007E-2,2.1534441E-1,4.0834613E-2,-7.0320204E-2,-3.0396536E-2,1.3116059E-2],"categories":[],"categories_nodes":[],"categories_segments":[],"categories_sizes":[],"default_left":[0,0,0,0,0,0,0,0,0],"id":100,"left_children":[1,3,-1,-1,5,-1,7,-1,-1],"loss_changes":[3.4935397E-1,5.722813E-1,0E0,0E0,4.453399E-1,0E0,2.2345965E-1,0E0,0E0],"parents":[2147483647,0,0,1,1,4,4,6,6],"right_children":[2,4,-1,-1,6,-1,8,-1,-1],"split_conditions":[5.2E0,3E0,-3.3527102E-2,-3.2300007E-2,1.7E0,4.0834613E-2,2.9E0,-3.0396536E-2,1.3116059E-2],"split_indices":[2,2,0,0,3,0,1,0,0],"split_type":[0,0,0,0,0,0,0,0,0],"sum_hessian":[9.84335E0,8.267489E0,1.5758606E0,1.7108697E0,6.55662E0,3.6566448E0,2.899975E0,1.1072764E0,1.7926986E0],"tree_param":{"num_deleted":"0","num_feature":"4","num_nodes":"9","size_leaf_vector":"1"}},{"base_weights":[3.0883783E-2,-2.0848408E-1,3.2905874E-1,2.0707346E-2,-4.5360148E-2,3.5466568E-4,4.260931E-2,-2.9735966E-2,2.674869E-2],"categories":[],"categories_nodes":[],"categories_segments":[],"categories_sizes":[],"default_left":[0,0,0,0,0,0,0,0,0],"id":101,"left_children":[1,3,5,7,-1,-1,-1,-1,-1],"loss_changes":[8.458187E-1,3.8312277E-1,1.639008E-1,4.2445764E-1,0E0,0E0,0E0,0E0,0E0],"parents":[2147483647,0,0,1,1,2,2,3,3],"right_children":[2,4,6,8,-1,-1,-1,-1,-1],"split_conditions":[5.1E0,3.1E0,6.1E0,1.6E0,-4.5360148E-2,3.5466568E-4,4.260931E-2,-2.9735966E-2,2.674869E-2],"split_indices":[2,1,0,3,0,0,0,0,0],"split_type":[0,0,0,0,0,0,0,0,0],"sum_hessian":[9.889407E0,5.652507E0,4.2369003E0,3.3942816E0,2.2582252E0,1.2110052E0,3.025895E0,1.3934035E0,2.000878E0],"tree_param":{"num_deleted":"0","num_feature":"4","num_nodes":"9","size_leaf_vector":"1"}},{"base_weights":[-2.9455183E-2,3.8849674E-2,-3.976935E-2],"categories":[],"categories_nodes":[],"categories_segments":[],"categories_sizes":[],"default_left":[0,0,0],"id":102,"left_children":[1,-1,-1],"loss_changes":[1.2806727E0,0E0,0E0],"parents":[2147483647,0,0],"right_children":[2,-1,-1],"split_conditions":[3E0,3.8849674E-2,-3.976935E-2],"split_indices":[2,0,0],"split_type":[0,0,0],"sum_hessian":[6.317263E0,2.9331324E0,3.384131E0],"tree_param":{"num_deleted":"0","num_feature":"4","num_nodes":"3","size_leaf_vector":"1"}},{"base_weights":[-1.0199568E-2,7.866256E-2,-3.2566797E-2,-3.14434E-2,2.074352E-1,3.989329E-2,-6.717783E-2,-2.9746259E-2,1.275677E-2],"categories":[],"categories_nodes":[],"categories_segments":[],"categories_sizes":[],"default_left":[0,0,0,0,0,0,0,0,0],"id":103,"left_children":[1,3,-1,-1,5,-1,7,-1,-1],"loss_changes":[3.173428E-1,5.1699793E-1,0E0,0E0,4.120091E-1,0E0,2.1129452E-1,0E0,0E0],"parents":[2147483647,0,0,1,1,4,4,6,6],"right_children":[2,4,-1,-1,6,-1,8,-1,-1],"split_conditions":[5.2E0,3E0,-3.2566797E-2,-3.14434E-2,1.7E0,3.989329E-2,2.9E0,-2.9746259E-2,1.275677E-2],"split_indices":[2,2,0,0,3,0,1,0,0],"split_type":[0,0,0,0,0,0,0,0,0],"sum_hessian":[9.406412E0,7.9247823E0,1.4816294E0,1.5996995E0,6.325083E0,3.4597583E0,2.8653245E0,1.0711992E0,1.7941253E0],"tree_param":{"num_deleted":"0","num_feature":"4","num_nodes":"9","size_leaf_vector":"1"}},{"base_weights":[3.0788621E-2,-2.0235528E-1,3.2002065E-1,2.3303427E-2,-4.4526868E-2,2.8849696E-4,4.1740205E-2,-2.8872013E-2,2.5817407E-2],"categories":[],"categories_nodes":[],"categories_segments":[],"categories_sizes":[],"default_left":[0,0,0,0,0,0,0,0,0],"id":104,"left_children":[1,3,5,7,-1,-1,-1,-1,-1],"loss_changes":[7.692752E-1,3.610516E-1,1.5476596E-1,3.8722897E-1,0E0,0E0,0E0,0E0,0E0],"parents":[2147483647,0,0,1,1,2,2,3,3],"right_children":[2,4,6,8,-1,-1,-1,-1,-1],"split_conditions":[5.1E0,3.1E0,6.1E0,1.6E0,-4.4526868E-2,2.8849696E-4,4.1740205E-2,-2.8872013E-2,2.5817407E-2],"split_indices":[2,1,0,3,0,0,0,0,0],"split_type":[0,0,0,0,0,0,0,0,0],"sum_hessian":[9.447712E0,5.3973727E0,4.0503387E0,3.2667418E0,2.130631E0,1.1934224E0,2.8569164E0,1.3044792E0,1.9622624E0],"tree_param":{"num_deleted":"0","num_feature":"4","num_nodes":"9","size_leaf_vector":"1"}},{"base_weights":[-2.9969534E-2,3.804191E-2,-3.9086055E-2],"categories":[],"categories_nodes":[],"categories_segments":[],"categories_sizes":[],"default_left":[0,0,0],"id":105,"left_children":[1,-1,-1],"loss_changes":[1.171009E0,0E0,0E0],"parents":[2147483647,0,0],"right_children":[2,-1,-1],"split_conditions":[3E0,3.804191E-2,-3.9086055E-2],"split_indices":[2,0,0],"split_type":[0,0,0],"sum_hessian":[5.9026327E0,2.7365937E0,3.1660388E0],"tree_param":{"num_deleted":"0","num_feature":"4","num_nodes":"3","size_leaf_vector":"1"}},{"base_weights":[-1.0094803E-2,7.623796E-2,-3.162428E-2,-3.0596152E-2,1.9978204E-1,3.8962856E-2,-6.430722E-2,-2.911743E-2,1.2402908E-2],"categories":[],"categories_nodes":[],"categories_segments":[],"categories_sizes":[],"default_left":[0,0,0,0,0,0,0,0,0],"id":106,"left_children":[1,3,-1,-1,5,-1,7,-1,-1],"loss_changes":[2.8845343E-1,4.6754453E-1,0E0,0E0,3.8150522E-1,0E0,1.9983354E-1,0E0,0E0],"parents":[2147483647,0,0,1,1,4,4,6,6],"right_children":[2,4,-1,-1,6,-1,8,-1,-1],"split_conditions":[5.2E0,3E0,-3.162428E-2,-3.0596152E-2,1.7E0,3.8962856E-2,2.9E0,-2.911743E-2,1.2402908E-2],"split_indices":[2,2,0,0,3,0,1,0,0],"split_type":[0,0,0,0,0,0,0,0,0],"sum_hessian":[9.001428E0,7.6071987E0,1.394229E0,1.4976108E0,6.109588E0,3.2778587E0,2.8317294E0,1.0367917E0,1.7949376E0],"tree_param":{"num_deleted":"0","num_feature":"4","num_nodes":"9","size_leaf_vector":"1"}},{"base_weights":[3.0666912E-2,-1.9642735E-1,3.1134212E-1,2.5604196E-2,-4.3690063E-2,2.3992262E-4,4.08916E-2,-2.0066445E-1,3.356774E-2,-1.3018074E-3,-2.895893E-2],"categories":[],"categories_nodes":[],"categories_segments":[],"categories_sizes":[],"default_left":[0,0,0,0,0,0,0,0,0,0,0],"id":107,"left_children":[1,3,5,7,-1,-1,-1,9,-1,-1,-1],"loss_changes":[7.009719E-1,3.4017825E-1,1.4601079E-1,3.5840654E-1,0E0,0E0,0E0,4.669217E-2,0E0,0E0,0E0],"parents":[2147483647,0,0,1,1,2,2,3,3,7,7],"right_children":[2,4,6,8,-1,-1,-1,10,-1,-1,-1],"split_conditions":[5.1E0,3.1E0,6.1E0,1.8E0,-4.3690063E-2,2.3992262E-4,4.08916E-2,5.7E0,3.356774E-2,-1.3018074E-3,-2.895893E-2],"split_indices":[2,1,0,3,0,0,0,0,0,0,0],"split_type":[0,0,0,0,0,0,0,0,0,0,0],"sum_hessian":[9.037944E0,5.1617413E0,3.8762023E0,3.1483562E0,2.013385E0,1.1763085E0,2.699894E0,2.0241375E0,1.1242187E0,1.0194083E0,1.0047292E0],"tree_param":{"num_deleted":"0","num_feature":"4","num_nodes":"11","size_leaf_vector":"1"}},{"base_weights":[-3.007238E-2,3.726041E-2,-3.8404286E-2],"categories":[],"categories_nodes":[],"categories_segments":[],"categories_sizes":[],"default_left":[0,0,0],"id":108,"left_children":[1,-1,-1],"loss_changes":[1.0734444E0,0E0,0E0],"parents":[2147483647,0,0],"right_children":[2,-1,-1],"split_conditions":[3E0,3.726041E-2,-3.8404286E-2],"split_indices":[2,0,0],"split_type":[0,0,0],"sum_hessian":[5.52713E0,2.5610456E0,2.9660847E0],"tree_param":{"num_deleted":"0","num_feature":"4","num_nodes":"3","size_leaf_vector":"1"}},{"base_weights":[-1.0600515E-2,7.314264E-2,-3.0700535E-2,-2.9759122E-2,1.915196E-1,3.8077828E-2,-6.4581744E-2,-2.8628955E-2,1.1833864E-2],"categories":[],"categories_nodes":[],"categories_segments":[],"categories_sizes":[],"default_left":[0,0,0,0,0,0,0,0,0],"id":109,"left_children":[1,3,-1,-1,5,-1,7,-1,-1],"loss_changes":[2.6141483E-1,4.2185846E-1,0E0,0E0,3.595204E-1,0E0,1.8764243E-1,0E0,0E0],"parents":[2147483647,0,0,1,1,4,4,6,6],"right_children":[2,4,-1,-1,6,-1,8,-1,-1],"split_conditions":[5.2E0,3E0,-3.0700535E-2,-2.9759122E-2,1.7E0,3.8077828E-2,2.9E0,-2.8628955E-2,1.1833864E-2],"split_indices":[2,2,0,0,3,0,1,0,0],"split_type":[0,0,0,0,0,0,0,0,0],"sum_hessian":[8.626978E0,7.313836E0,1.3131415E0,1.4037218E0,5.9101143E0,3.1186264E0,2.791488E0,1.0064819E0,1.7850062E0],"tree_param":{"num_deleted":"0","num_feature":"4","num_nodes":"9","size_leaf_vector":"1"}},{"base_weights":[3.088012E-2,-1.8999276E-1,3.030149E-1,2.84834E-2,-4.285195E-2,2.0683637E-4,4.006296E-2,-1.9450616E-2,3.2972928E-2],"categories":[],"categories_nodes":[],"categories_segments":[],"categories_sizes":[],"default_left":[0,0,0,0,0,0,0,0,0],"id":110,"left_children":[1,3,5,7,-1,-1,-1,-1,-1],"loss_changes":[6.382685E-1,3.2213968E-1,1.3764265E-1,3.3564422E-1,0E0,0E0,0E0,0E0,0E0],"parents":[2147483647,0,0,1,1,2,2,3,3],"right_children":[2,4,6,8,-1,-1,-1,-1,-1],"split_conditions":[5.1E0,3.1E0,6.1E0,1.8E0,-4.285195E-2,2.0683637E-4,4.006296E-2,-1.9450616E-2,3.2972928E-2],"split_indices":[2,1,0,3,0,0,0,0,0],"split_type":[0,0,0,0,0,0,0,0,0],"sum_hessian":[8.661039E0,4.947412E0,3.713627E0,3.0418484E0,1.9055636E0,1.1596403E0,2.553987E0,1.9515735E0,1.0902748E0],"tree_param":{"num_deleted":"0","num_feature":"4","num_nodes":"9","size_leaf_vector":"1"}},{"base_weights":[-3.0504743E-2,3.6467873E-2,-3.7725102E-2],"categories":[],"categories_nodes":[],"categories_segments":[],"categories_sizes":[],"default_left":[0,0,0],"id":111,"left_children":[1,-1,-1],"loss_changes":[9.843341E-1,0E0,0E0],"parents":[2147483647,0,0],"right_children":[2,-1,-1],"split_conditions":[3E0,3.6467873E-2,-3.7725102E-2],"split_indices":[2,0,0],"split_type":[0,0,0],"sum_hessian":[5.17944E0,2.3964791E0,2.7829607E0],"tree_param":{"num_deleted":"0","num_feature":"4","num_nodes":"3","size_leaf_vector":"1"}},{"base_weights":[-1.1408328E-2,6.974146E-2,-2.9796442E-2,-2.8935323E-2,1.8310761E-1,3.719805E-2,-6.521198E-2,1.4375675E-3,-1.1104087E-2],"categories":[],"categories_nodes":[],"categories_segments":[],"categories_sizes":[],"default_left":[0,0,0,0,0,0,0,0,0],"id":112,"left_children":[1,3,-1,-1,5,-1,7,-1,-1],"loss_changes":[2.3659794E-1,3.804069E-1,0E0,0E0,3.396909E-1,0E0,1.5297288E-2,0E0,0E0],"parents":[2147483647,0,0,1,1,4,4,6,6],"right_children":[2,4,-1,-1,6,-1,8,-1,-1],"split_conditions":[5.2E0,3E0,-2.9796442E-2,-2.8935323E-2,1.7E0,3.719805E-2,4.9E0,1.4375675E-3,-1.1104087E-2],"split_indices":[2,2,0,0,3,0,2,0,0],"split_type":[0,0,0,0,0,0,0,0,0],"sum_hessian":[8.2808895E0,7.0430036E0,1.2378855E0,1.3174664E0,5.7255373E0,2.9691777E0,2.7563596E0,1.2580009E0,1.4983588E0],"tree_param":{"num_deleted":"0","num_feature":"4","num_nodes":"9","size_leaf_vector":"1"}},{"base_weights":[3.162293E-2,-1.8294497E-1,2.9502743E-1,3.2389108E-2,-4.2016428E-2,1.0247252E-5,3.9301608E-2,-1.8698791E-2,3.239574E-2],"categories":[],"categories_nodes":[],"categories_segments":[],"categories_sizes":[],"default_left":[0,0,0,0,0,0,0,0,0],"id":113,"left_children":[1,3,5,7,-1,-1,-1,-1,-1],"loss_changes":[5.801068E-1,3.0719268E-1,1.3179034E-1,3.1266132E-1,0E0,0E0,0E0,0E0,0E0],"parents":[2147483647,0,0,1,1,2,2,3,3],"right_children":[2,4,6,8,-1,-1,-1,-1,-1],"split_conditions":[5.1E0,3.1E0,2.8E0,1.8E0,-4.2016428E-2,1.0247252E-5,3.9301608E-2,-1.8698791E-2,3.239574E-2],"split_indices":[2,1,1,3,0,0,0,0,0],"split_type":[0,0,0,0,0,0,0,0,0],"sum_hessian":[8.309098E0,4.7473736E0,3.5617251E0,2.941087E0,1.8062865E0,1.1379085E0,2.4238167E0,1.8829962E0,1.0580908E0],"tree_param":{"num_deleted":"0","num_feature":"4","num_nodes":"9","size_leaf_vector":"1"}},{"base_weights":[-3.1110505E-2,3.5680786E-2,-3.7057508E-2],"categories":[],"categories_nodes":[],"categories_segments":[],"categories_sizes":[],"default_left":[0,0,0],"id":114,"left_children":[1,-1,-1],"loss_changes":[9.0417975E-1,0E0,0E0],"parents":[2147483647,0,0],"right_children":[2,-1,-1],"split_conditions":[3E0,3.5680786E-2,-3.7057508E-2],"split_indices":[2,0,0],"split_type":[0,0,0],"sum_hessian":[4.8621583E0,2.2452922E0,2.616866E0],"tree_param":{"num_deleted":"0","num_feature":"4","num_nodes":"3","size_leaf_vector":"1"}},{"base_weights":[-1.1725237E-2,6.750106E-2,-2.9007126E-2,-2.4349304E-2,1.956622E-1,3.6152348E-2,-1.0269379E-2],"categories":[],"categories_nodes":[],"categories_segments":[],"categories_sizes":[],"default_left":[0,0,0,0,0,0,0],"id":115,"left_children":[1,3,-1,-1,5,-1,-1],"loss_changes":[2.1729174E-1,3.581438E-1,0E0,0E0,3.375679E-1,0E0,0E0],"parents":[2147483647,0,0,1,1,4,4],"right_children":[2,4,-1,-1,6,-1,-1],"split_conditions":[5.2E0,5.5E0,-2.9007126E-2,-2.4349304E-2,1.8E0,3.6152348E-2,-1.0269379E-2],"split_indices":[2,0,0,0,3,0,0],"split_type":[0,0,0,0,0,0,0],"sum_hessian":[7.9655685E0,6.7903166E0,1.1752518E0,1.7190343E0,5.0712824E0,3.1232789E0,1.9480035E0],"tree_param":{"num_deleted":"0","num_feature":"4","num_nodes":"7","size_leaf_vector":"1"}},{"base_weights":[3.1982858E-2,-1.7645173E-1,2.8738308E-1,3.570929E-2,-4.1266806E-2,-7.3225114E-5,3.8526367E-2,-2.5951197E-2,2.3779426E-2],"categories":[],"categories_nodes":[],"categories_segments":[],"categories_sizes":[],"default_left":[0,0,0,0,0,0,0,0,0],"id":116,"left_children":[1,3,5,7,-1,-1,-1,-1,-1],"loss_changes":[5.292419E-1,2.9384536E-1,1.2492767E-1,2.9166263E-1,0E0,0E0,0E0,0E0,0E0],"parents":[2147483647,0,0,1,1,2,2,3,3],"right_children":[2,4,6,8,-1,-1,-1,-1,-1],"split_conditions":[5.1E0,3.1E0,6.1E0,1.6E0,-4.1266806E-2,-7.3225114E-5,3.8526367E-2,-2.5951197E-2,2.3779426E-2],"split_indices":[2,1,0,3,0,0,0,0,0],"split_type":[0,0,0,0,0,0,0,0,0],"sum_hessian":[7.9891906E0,4.5692763E0,3.419914E0,2.854392E0,1.7148844E0,1.1189021E0,2.3010118E0,1.0444323E0,1.8099598E0],"tree_param":{"num_deleted":"0","num_feature":"4","num_nodes":"9","size_leaf_vector":"1"}},{"base_weights":[-3.0843165E-2,3.4957677E-2,-3.639643E-2],"categories":[],"categories_nodes":[],"categories_segments":[],"categories_sizes":[],"default_left":[0,0,0],"id":117,"left_children":[1,-1,-1],"loss_changes":[8.346604E-1,0E0,0E0],"parents":[2147483647,0,0],"right_children":[2,-1,-1],"split_conditions":[3E0,3.4957677E-2,-3.639643E-2],"split_indices":[2,0,0],"split_type":[0,0,0],"sum_hessian":[4.5823383E0,2.1162317E0,2.466107E0],"tree_param":{"num_deleted":"0","num_feature":"4","num_nodes":"3","size_leaf_vector":"1"}},{"base_weights":[-1.10732345E-2,6.7686535E-2,-2.7898658E-2,-2.3546353E-2,1.9295453E-1,2.8312626E-1,-5.145592E-3,3.456918E-2,5.519168E-3],"categories":[],"categories_nodes":[],"categories_segments":[],"categories_sizes":[],"default_left":[0,0,0,0,0,0,0,0,0],"id":118,"left_children":[1,3,-1,-1,5,7,-1,-1,-1],"loss_changes":[2.0206714E-1,3.3077085E-1,0E0,0E0,1.4385788E-1,4.4227093E-2,0E0,0E0,0E0],"parents":[2147483647,0,0,1,1,4,4,5,5],"right_children":[2,4,-1,-1,6,8,-1,-1,-1],"split_conditions":[1.9E0,5.5E0,-2.7898658E-2,-2.3546353E-2,5.1E0,1.8E0,-5.145592E-3,3.456918E-2,5.519168E-3],"split_indices":[3,0,0,0,2,3,0,0,0],"split_type":[0,0,0,0,0,0,0,0,0],"sum_hessian":[7.681356E0,6.513815E0,1.1675408E0,1.6474024E0,4.8664126E0,3.4391737E0,1.4272388E0,2.2931123E0,1.1460614E0],"tree_param":{"num_deleted":"0","num_feature":"4","num_nodes":"9","size_leaf_vector":"1"}},{"base_weights":[3.0899024E-2,-1.7279586E-1,2.800642E-1,3.6163945E-2,-4.061937E-2,-4.0209803E-4,3.7847914E-2,-1.7631074E-2,3.116695E-2],"categories":[],"categories_nodes":[],"categories_segments":[],"categories_sizes":[],"default_left":[0,0,0,0,0,0,0,0,0],"id":119,"left_children":[1,3,5,7,-1,-1,-1,-1,-1],"loss_changes":[4.8911175E-1,2.7786186E-1,1.2138879E-1,2.7536687E-1,0E0,0E0,0E0,0E0,0E0],"parents":[2147483647,0,0,1,1,2,2,3,3],"right_children":[2,4,6,8,-1,-1,-1,-1,-1],"split_conditions":[5.1E0,3.1E0,2.8E0,1.8E0,-4.061937E-2,-4.0209803E-4,3.7847914E-2,-1.7631074E-2,3.116695E-2],"split_indices":[2,1,1,3,0,0,0,0,0],"split_type":[0,0,0,0,0,0,0,0,0],"sum_hessian":[7.6834674E0,4.396108E0,3.2873592E0,2.765355E0,1.6307529E0,1.0925988E0,2.1947603E0,1.76455E0,1.0008051E0],"tree_param":{"num_deleted":"0","num_feature":"4","num_nodes":"9","size_leaf_vector":"1"}},{"base_weights":[-3.0858072E-2,3.4250677E-2,-3.5763886E-2],"categories":[],"categories_nodes":[],"categories_segments":[],"categories_sizes":[],"default_left":[0,0,0],"id":120,"left_children":[1,-1,-1],"loss_changes":[7.7276176E-1,0E0,0E0],"parents":[2147483647,0,0],"right_children":[2,-1,-1],"split_conditions":[3E0,3.4250677E-2,-3.5763886E-2],"split_indices":[2,0,0],"split_type":[0,0,0],"sum_hessian":[4.3296967E0,1.9983494E0,2.3313472E0],"tree_param":{"num_deleted":"0","num_feature":"4","num_nodes":"3","size_leaf_vector":"1"}},{"base_weights":[-1.0649933E-2,6.625304E-2,-2.7210785E-2,-2.292764E-2,1.8835697E-1,2.7465212E-1,-4.530354E-3,3.3691533E-2,5.352071E-3],"categories":[],"categories_nodes":[],"categories_segments":[],"categories_sizes":[],"default_left":[0,0,0,0,0,0,0,0,0],"id":121,"left_children":[1,3,-1,-1,5,7,-1,-1,-1],"loss_changes":[1.8738005E-1,3.0705917E-1,0E0,0E0,1.278504E-1,4.146692E-2,0E0,0E0,0E0],"parents":[2147483647,0,0,1,1,4,4,5,5],"right_children":[2,4,-1,-1,6,8,-1,-1,-1],"split_conditions":[1.9E0,5.5E0,-2.7210785E-2,-2.292764E-2,5.1E0,1.8E0,-4.530354E-3,3.3691533E-2,5.352071E-3],"split_indices":[3,0,0,0,2,3,0,0,0],"split_type":[0,0,0,0,0,0,0,0,0],"sum_hessian":[7.422589E0,6.312489E0,1.1100998E0,1.5889708E0,4.7235184E0,3.321423E0,1.4020953E0,2.183129E0,1.138294E0],"tree_param":{"num_deleted":"0","num_feature":"4","num_nodes":"9","size_leaf_vector":"1"}},{"base_weights":[3.024165E-2,-1.664803E-1,2.7043527E-1,3.9345328E-2,-3.984527E-2,-8.590072E-4,3.7093557E-2,-9.149687E-3,1.5345535E-2],"categories":[],"categories_nodes":[],"categories_segments":[],"categories_sizes":[],"default_left":[0,0,0,0,0,0,0,0,0],"id":122,"left_children":[1,3,5,7,-1,-1,-1,-1,-1],"loss_changes":[4.4214693E-1,2.6583374E-1,1.1998692E-1,6.9077894E-2,0E0,0E0,0E0,0E0,0E0],"parents":[2147483647,0,0,1,1,2,2,3,3],"right_children":[2,4,6,8,-1,-1,-1,-1,-1],"split_conditions":[5.1E0,3.1E0,2.8E0,4.8E0,-3.984527E-2,-8.590072E-4,3.7093557E-2,-9.149687E-3,1.5345535E-2],"split_indices":[2,1,1,2,0,0,0,0,0],"split_type":[0,0,0,0,0,0,0,0,0],"sum_hessian":[7.4045153E0,4.239333E0,3.1651819E0,2.6862504E0,1.5530825E0,1.0803272E0,2.0848548E0,1.3436958E0,1.3425548E0],"tree_param":{"num_deleted":"0","num_feature":"4","num_nodes":"9","size_leaf_vector":"1"}},{"base_weights":[-3.0861171E-2,3.3561166E-2,-3.5143282E-2],"categories":[],"categories_nodes":[],"categories_segments":[],"categories_sizes":[],"default_left":[0,0,0],"id":123,"left_children":[1,-1,-1],"loss_changes":[7.169735E-1,0E0,0E0],"parents":[2147483647,0,0],"right_children":[2,-1,-1],"split_conditions":[3E0,3.3561166E-2,-3.5143282E-2],"split_indices":[2,0,0],"split_type":[0,0,0],"sum_hessian":[4.0989485E0,1.8906587E0,2.2082896E0],"tree_param":{"num_deleted":"0","num_feature":"4","num_nodes":"3","size_leaf_vector":"1"}},{"base_weights":[-9.749326E-3,6.51368E-2,-2.7013808E-2,-2.226109E-2,1.8291962E-1,3.4426287E-2,-9.530577E-3],"categories":[],"categories_nodes":[],"categories_segments":[],"categories_sizes":[],"default_left":[0,0,0,0,0,0,0],"id":124,"left_children":[1,3,-1,-1,5,-1,-1],"loss_changes":[1.7744955E-1,2.8380853E-1,0E0,0E0,2.8591013E-1,0E0,0E0],"parents":[2147483647,0,0,1,1,4,4],"right_children":[2,4,-1,-1,6,-1,-1],"split_conditions":[5.2E0,5.5E0,-2.7013808E-2,-2.226109E-2,1.8E0,3.4426287E-2,-9.530577E-3],"split_indices":[2,0,0,0,3,0,0],"split_type":[0,0,0,0,0,0,0],"sum_hessian":[7.1978297E0,6.1725054E0,1.0253248E0,1.5342543E0,4.638251E0,2.7855527E0,1.8526981E0],"tree_param":{"num_deleted":"0","num_feature":"4","num_nodes":"7","size_leaf_vector":"1"}},{"base_weights":[2.905982E-2,-2.0861825E-1,2.1942663E-1,-3.7670292E-2,1.0936885E-2,3.1469193E-1,-4.442393E-3,3.9564446E-2,4.698873E-3],"categories":[],"categories_nodes":[],"categories_segments":[],"categories_sizes":[],"default_left":[0,0,0,0,0,0,0,0,0],"id":125,"left_children":[1,3,5,-1,-1,7,-1,-1,-1],"loss_changes":[4.1522676E-1,2.6269415E-1,1.4019455E-1,0E0,0E0,6.404111E-2,0E0,0E0,0E0],"parents":[2147483647,0,0,1,1,2,2,5,5],"right_children":[2,4,6,-1,-1,8,-1,-1,-1],"split_conditions":[1.7E0,6.1E0,3.1E0,-3.7670292E-2,1.0936885E-2,6.2E0,-4.442393E-3,3.9564446E-2,4.698873E-3],"split_indices":[3,0,1,0,0,0,0,0,0],"split_type":[0,0,0,0,0,0,0,0,0],"sum_hessian":[7.165367E0,3.1440551E0,4.021312E0,1.9360377E0,1.2080175E0,2.8129756E0,1.2083366E0,1.7928898E0,1.0200858E0],"tree_param":{"num_deleted":"0","num_feature":"4","num_nodes":"9","size_leaf_vector":"1"}},{"base_weights":[-3.1915057E-2,3.2861665E-2,-3.4566592E-2],"categories":[],"categories_nodes":[],"categories_segments":[],"categories_sizes":[],"default_left":[0,0,0],"id":126,"left_children":[1,-1,-1],"loss_changes":[6.6678417E-1,0E0,0E0],"parents":[2147483647,0,0],"right_children":[2,-1,-1],"split_conditions":[3E0,