{"learner":{"attributes":{"best_iteration":"78","best_score":"0.07691383994135417"},"feature_names":[],"feature_types":[],"gradient_booster":{"model":{"gbtree_model_param":{"num_parallel_tree":"1","num_trees":"387"},"iteration_indptr":[0,3,6,9,12,15,18,21,24,27,30,33,36,39,42,45,48,51,54,57,60,63,66,69,72,75,78,81,84,87,90,93,96,99,102,105,108,111,114,117,120,123,126,129,132,135,138,141,144,147,150,153,156,159,162,165,168,171,174,177,180,183,186,189,192,195,198,201,204,207,210,213,216,219,222,225,228,231,234,237,240,243,246,249,252,255,258,261,264,267,270,273,276,279,282,285,288,291,294,297,300,303,306,309,312,315,318,321,324,327,330,333,336,339,342,345,348,351,354,357,360,363,366,369,372,375,378,381,384,387],"tree_info":[0,1,2,0,1,2,0,1,2,0,1,2,0,1,2,0,1,2,0,1,2,0,1,2,0,1,2,0,1,2,0,1,2,0,1,2,0,1,2,0,1,2,0,1,2,0,1,2,0,1,2,0,1,2,0,1,2,0,1,2,0,1,2,0,1,2,0,1,2,0,1,2,0,1,2,0,1,2,0,1,2,0,1,2,0,1,2,0,1,2,0,1,2,0,1,2,0,1,2,0,1,2,0,1,2,0,1,2,0,1,2,0,1,2,0,1,2,0,1,2,0,1,2,0,1,2,0,1,2,0,1,2,0,1,2,0,1,2,0,1,2,0,1,2,0,1,2,0,1,2,0,1,2,0,1,2,0,1,2,0,1,2,0,1,2,0,1,2,0,1,2,0,1,2,0,1,2,0,1,2,0,1,2,0,1,2,0,1,2,0,1,2,0,1,2,0,1,2,0,1,2,0,1,2,0,1,2,0,1,2,0,1,2,0,1,2,0,1,2,0,1,2,0,1,2,0,1,2,0,1,2,0,1,2,0,1,2,0,1,2,0,1,2,0,1,2,0,1,2,0,1,2,0,1,2,0,1,2,0,1,2,0,1,2,0,1,2,0,1,2,0,1,2,0,1,2,0,1,2,0,1,2,0,1,2,0,1,2,0,1,2,0,1,2,0,1,2,0,1,2,0,1,2,0,1,2,0,1,2,0,1,2,0,1,2,0,1,2,0,1,2,0,1,2,0,1,2,0,1,2,0,1,2,0,1,2,0,1,2,0,1,2,0,1,2,0,1,2,0,1,2,0,1,2,0,1,2,0,1,2,0,1,2,0,1,2,0,1,2,0,1,2,0,1,2,0,1,2,0,1,2,0,1,2,0,1,2],"trees":[{"base_weights":[1.3129059E-2,1.0621118E-1,-5.459017E-2],"categories":[],"categories_nodes":[],"categories_segments":[],"categories_sizes":[],"default_left":[0,0,0],"id":0,"left_children":[1,-1,-1],"loss_changes":[5.382112E1,0E0,0E0],"parents":[2147483647,0,0],"right_children":[2,-1,-1],"split_conditions":[3E0,1.0621118E-1,-5.459017E-2],"split_indices":[2,0,0],"split_type":[0,0,0],"sum_hessian":[4.9777775E1,1.6888887E1,3.2888885E1],"tree_param":{"num_deleted":"0","num_feature":"4","num_nodes":"3","size_leaf_vector":"1"}},{"base_weights":[-6.5645953E-3,-5.3105596E-2,3.639344E-1,1.2071006E0,-6.4137936E-1,1.3529412E0,-9.000002E-3,-1.5517245E-2,-5.2200004E-2,1.0531915E-1,3.2142855E-2],"categories":[],"categories_nodes":[],"categories_segments":[],"categories_sizes":[],"default_left":[0,0,0,0,0,0,0,0,0,0,0],"id":1,"left_children":[1,-1,3,5,7,9,-1,-1,-1,-1,-1],"loss_changes":[1.3455281E1,0E0,2.950001E1,3.7966995E0,2.3834467E-1,2.0454216E-1,0E0,0E0,0E0,0E0,0E0],"parents":[2147483647,0,0,2,2,3,3,4,4,5,5],"right_children":[2,-1,4,6,8,10,-1,-1,-1,-1,-1],"split_conditions":[3E0,-5.3105596E-2,1.8E0,5.1E0,5E0,1.6E0,-9.000002E-3,-1.5517245E-2,-5.2200004E-2,1.0531915E-1,3.2142855E-2],"split_indices":[2,0,3,2,2,3,0,0,0,0,0],"split_type":[0,0,0,0,0,0,0,0,0,0,0],"sum_hessian":[4.9777775E1,1.6888887E1,3.2888885E1,1.7777777E1,1.5111111E1,1.5999999E1,1.7777777E0,2.222222E0,1.2888888E1,1.4666666E1,1.3333333E0],"tree_param":{"num_deleted":"0","num_feature":"4","num_nodes":"11","size_leaf_vector":"1"}},{"base_weights":[-6.5645953E-3,-6.9696975E-1,1.2071006E0,-5.4368034E-2,-3.2432437E-1,2.7272725E-1,1.0086207E-1,-9.000002E-3,-3.2142863E-2,3.2142855E-2,-1.9158637E-9],"categories":[],"categories_nodes":[],"categories_segments":[],"categories_sizes":[],"default_left":[0,0,0,0,0,0,0,0,0,0,0],"id":2,"left_children":[1,3,5,-1,7,9,-1,-1,-1,-1,-1],"loss_changes":[4.338906E1,1.08449936E-1,2.0497112E0,0E0,3.613898E-2,1.5584418E-1,0E0,0E0,0E0,0E0,0E0],"parents":[2147483647,0,0,1,1,2,2,4,4,5,5],"right_children":[2,4,6,-1,8,10,-1,-1,-1,-1,-1],"split_conditions":[4.8E0,1.5E0,1.8E0,-5.4368034E-2,6.1E0,6.4E0,1.0086207E-1,-9.000002E-3,-3.2142863E-2,3.2142855E-2,-1.9158637E-9],"split_indices":[2,3,3,0,0,0,0,0,0,0,0],"split_type":[0,0,0,0,0,0,0,0,0,0,0],"sum_hessian":[4.9777775E1,3.1999998E1,1.7777777E1,2.8888887E1,3.111111E0,2.6666665E0,1.5111111E1,1.7777777E0,1.3333333E0,1.3333333E0,1.3333333E0],"tree_param":{"num_deleted":"0","num_feature":"4","num_nodes":"11","size_leaf_vector":"1"}},{"base_weights":[1.2491091E-2,9.599412E-2,-5.308973E-2],"categories":[],"categories_nodes":[],"categories_segments":[],"categories_sizes":[],"default_left":[0,0,0],"id":3,"left_children":[1,-1,-1],"loss_changes":[4.7149113E1,0E0,0E0],"parents":[2147483647,0,0],"right_children":[2,-1,-1],"split_conditions":[3E0,9.599412E-2,-5.308973E-2],"split_indices":[2,0,0],"split_type":[0,0,0],"sum_hessian":[4.9649693E1,1.7711071E1,3.1938622E1],"tree_param":{"num_deleted":"0","num_feature":"4","num_nodes":"3","size_leaf_vector":"1"}},{"base_weights":[-6.46736E-3,-5.1623303E-2,3.403897E-1,1.1784132E0,-5.235709E-1,2.8699113E-2,9.169357E-2,-7.684051E-2,-6.138949E-1,-3.5038542E-2,3.0779084E-2,-1.4134956E-2,-5.053982E-2],"categories":[],"categories_nodes":[],"categories_segments":[],"categories_sizes":[],"default_left":[0,0,0,0,0,0,0,0,0,0,0,0,0],"id":4,"left_children":[1,-1,3,5,7,-1,-1,9,11,-1,-1,-1,-1],"loss_changes":[1.2212182E1,0E0,2.5406168E1,1.5384102E-1,6.610036E-1,0E0,0E0,9.704961E-1,2.4180603E-1,0E0,0E0,0E0,0E0],"parents":[2147483647,0,0,2,2,3,3,4,4,7,7,8,8],"right_children":[2,-1,4,6,8,-1,-1,10,12,-1,-1,-1,-1],"split_conditions":[3E0,-5.1623303E-2,4.9E0,5.1E0,5.1E0,2.8699113E-2,9.169357E-2,2.9E0,6.1E0,-3.5038542E-2,3.0779084E-2,-1.4134956E-2,-5.053982E-2],"split_indices":[2,0,2,0,2,0,0,1,0,0,0,0,0],"split_type":[0,0,0,0,0,0,0,0,0,0,0,0,0],"sum_hessian":[4.9646E1,1.6407705E1,3.3238297E1,1.6687656E1,1.6550638E1,1.3856926E0,1.5301964E1,3.0948143E0,1.3455825E1,1.7410941E0,1.3537204E0,2.1742413E0,1.1281584E1],"tree_param":{"num_deleted":"0","num_feature":"4","num_nodes":"13","size_leaf_vector":"1"}},{"base_weights":[-6.0263197E-3,-5.0787967E-2,1.0994968E0,5.4161626E-1,9.106569E-2,6.654362E-2,5.6083873E-3],"categories":[],"categories_nodes":[],"categories_segments":[],"categories_sizes":[],"default_left":[0,0,0,0,0,0,0],"id":5,"left_children":[1,-1,3,5,-1,-1,-1],"loss_changes":[3.831158E1,0E0,5.90765E-1,7.6177335E-1,0E0,0E0,0E0],"parents":[2147483647,0,0,2,2,3,3],"right_children":[2,-1,4,6,-1,-1,-1],"split_conditions":[4.8E0,-5.0787967E-2,5.1E0,2.9E0,9.106569E-2,6.654362E-2,5.6083873E-3],"split_indices":[2,0,2,1,0,0,0],"split_type":[0,0,0,0,0,0,0],"sum_hessian":[4.963161E1,3.1124098E1,1.8507511E1,4.13232E0,1.4375191E1,1.8569466E0,2.2753735E0],"tree_param":{"num_deleted":"0","num_feature":"4","num_nodes":"7","size_leaf_vector":"1"}},{"base_weights":[1.1342389E-2,8.786668E-2,-5.1749326E-2],"categories":[],"categories_nodes":[],"categories_segments":[],"categories_sizes":[],"default_left":[0,0,0],"id":6,"left_children":[1,-1,-1],"loss_changes":[4.1712273E1,0E0,0E0],"parents":[2147483647,0,0],"right_children":[2,-1,-1],"split_conditions":[3E0,8.786668E-2,-5.1749326E-2],"split_indices":[2,0,0],"split_type":[0,0,0],"sum_hessian":[4.926926E1,1.8309483E1,3.095978E1],"tree_param":{"num_deleted":"0","num_feature":"4","num_nodes":"3","size_leaf_vector":"1"}},{"base_weights":[-6.7661395E-3,-5.023632E-2,3.1885213E-1,1.0795314E0,-5.06891E-1,2.6601633E-2,8.395584E-2,-7.565991E-2,-5.959131E-1,-3.4285907E-2,2.9363446E-2,-1.323083E-2,-4.92233E-2],"categories":[],"categories_nodes":[],"categories_segments":[],"categories_sizes":[],"default_left":[0,0,0,0,0,0,0,0,0,0,0,0,0],"id":7,"left_children":[1,-1,3,5,7,-1,-1,9,11,-1,-1,-1,-1],"loss_changes":[1.1074466E1,0E0,2.216379E1,1.2999535E-1,6.145139E-1,0E0,0E0,9.070922E-1,2.4138021E-1,0E0,0E0,0E0,0E0],"parents":[2147483647,0,0,2,2,3,3,4,4,7,7,8,8],"right_children":[2,-1,4,6,8,-1,-1,10,12,-1,-1,-1,-1],"split_conditions":[3E0,-5.023632E-2,4.9E0,5.1E0,5.1E0,2.6601633E-2,8.395584E-2,2.9E0,6.1E0,-3.4285907E-2,2.9363446E-2,-1.323083E-2,-4.92233E-2],"split_indices":[2,0,2,0,2,0,0,1,0,0,0,0,0],"split_type":[0,0,0,0,0,0,0,0,0,0,0,0,0],"sum_hessian":[4.9304817E1,1.5890392E1,3.3414425E1,1.7232449E1,1.6181976E1,1.414621E0,1.5817827E1,3.0854886E0,1.3096487E1,1.7103268E0,1.3751618E0,2.141705E0,1.09547825E1],"tree_param":{"num_deleted":"0","num_feature":"4","num_nodes":"13","size_leaf_vector":"1"}},{"base_weights":[-4.574282E-3,-6.5871155E-1,1.0139128E0,-5.1539868E-2,-2.923929E-1,2.17663E-1,8.467733E-2,2.1067772E-3,-3.414958E-2,2.8578319E-2,-2.7725864E-3],"categories":[],"categories_nodes":[],"categories_segments":[],"categories_sizes":[],"default_left":[0,0,0,0,0,0,0,0,0,0,0],"id":8,"left_children":[1,3,5,-1,7,9,-1,-1,-1,-1,-1],"loss_changes":[3.413822E1,1.2461662E-1,1.5912914E0,0E0,2.2122267E-1,1.709387E-1,0E0,0E0,0E0,0E0,0E0],"parents":[2147483647,0,0,1,1,2,2,4,4,5,5],"right_children":[2,4,6,-1,8,10,-1,-1,-1,-1,-1],"split_conditions":[4.8E0,1.5E0,1.8E0,-5.1539868E-2,3E0,1.6E0,8.467733E-2,2.1067772E-3,-3.414958E-2,2.8578319E-2,-2.7725864E-3],"split_indices":[2,3,3,0,1,3,0,0,0,0,0],"split_type":[0,0,0,0,0,0,0,0,0,0,0],"sum_hessian":[4.92384E1,3.0197126E1,1.9041273E1,2.7205536E1,2.9915907E0,2.7703168E0,1.6270956E1,1.2872473E0,1.7043433E0,1.3851147E0,1.3852022E0],"tree_param":{"num_deleted":"0","num_feature":"4","num_nodes":"11","size_leaf_vector":"1"}},{"base_weights":[1.0412818E-2,8.118021E-2,-5.0501738E-2],"categories":[],"categories_nodes":[],"categories_segments":[],"categories_sizes":[],"default_left":[0,0,0],"id":9,"left_children":[1,-1,-1],"loss_changes":[3.7109135E1,0E0,0E0],"parents":[2147483647,0,0],"right_children":[2,-1,-1],"split_conditions":[3E0,8.118021E-2,-5.0501738E-2],"split_indices":[2,0,0],"split_type":[0,0,0],"sum_hessian":[4.8632473E1,1.8712566E1,2.9919909E1],"tree_param":{"num_deleted":"0","num_feature":"4","num_nodes":"3","size_leaf_vector":"1"}},{"base_weights":[-6.4881872E-3,-4.89662E-2,3.01076E-1,9.4990915E-1,-5.95127E-1,1.051851E0,-7.1228626E-3,-1.5467537E-2,-4.845166E-2,8.174944E-2,2.6001554E-2],"categories":[],"categories_nodes":[],"categories_segments":[],"categories_sizes":[],"default_left":[0,0,0,0,0,0,0,0,0,0,0],"id":10,"left_children":[1,-1,3,5,7,9,-1,-1,-1,-1,-1],"loss_changes":[1.0086811E1,0E0,2.056441E1,2.2659225E0,1.6480923E-1,1.22652054E-1,0E0,0E0,0E0,0E0,0E0],"parents":[2147483647,0,0,2,2,3,3,4,4,5,5],"right_children":[2,-1,4,6,8,10,-1,-1,-1,-1,-1],"split_conditions":[3E0,-4.89662E-2,1.8E0,5.1E0,5E0,1.6E0,-7.1228626E-3,-1.5467537E-2,-4.845166E-2,8.174944E-2,2.6001554E-2],"split_indices":[2,0,3,2,2,3,0,0,0,0,0],"split_type":[0,0,0,0,0,0,0,0,0,0,0],"sum_hessian":[4.8747772E1,1.5354702E1,3.339307E1,1.9334993E1,1.4058077E1,1.7610212E1,1.7247801E0,2.211556E0,1.184652E1,1.6188847E1,1.421366E0],"tree_param":{"num_deleted":"0","num_feature":"4","num_nodes":"11","size_leaf_vector":"1"}},{"base_weights":[-3.90684E-3,-6.4181453E-1,9.4053906E-1,-3.4268403E-1,-5.0299402E-2,4.7396994E-1,7.756239E-2,-3.7371483E-2,3.6395967E-3,5.861911E-2,4.206577E-3],"categories":[],"categories_nodes":[],"categories_segments":[],"categories_sizes":[],"default_left":[0,0,0,0,0,0,0,0,0,0,0],"id":11,"left_children":[1,3,5,7,-1,9,-1,-1,-1,-1,-1],"loss_changes":[3.052711E1,3.1085968E-2,4.022255E-1,3.1054705E-1,0E0,6.3237107E-1,0E0,0E0,0E0,0E0,0E0],"parents":[2147483647,0,0,1,1,2,2,3,3,5,5],"right_children":[2,4,6,8,-1,10,-1,-1,-1,-1,-1],"split_conditions":[4.8E0,2.6E0,5.1E0,2.5E0,-5.0299402E-2,2.9E0,7.756239E-2,-3.7371483E-2,3.6395967E-3,5.861911E-2,4.206577E-3],"split_indices":[2,1,2,1,0,1,0,0,0,0,0],"split_type":[0,0,0,0,0,0,0,0,0,0,0],"sum_hessian":[4.866802E1,2.9239319E1,1.94287E1,3.704282E0,2.5535036E1,4.260352E0,1.5168346E1,2.4543705E0,1.2499115E0,1.9526103E0,2.3077419E0],"tree_param":{"num_deleted":"0","num_feature":"4","num_nodes":"11","size_leaf_vector":"1"}},{"base_weights":[9.423952E-3,7.5636216E-2,-4.93497E-2],"categories":[],"categories_nodes":[],"categories_segments":[],"categories_sizes":[],"default_left":[0,0,0],"id":12,"left_children":[1,-1,-1],"loss_changes":[3.319744E1,0E0,0E0],"parents":[2147483647,0,0],"right_children":[2,-1,-1],"split_conditions":[3E0,7.5636216E-2,-4.93497E-2],"split_indices":[2,0,0],"split_type":[0,0,0],"sum_hessian":[4.7791645E1,1.8935753E1,2.885589E1],"tree_param":{"num_deleted":"0","num_feature":"4","num_nodes":"3","size_leaf_vector":"1"}},{"base_weights":[-6.424754E-3,-4.7787737E-2,2.8519037E-1,8.8851285E-1,-5.803103E-1,9.8116404E-1,-6.421397E-3,-1.5243137E-2,-4.730009E-2,2.2394784E-2,7.659918E-2],"categories":[],"categories_nodes":[],"categories_segments":[],"categories_sizes":[],"default_left":[0,0,0,0,0,0,0,0,0,0,0],"id":13,"left_children":[1,-1,3,5,7,9,-1,-1,-1,-1,-1],"loss_changes":[9.194365E0,0E0,1.8373142E1,1.938406E0,1.5003633E-1,2.1151352E-1,0E0,0E0,0E0,0E0,0E0],"parents":[2147483647,0,0,2,2,3,3,4,4,5,5],"right_children":[2,-1,4,6,8,10,-1,-1,-1,-1,-1],"split_conditions":[3E0,-4.7787737E-2,1.8E0,5.1E0,5E0,5.1E0,-6.421397E-3,-1.5243137E-2,-4.730009E-2,2.2394784E-2,7.659918E-2],"split_indices":[2,0,3,2,2,0,0,0,0,0,0],"split_type":[0,0,0,0,0,0,0,0,0,0,0],"sum_hessian":[4.7999157E1,1.4800861E1,3.3198296E1,1.9546352E1,1.3651943E1,1.7842138E1,1.7042141E0,2.2017314E0,1.1450212E1,1.4601206E0,1.6382017E1],"tree_param":{"num_deleted":"0","num_feature":"4","num_nodes":"11","size_leaf_vector":"1"}},{"base_weights":[-2.965004E-3,-6.257001E-1,8.776847E-1,-4.9140647E-2,-2.6250523E-1,1.7144744E-1,7.353376E-2,-5.2612643E-3,-2.8230598E-2,2.533662E-2,-4.961009E-3],"categories":[],"categories_nodes":[],"categories_segments":[],"categories_sizes":[],"default_left":[0,0,0,0,0,0,0,0,0,0,0],"id":14,"left_children":[1,3,5,-1,7,9,-1,-1,-1,-1,-1],"loss_changes":[2.7368866E1,1.4128113E-1,1.3323145E0,0E0,5.8274448E-2,1.7406079E-1,0E0,0E0,0E0,0E0,0E0],"parents":[2147483647,0,0,1,1,2,2,4,4,5,5],"right_children":[2,4,6,-1,8,10,-1,-1,-1,-1,-1],"split_conditions":[4.8E0,1.5E0,1.8E0,-4.9140647E-2,6.1E0,1.6E0,7.353376E-2,-5.2612643E-3,-2.8230598E-2,2.533662E-2,-4.961009E-3],"split_indices":[2,3,3,0,0,3,0,0,0,0,0],"split_type":[0,0,0,0,0,0,0,0,0,0,0],"sum_hessian":[4.790433E1,2.8230886E1,1.9673445E1,2.5365965E1,2.864921E0,2.838015E0,1.683543E1,1.6664889E0,1.1984321E0,1.4210733E0,1.4169419E0],"tree_param":{"num_deleted":"0","num_feature":"4","num_nodes":"11","size_leaf_vector":"1"}},{"base_weights":[8.547078E-3,7.097788E-2,-4.828865E-2],"categories":[],"categories_nodes":[],"categories_segments":[],"categories_sizes":[],"default_left":[0,0,0],"id":15,"left_children":[1,-1,-1],"loss_changes":[2.9832047E1,0E0,0E0],"parents":[2147483647,0,0],"right_children":[2,-1,-1],"split_conditions":[3E0,7.097788E-2,-4.828865E-2],"split_indices":[2,0,0],"split_type":[0,0,0],"sum_hessian":[4.6762596E1,1.899972E1,2.7762875E1],"tree_param":{"num_deleted":"0","num_feature":"4","num_nodes":"3","size_leaf_vector":"1"}},{"base_weights":[-6.0703484E-3,-4.6692554E-2,2.715488E-1,8.3353615E-1,-5.644629E-1,9.2124474E-1,-6.5691527E-3,-1.4296035E-2,-4.620061E-2,7.169414E-2,2.2501938E-2],"categories":[],"categories_nodes":[],"categories_segments":[],"categories_sizes":[],"default_left":[0,0,0,0,0,0,0,0,0,0,0],"id":16,"left_children":[1,-1,3,5,7,9,-1,-1,-1,-1,-1],"loss_changes":[8.399193E0,0E0,1.6375307E1,1.7488289E0,1.5630722E-1,1.2119293E-1,0E0,0E0,0E0,0E0,0E0],"parents":[2147483647,0,0,2,2,3,3,4,4,5,5],"right_children":[2,-1,4,6,8,10,-1,-1,-1,-1,-1],"split_conditions":[3E0,-4.6692554E-2,1.8E0,5.1E0,5E0,1.6E0,-6.5691527E-3,-1.4296035E-2,-4.620061E-2,7.169414E-2,2.2501938E-2],"split_indices":[2,0,3,2,2,3,0,0,0,0,0],"split_type":[0,0,0,0,0,0,0,0,0,0,0],"sum_hessian":[4.7086876E1,1.4234471E1,3.2852406E1,1.9647703E1,1.32047E1,1.7939402E1,1.7083021E0,2.1692762E0,1.1035424E1,1.6480648E1,1.4587535E0],"tree_param":{"num_deleted":"0","num_feature":"4","num_nodes":"11","size_leaf_vector":"1"}},{"base_weights":[-2.42381E-3,-6.1075747E-1,8.22948E-1,-4.805555E-2,-2.5085348E-1,1.6392007E-1,6.886766E-2,-4.674709E-3,-2.741178E-2,2.4511851E-2,-5.06909E-3],"categories":[],"categories_nodes":[],"categories_segments":[],"categories_sizes":[],"default_left":[0,0,0,0,0,0,0,0,0,0,0],"id":17,"left_children":[1,3,5,-1,7,9,-1,-1,-1,-1,-1],"loss_changes":[2.460025E1,1.4361286E-1,1.1550398E0,0E0,5.961007E-2,1.6704491E-1,0E0,0E0,0E0,0E0,0E0],"parents":[2147483647,0,0,1,1,2,2,4,4,5,5],"right_children":[2,4,6,-1,8,10,-1,-1,-1,-1,-1],"split_conditions":[4.8E0,1.5E0,1.8E0,-4.805555E-2,6.1E0,1.6E0,6.886766E-2,-4.674709E-3,-2.741178E-2,2.4511851E-2,-5.06909E-3],"split_indices":[2,3,3,0,0,3,0,0,0,0,0],"split_type":[0,0,0,0,0,0,0,0,0,0,0],"sum_hessian":[4.699355E1,2.720347E1,1.9790077E1,2.4391163E1,2.8123078E0,2.843577E0,1.69465E1,1.6471797E0,1.165128E0,1.4274238E0,1.416153E0],"tree_param":{"num_deleted":"0","num_feature":"4","num_nodes":"11","size_leaf_vector":"1"}},{"base_weights":[7.659083E-3,6.7018695E-2,-4.731026E-2],"categories":[],"categories_nodes":[],"categories_segments":[],"categories_sizes":[],"default_left":[0,0,0],"id":18,"left_children":[1,-1,-1],"loss_changes":[2.6913017E1,0E0,0E0],"parents":[2147483647,0,0],"right_children":[2,-1,-1],"split_conditions":[3E0,6.7018695E-2,-4.731026E-2],"split_indices":[2,0,0],"split_type":[0,0,0],"sum_hessian":[4.5584152E1,1.8924768E1,2.6659384E1],"tree_param":{"num_deleted":"0","num_feature":"4","num_nodes":"3","size_leaf_vector":"1"}},{"base_weights":[-5.6836167E-3,-4.5672767E-2,2.5948113E-1,8.299927E-1,-4.4874328E-1,1.8626608E-2,6.490571E-2,-5.9398256E-2,-5.3576076E-1,-3.0925509E-2,2.5313936E-2,-8.531677E-3,-4.5181528E-2],"categories":[],"categories_nodes":[],"categories_segments":[],"categories_sizes":[],"default_left":[0,0,0,0,0,0,0,0,0,0,0,0,0],"id":19,"left_children":[1,-1,3,5,7,-1,-1,9,11,-1,-1,-1,-1],"loss_changes":[7.682591E0,0E0,1.3858274E1,1.7309761E-1,4.9467325E-1,0E0,0E0,6.9440305E-1,2.8526282E-1,0E0,0E0,0E0,0E0],"parents":[2147483647,0,0,2,2,3,3,4,4,7,7,8,8],"right_children":[2,-1,4,6,8,-1,-1,10,12,-1,-1,-1,-1],"split_conditions":[3E0,-4.5672767E-2,4.9E0,5.1E0,5.1E0,1.8626608E-2,6.490571E-2,2.9E0,6.1E0,-3.0925509E-2,2.5313936E-2,-8.531677E-3,-4.5181528E-2],"split_indices":[2,0,2,0,2,0,0,1,0,0,0,0,0],"split_type":[0,0,0,0,0,0,0,0,0,0,0,0,0],"sum_hessian":[4.6037308E1,1.3660714E1,3.2376595E1,1.7836462E1,1.4540132E1,1.4836293E0,1.6352833E1,2.9634182E0,1.1576714E1,1.5480367E0,1.4153817E0,1.9483998E0,9.628314E0],"tree_param":{"num_deleted":"0","num_feature":"4","num_nodes":"13","size_leaf_vector":"1"}},{"base_weights":[-1.9053105E-3,-5.966862E-1,7.750163E-1,-2.926521E-1,-4.7088366E-2,3.7636852E-1,6.434542E-2,-3.422658E-2,6.212763E-3,4.976173E-2,6.243441E-4],"categories":[],"categories_nodes":[],"categories_segments":[],"categories_sizes":[],"default_left":[0,0,0,0,0,0,0,0,0,0,0],"id":20,"left_children":[1,3,5,7,-1,9,-1,-1,-1,-1,-1],"loss_changes":[2.2157282E1,7.351875E-2,3.644266E-1,3.081082E-1,0E0,5.610759E-1,0E0,0E0,0E0,0E0,0E0],"parents":[2147483647,0,0,1,1,2,2,3,3,5,5],"right_children":[2,4,6,8,-1,10,-1,-1,-1,-1,-1],"split_conditions":[4.8E0,2.6E0,5.1E0,2.5E0,-4.7088366E-2,2.9E0,6.434542E-2,-3.422658E-2,6.212763E-3,4.976173E-2,6.243441E-4],"split_indices":[2,1,2,1,0,1,0,0,0,0,0],"split_type":[0,0,0,0,0,0,0,0,0,0,0],"sum_hessian":[4.5948555E1,2.61563E1,1.9792255E1,3.397468E0,2.2758833E1,4.361806E0,1.543045E1,2.2159972E0,1.1814709E0,1.9993289E0,2.362477E0],"tree_param":{"num_deleted":"0","num_feature":"4","num_nodes":"11","size_leaf_vector":"1"}},{"base_weights":[6.4583314E-3,6.3619256E-2,-4.6416648E-2],"categories":[],"categories_nodes":[],"categories_segments":[],"categories_sizes":[],"default_left":[0,0,0],"id":21,"left_children":[1,-1,-1],"loss_changes":[2.4371737E1,0E0,0E0],"parents":[2147483647,0,0],"right_children":[2,-1,-1],"split_conditions":[1E0,6.3619256E-2,-4.6416648E-2],"split_indices":[3,0,0],"split_type":[0,0,0],"sum_hessian":[4.4300217E1,1.8730316E1,2.5569902E1],"tree_param":{"num_deleted":"0","num_feature":"4","num_nodes":"3","size_leaf_vector":"1"}},{"base_weights":[-5.5327546E-3,-4.4721216E-2,2.4800982E-1,7.507858E-1,-5.3969544E-1,8.2772315E-1,-5.366033E-3,-1.3928708E-2,-4.4308428E-2,1.7444007E-2,6.490771E-2],"categories":[],"categories_nodes":[],"categories_segments":[],"categories_sizes":[],"default_left":[0,0,0,0,0,0,0,0,0,0,0],"id":22,"left_children":[1,-1,3,5,7,9,-1,-1,-1,-1,-1],"loss_changes":[7.0261965E0,0E0,1.341044E1,1.3538504E0,1.3214922E-1,2.2047234E-1,0E0,0E0,0E0,0E0,0E0],"parents":[2147483647,0,0,2,2,3,3,4,4,5,5],"right_children":[2,-1,4,6,8,10,-1,-1,-1,-1,-1],"split_conditions":[3E0,-4.4721216E-2,1.8E0,5.1E0,5E0,5.1E0,-5.366033E-3,-1.3928708E-2,-4.4308428E-2,1.7444007E-2,6.490771E-2],"split_indices":[2,0,3,2,2,0,0,0,0,0,0],"split_type":[0,0,0,0,0,0,0,0,0,0,0],"sum_hessian":[4.492268E1,1.3084411E1,3.1838268E1,1.9462578E1,1.2375691E1,1.7791456E1,1.671121E0,2.1453302E0,1.0230361E1,1.4873484E0,1.6304108E1],"tree_param":{"num_deleted":"0","num_feature":"4","num_nodes":"11","size_leaf_vector":"1"}},{"base_weights":[-8.399354E-4,-5.3675795E-1,6.031216E-2,-4.6640035E-2,2.9082887E-2],"categories":[],"categories_nodes":[],"categories_segments":[],"categories_sizes":[],"default_left":[0,0,0,0,0],"id":23,"left_children":[1,3,-1,-1,-1],"loss_changes":[2.01985E1,2.452711E0,0E0,0E0,0E0],"parents":[2147483647,0,0,1,1],"right_children":[2,4,-1,-1,-1],"split_conditions":[1.7E0,5E0,6.031216E-2,-4.6640035E-2,2.9082887E-2],"split_indices":[3,2,0,0,0],"split_type":[0,0,0,0,0],"sum_hessian":[4.4818653E1,2.7106277E1,1.7712376E1,2.5121082E1,1.9851943E0],"tree_param":{"num_deleted":"0","num_feature":"4","num_nodes":"5","size_leaf_vector":"1"}},{"base_weights":[5.4247226E-3,6.066878E-2,-4.558005E-2],"categories":[],"categories_nodes":[],"categories_segments":[],"categories_sizes":[],"default_left":[0,0,0],"id":24,"left_children":[1,-1,-1],"loss_changes":[2.2124304E1,0E0,0E0],"parents":[2147483647,0,0],"right_children":[2,-1,-1],"split_conditions":[1E0,6.066878E-2,-4.558005E-2],"split_indices":[3,0,0],"split_type":[0,0,0],"sum_hessian":[4.2909252E1,1.8433916E1,2.4475338E1],"tree_param":{"num_deleted":"0","num_feature":"4","num_nodes":"3","size_leaf_vector":"1"}},{"base_weights":[-5.438782E-3,-4.3832343E-2,2.3796023E-1,7.1412677E-1,-5.259804E-1,1.6477318E-2,7.416042E-1,-2.109084E-1,-4.389741E-2,5.741191E-2,1.9567195E-2,-1.3797292E-3,-2.5685932E-2],"categories":[],"categories_nodes":[],"categories_segments":[],"categories_sizes":[],"default_left":[0,0,0,0,0,0,0,0,0,0,0,0,0],"id":25,"left_children":[1,-1,3,5,7,-1,9,11,-1,-1,-1,-1,-1],"loss_changes":[6.4344935E0,0E0,1.2074648E1,1.1199474E-1,1.1811495E-1,0E0,1.5595436E-2,8.516617E-2,0E0,0E0,0E0,0E0,0E0],"parents":[2147483647,0,0,2,2,3,3,4,4,6,6,7,7],"right_children":[2,-1,4,6,8,-1,10,12,-1,-1,-1,-1,-1],"split_conditions":[1E0,-4.3832343E-2,1.8E0,5.1E0,6E0,1.6477318E-2,6.8E0,2E0,-4.389741E-2,5.741191E-2,1.9567195E-2,-1.3797292E-3,-2.5685932E-2],"split_indices":[3,0,3,0,0,0,0,3,0,0,0,0,0],"split_type":[0,0,0,0,0,0,0,0,0,0,0,0,0],"sum_hessian":[4.367177E1,1.2510627E1,3.116114E1,1.9236301E1,1.1924839E1,1.4863577E0,1.7749945E1,2.6111484E0,9.313691E0,1.6345272E1,1.4046712E0,1.5228139E0,1.0883343E0],"tree_param":{"num_deleted":"0","num_feature":"4","num_nodes":"13","size_leaf_vector":"1"}},{"base_weights":[1.069215E-4,-5.2417165E-1,5.727762E-2,-4.57559E-2,2.7704239E-2],"categories":[],"categories_nodes":[],"categories_segments":[],"categories_sizes":[],"default_left":[0,0,0,0,0],"id":26,"left_children":[1,3,-1,-1,-1],"loss_changes":[1.8238575E1,2.2988873E0,0E0,0E0,0E0],"parents":[2147483647,0,0,1,1],"right_children":[2,4,-1,-1,-1],"split_conditions":[1.7E0,5E0,5.727762E-2,-4.57559E-2,2.7704239E-2],"split_indices":[3,2,0,0,0],"split_type":[0,0,0,0,0],"sum_hessian":[4.3558197E1,2.6012054E1,1.7546143E1,2.4020021E1,1.9920331E0],"tree_param":{"num_deleted":"0","num_feature":"4","num_nodes":"5","size_leaf_vector":"1"}},{"base_weights":[4.1516414E-3,5.8093656E-2,-4.4810273E-2],"categories":[],"categories_nodes":[],"categories_segments":[],"categories_sizes":[],"default_left":[0,0,0],"id":27,"left_children":[1,-1,-1],"loss_changes":[2.0142796E1,0E0,0E0],"parents":[2147483647,0,0],"right_children":[2,-1,-1],"split_conditions":[3E0,5.8093656E-2,-4.4810273E-2],"split_indices":[2,0,0],"split_type":[0,0,0],"sum_hessian":[4.1458847E1,1.805295E1,2.34059E1],"tree_param":{"num_deleted":"0","num_feature":"4","num_nodes":"3","size_leaf_vector":"1"}},{"base_weights":[-5.2675116E-3,-4.2998143E-2,2.284832E-1,7.191403E-1,-4.127755E-1,1.5567984E-2,5.6409366E-2,-1.634631E-1,-4.2034518E-2,-3.5980943E-1,2.7442478E-2,-1.0733434E-2,-3.4678888E-2],"categories":[],"categories_nodes":[],"categories_segments":[],"categories_sizes":[],"default_left":[0,0,0,0,0,0,0,0,0,0,0,0,0],"id":28,"left_children":[1,-1,3,5,7,-1,-1,9,-1,11,-1,-1,-1],"loss_changes":[5.895646E0,0E0,1.0199476E1,1.5089798E-1,4.3410063E-1,0E0,0E0,8.3046085E-1,0E0,5.4044724E-2,0E0,0E0,0E0],"parents":[2147483647,0,0,2,2,3,3,4,4,7,7,9,9],"right_children":[2,-1,4,6,8,-1,-1,10,-1,12,-1,-1,-1],"split_conditions":[3E0,-4.2998143E-2,4.9E0,5.1E0,5.2E0,1.5567984E-2,5.6409366E-2,6.6E0,-4.2034518E-2,2.8E0,2.7442478E-2,-1.0733434E-2,-3.4678888E-2],"split_indices":[2,0,2,0,2,0,0,0,0,1,0,0,0],"split_type":[0,0,0,0,0,0,0,0,0,0,0,0,0],"sum_hessian":[4.2415085E1,1.1942002E1,3.0473083E1,1.7194962E1,1.3278123E1,1.4832842E0,1.5711677E1,5.723275E0,7.5548477E0,4.408436E0,1.3148391E0,2.1858637E0,2.2225723E0],"tree_param":{"num_deleted":"0","num_feature":"4","num_nodes":"13","size_leaf_vector":"1"}},{"base_weights":[1.2114815E-3,-5.1162666E-1,5.459388E-2,-4.5061648E-2,-1.24266505E-1,1.7029636E-2,-3.0485103E-1,-3.2309074E-2,9.6140715E-4],"categories":[],"categories_nodes":[],"categories_segments":[],"categories_sizes":[],"default_left":[0,0,0,0,0,0,0,0,0],"id":29,"left_children":[1,3,-1,-1,5,-1,7,-1,-1],"loss_changes":[1.6496475E1,8.219986E-1,0E0,0E0,4.573808E-1,0E0,1.8426594E-1,0E0,0E0],"parents":[2147483647,0,0,1,1,4,4,6,6],"right_children":[2,4,-1,-1,6,-1,8,-1,-1],"split_conditions":[1.7E0,6.1E0,5.459388E-2,-4.5061648E-2,2.9E0,1.7029636E-2,6.8E0,-3.2309074E-2,9.6140715E-4],"split_indices":[3,0,0,0,1,0,0,0,0],"split_type":[0,0,0,0,0,0,0,0,0],"sum_hessian":[4.226479E1,2.4952053E1,1.7312737E1,1.9833935E1,5.11812E0,1.650225E0,3.467895E0,2.2283888E0,1.2395064E0],"tree_param":{"num_deleted":"0","num_feature":"4","num_nodes":"9","size_leaf_vector":"1"}},{"base_weights":[2.9026987E-3,5.582849E-2,-4.409902E-2],"categories":[],"categories_nodes":[],"categories_segments":[],"categories_sizes":[],"default_left":[0,0,0],"id":30,"left_children":[1,-1,-1],"loss_changes":[1.8379692E1,0E0,0E0],"parents":[2147483647,0,0],"right_children":[2,-1,-1],"split_conditions":[3E0,5.582849E-2,-4.409902E-2],"split_indices":[2,0,0],"split_type":[0,0,0],"sum_hessian":[3.995122E1,1.7602716E1,2.2348507E1],"tree_param":{"num_deleted":"0","num_feature":"4","num_nodes":"3","size_leaf_vector":"1"}},{"base_weights":[-4.6741576E-3,-4.2213187E-2,2.2031628E-1,6.5476084E-1,-5.027315E-1,1.4710113E-2,6.812987E-1,-1.8840444E-1,-4.236851E-2,5.2786756E-2,1.7843334E-2,-1.1840248E-4,-2.4289666E-2],"categories":[],"categories_nodes":[],"categories_segments":[],"categories_sizes":[],"default_left":[0,0,0,0,0,0,0,0,0,0,0,0,0],"id":31,"left_children":[1,-1,3,5,7,-1,9,11,-1,-1,-1,-1,-1],"loss_changes":[5.413614E0,0E0,9.984914E0,1.0535908E-1,1.3012409E-1,0E0,1.3894081E-2,8.804385E-2,0E0,0E0,0E0,0E0,0E0],"parents":[2147483647,0,0,2,2,3,3,4,4,6,6,7,7],"right_children":[2,-1,4,6,8,-1,10,12,-1,-1,-1,-1,-1],"split_conditions":[1E0,-4.2213187E-2,1.8E0,5.1E0,6E0,1.4710113E-2,6.8E0,2E0,-4.236851E-2,5.2786756E-2,1.7843334E-2,-1.1840248E-4,-2.4289666E-2],"split_indices":[3,0,3,0,0,0,0,3,0,0,0,0,0],"split_type":[0,0,0,0,0,0,0,0,0,0,0,0,0],"sum_hessian":[4.112059E1,1.1381967E1,2.9738623E1,1.8635746E1,1.1102878E1,1.478316E0,1.715743E1,2.4992359E0,8.6036415E0,1.5768968E1,1.3884625E0,1.475649E0,1.023587E0],"tree_param":{"num_deleted":"0","num_feature":"4","num_nodes":"13","size_leaf_vector":"1"}},{"base_weights":[1.8585467E-3,-5.009499E-1,5.232155E-2,-4.4268936E-2,2.6325248E-2],"categories":[],"categories_nodes":[],"categories_segments":[],"categories_sizes":[],"default_left":[0,0,0,0,0],"id":32,"left_children":[1,3,-1,-1,-1],"loss_changes":[1.5033248E1,2.1052132E0,0E0,0E0,0E0],"parents":[2147483647,0,0,1,1],"right_children":[2,4,-1,-1,-1],"split_conditions":[1.7E0,5E0,5.232155E-2,-4.4268936E-2,2.6325248E-2],"split_indices":[3,2,0,0,0],"split_type":[0,0,0,0,0],"sum_hessian":[4.097342E1,2.3947329E1,1.702609E1,2.1953337E1,1.9939916E0],"tree_param":{"num_deleted":"0","num_feature":"4","num_nodes":"5","size_leaf_vector":"1"}},{"base_weights":[1.5779992E-3,5.3824257E-2,-4.3432012E-2],"categories":[],"categories_nodes":[],"categories_segments":[],"categories_sizes":[],"default_left":[0,0,0],"id":33,"left_children":[1,-1,-1],"loss_changes":[1.6805883E1,0E0,0E0],"parents":[2147483647,0,0],"right_children":[2,-1,-1],"split_conditions":[1E0,5.3824257E-2,-4.3432012E-2],"split_indices":[3,0,0],"split_type":[0,0,0],"sum_hessian":[3.8418076E1,1.7097584E1,2.1320492E1],"tree_param":{"num_deleted":"0","num_feature":"4","num_nodes":"3","size_leaf_vector":"1"}},{"base_weights":[-4.476699E-3,-4.147184E-2,2.1235497E-1,6.2713647E-1,-4.904013E-1,7.0168006E-1,-6.6309557E-3,-1.0062482E-2,-4.123163E-2,1.3901143E-2,5.5302918E-2],"categories":[],"categories_nodes":[],"categories_segments":[],"categories_sizes":[],"default_left":[0,0,0,0,0,0,0,0,0,0,0],"id":34,"left_children":[1,-1,3,5,7,9,-1,-1,-1,-1,-1],"loss_changes":[4.967959E0,0E0,9.038402E0,1.0901189E0,1.7316389E-1,1.8708324E-1,0E0,0E0,0E0,0E0,0E0],"parents":[2147483647,0,0,2,2,3,3,4,4,5,5],"right_children":[2,-1,4,6,8,10,-1,-1,-1,-1,-1],"split_conditions":[3E0,-4.147184E-2,1.8E0,5.1E0,5E0,5.1E0,-6.6309557E-3,-1.0062482E-2,-4.123163E-2,1.3901143E-2,5.5302918E-2],"split_indices":[2,0,3,2,2,0,0,0,0,0,0],"split_type":[0,0,0,0,0,0,0,0,0,0,0],"sum_hessian":[3.9785446E1,1.083298E1,2.8952467E1,1.8274235E1,1.0678232E1,1.6567652E1,1.7065821E0,1.9907024E0,8.6875305E0,1.4716322E0,1.5096021E1],"tree_param":{"num_deleted":"0","num_feature":"4","num_nodes":"11","size_leaf_vector":"1"}},{"base_weights":[2.9647583E-3,-5.146241E-1,6.418062E-1,-4.3399632E-2,1.8741723E-2,9.6595116E-2,5.5135828E-2,2.1258064E-2,-9.4401445E-3],"categories":[],"categories_nodes":[],"categories_segments":[],"categories_sizes":[],"default_left":[0,0,0,0,0,0,0,0,0],"id":35,"left_children":[1,3,5,-1,-1,7,-1,-1,-1],"loss_changes":[1.3756632E1,1.2699528E0,8.764801E-1,0E0,0E0,1.9665554E-1,0E0,0E0,0E0],"parents":[2147483647,0,0,1,1,2,2,5,5],"right_children":[2,4,6,-1,-1,8,-1,-1,-1],"split_conditions":[4.9E0,1.7E0,1.8E0,-4.3399632E-2,1.8741723E-2,1.6E0,5.5135828E-2,2.1258064E-2,-9.4401445E-3],"split_indices":[2,3,3,0,0,3,0,0,0],"split_type":[0,0,0,0,0,0,0,0,0],"sum_hessian":[3.960502E1,2.198623E1,1.7618788E1,2.0511255E1,1.4749761E0,2.8728223E0,1.4745966E1,1.4124315E0,1.4603907E0],"tree_param":{"num_deleted":"0","num_feature":"4","num_nodes":"9","size_leaf_vector":"1"}},{"base_weights":[5.846518E-4,5.204106E-2,-4.2802423E-2],"categories":[],"categories_nodes":[],"categories_segments":[],"categories_sizes":[],"default_left":[0,0,0],"id":36,"left_children":[1,-1,-1],"loss_changes":[1.5387371E1,0E0,0E0],"parents":[2147483647,0,0],"right_children":[2,-1,-1],"split_conditions":[3E0,5.204106E-2,-4.2802423E-2],"split_indices":[2,0,0],"split_type":[0,0,0],"sum_hessian":[3.6850437E1,1.6550522E1,2.0299917E1],"tree_param":{"num_deleted":"0","num_feature":"4","num_nodes":"3","size_leaf_vector":"1"}},{"base_weights":[-4.548892E-3,-4.076908E-2,2.0514864E-1,6.422527E-1,-3.8076577E-1,1.2968856E-2,5.06512E-2,-1.3699771E-1,-4.0041804E-2,-3.288424E-1,2.6273945E-2,-8.423418E-3,-3.2780316E-2],"categories":[],"categories_nodes":[],"categories_segments":[],"categories_sizes":[],"default_left":[0,0,0,0,0,0,0,0,0,0,0,0,0],"id":37,"left_children":[1,-1,3,5,7,-1,-1,9,-1,11,-1,-1,-1],"loss_changes":[4.560445E0,0E0,7.6873994E0,1.4754677E-1,4.1378665E-1,0E0,0E0,7.114771E-1,0E0,7.024646E-2,0E0,0E0,0E0],"parents":[2147483647,0,0,2,2,3,3,4,4,7,7,9,9],"right_children":[2,-1,4,6,8,-1,-1,10,-1,12,-1,-1,-1],"split_conditions":[3E0,-4.076908E-2,4.9E0,5.1E0,5.2E0,1.2968856E-2,5.06512E-2,6.6E0,-4.0041804E-2,2.8E0,2.6273945E-2,-8.423418E-3,-3.2780316E-2],"split_indices":[2,0,2,0,2,0,0,0,0,1,0,0,0],"split_type":[0,0,0,0,0,0,0,0,0,0,0,0,0],"sum_hessian":[3.835882E1,1.0297162E1,2.8061659E1,1.6016712E1,1.2044947E1,1.4651034E0,1.4551609E1,5.3780346E0,6.6669116E0,4.0922246E0,1.28581E0,2.0428581E0,2.0493667E0],"tree_param":{"num_deleted":"0","num_feature":"4","num_nodes":"13","size_leaf_vector":"1"}},{"base_weights":[4.0066266E-3,-5.044611E-1,6.176859E-1,-4.230863E-2,-1.9648874E-1,2.9607606E-1,6.6697E-1,6.5993026E-2,-3.4215543E-2,3.8347606E-2,-6.6647134E-3,2.1578925E-2,5.353804E-2,9.40226E-3,-1.027583E-3],"categories":[],"categories_nodes":[],"categories_segments":[],"categories_sizes":[],"default_left":[0,0,0,0,0,0,0,0,0,0,0,0,0,0,0],"id":38,"left_children":[1,3,5,-1,7,9,11,13,-1,-1,-1,-1,-1,-1,-1],"loss_changes":[1.2531775E1,2.9274368E-1,9.09214E-2,0E0,3.777216E-1,3.9472634E-1,6.0875416E-2,1.7850544E-2,0E0,0E0,0E0,0E0,0E0,0E0,0E0],"parents":[2147483647,0,0,1,1,2,2,4,4,5,5,6,6,7,7],"right_children":[2,4,6,-1,8,10,12,14,-1,-1,-1,-1,-1,-1,-1],"split_conditions":[4.9E0,4.5E0,5.1E0,-4.230863E-2,3.1E0,2.9E0,6.1E0,4.6E0,-3.4215543E-2,3.8347606E-2,-6.6647134E-3,2.1578925E-2,5.353804E-2,9.40226E-3,-1.027583E-3],"split_indices":[2,2,2,0,1,1,0,2,0,0,0,0,0,0,0],"split_type":[0,0,0,0,0,0,0,0,0,0,0,0,0,0,0],"sum_hessian":[3.81627E1,2.0967731E1,1.7194971E1,1.6868595E1,4.0991373E0,3.216012E0,1.3978959E1,2.4097023E0,1.6894349E0,1.852169E0,1.363843E0,2.3227875E0,1.1656171E1,1.0525311E0,1.357171E0],"tree_param":{"num_deleted":"0","num_feature":"4","num_nodes":"15","size_leaf_vector":"1"}},{"base_weights":[-7.992286E-4,5.044744E-2,-4.2222895E-2],"categories":[],"categories_nodes":[],"categories_segments":[],"categories_sizes":[],"default_left":[0,0,0],"id":39,"left_children":[1,-1,-1],"loss_changes":[1.4123167E1,0E0,0E0],"parents":[2147483647,0,0],"right_children":[2,-1,-1],"split_conditions":[3E0,5.044744E-2,-4.2222895E-2],"split_indices":[2,0,0],"split_type":[0,0,0],"sum_hessian":[3.5304916E1,1.5973558E1,1.933136E1],"tree_param":{"num_deleted":"0","num_feature":"4","num_nodes":"3","size_leaf_vector":"1"}},{"base_weights":[-4.4617597E-3,-4.010015E-2,1.9798301E-1,5.8465713E-1,-4.714349E-1,6.5507E-1,-5.5413386E-3,-9.805035E-3,-3.9876163E-2,5.162945E-2,1.3533299E-2],"categories":[],"categories_nodes":[],"categories_segments":[],"categories_sizes":[],"default_left":[0,0,0,0,0,0,0,0,0,0,0],"id":40,"left_children":[1,-1,3,5,7,9,-1,-1,-1,-1,-1],"loss_changes":[4.186933E0,0E0,7.58671E0,8.992753E-1,1.5412712E-1,1.3956976E-1,0E0,0E0,0E0,0E0,0E0],"parents":[2147483647,0,0,2,2,3,3,4,4,5,5],"right_children":[2,-1,4,6,8,10,-1,-1,-1,-1,-1],"split_conditions":[3E0,-4.010015E-2,1.8E0,5.1E0,5E0,1.6E0,-5.5413386E-3,-9.805035E-3,-3.9876163E-2,5.162945E-2,1.3533299E-2],"split_indices":[2,0,3,2,2,3,0,0,0,0,0],"split_type":[0,0,0,0,0,0,0,0,0,0,0],"sum_hessian":[3.7020947E1,9.776097E0,2.724485E1,1.7349768E1,9.895082E0,1.5678641E1,1.6711271E0,1.9631764E0,7.931906E0,1.4229242E1,1.4493985E0],"tree_param":{"num_deleted":"0","num_feature":"4","num_nodes":"11","size_leaf_vector":"1"}},{"base_weights":[5.2519147E-3,-4.7155315E-1,4.6941042E-2,-4.2561583E-2,-8.983437E-2,1.6441455E-2,-2.6393217E-1,-2.887533E-2,1.1113074E-3],"categories":[],"categories_nodes":[],"categories_segments":[],"categories_sizes":[],"default_left":[0,0,0,0,0,0,0,0,0],"id":41,"left_children":[1,3,-1,-1,5,-1,7,-1,-1],"loss_changes":[1.1488337E1,7.5325155E-1,0E0,0E0,3.5911366E-1,0E0,1.4188689E-1,0E0,0E0],"parents":[2147483647,0,0,1,1,4,4,6,6],"right_children":[2,4,-1,-1,6,-1,8,-1,-1],"split_conditions":[1.7E0,6.1E0,4.6941042E-2,-4.2561583E-2,2.9E0,1.6441455E-2,6.8E0,-2.887533E-2,1.1113074E-3],"split_indices":[3,0,0,0,1,0,0,0,0],"split_type":[0,0,0,0,0,0,0,0,0],"sum_hessian":[3.682523E1,2.096151E1,1.586372E1,1.6362562E1,4.598948E0,1.5637848E0,3.0351632E0,1.8503135E0,1.1848497E0],"tree_param":{"num_deleted":"0","num_feature":"4","num_nodes":"9","size_leaf_vector":"1"}},{"base_weights":[-1.8843671E-3,4.9005534E-2,-4.1665502E-2],"categories":[],"categories_nodes":[],"categories_segments":[],"categories_sizes":[],"default_left":[0,0,0],"id":42,"left_children":[1,-1,-1],"loss_changes":[1.2969239E1,0E0,0E0],"parents":[2147483647,0,0],"right_children":[2,-1,-1],"split_conditions":[1E0,4.9005534E-2,-4.1665502E-2],"split_indices":[3,0,0],"split_type":[0,0,0],"sum_hessian":[3.3746532E1,1.5372226E1,1.8374308E1],"tree_param":{"num_deleted":"0","num_feature":"4","num_nodes":"3","size_leaf_vector":"1"}},{"base_weights":[-3.766438E-3,-3.9462928E-2,1.925473E-1,5.6473863E-1,-4.5994443E-1,6.356895E-1,-5.7099285E-3,-8.967513E-3,-3.9207898E-2,5.0134815E-2,1.3292768E-2],"categories":[],"categories_nodes":[],"categories_segments":[],"categories_sizes":[],"default_left":[0,0,0,0,0,0,0,0,0,0,0],"id":43,"left_children":[1,-1,3,5,7,9,-1,-1,-1,-1,-1],"loss_changes":[3.8577795E0,0E0,6.9031644E0,8.6087704E-1,1.6176963E-1,1.24853134E-1,0E0,0E0,0E0,0E0,0E0],"parents":[2147483647,0,0,2,2,3,3,4,4,5,5],"right_children":[2,-1,4,6,8,10,-1,-1,-1,-1,-1],"split_conditions":[3E0,-3.9462928E-2,1.8E0,5.1E0,5E0,1.6E0,-5.7099285E-3,-8.967513E-3,-3.9207898E-2,5.0134815E-2,1.3292768E-2],"split_indices":[2,0,3,2,2,3,0,0,0,0,0],"split_type":[0,0,0,0,0,0,0,0,0,0,0],"sum_hessian":[3.5628635E1,9.272784E0,2.635585E1,1.6868366E1,9.487485E0,1.519429E1,1.6740756E0,1.930703E0,7.5567822E0,1.3753002E1,1.441288E0],"tree_param":{"num_deleted":"0","num_feature":"4","num_nodes":"11","size_leaf_vector":"1"}},{"base_weights":[5.580409E-3,-4.8560318E-1,5.7536405E-1,-4.1589014E-2,1.7062623E-2,6.853492E-2,5.0279353E-2,1.9156516E-2,-1.0572507E-2],"categories":[],"categories_nodes":[],"categories_segments":[],"categories_sizes":[],"default_left":[0,0,0,0,0,0,0,0,0],"id":44,"left_children":[1,3,5,-1,-1,7,-1,-1,-1],"loss_changes":[1.0482132E1,1.1149726E0,7.8895617E-1,0E0,0E0,1.867796E-1,0E0,0E0,0E0],"parents":[2147483647,0,0,1,1,2,2,5,5],"right_children":[2,4,6,-1,-1,8,-1,-1,-1],"split_conditions":[4.9E0,1.7E0,1.8E0,-4.1589014E-2,1.7062623E-2,1.6E0,5.0279353E-2,1.9156516E-2,-1.0572507E-2],"split_indices":[2,3,3,0,0,3,0,0,0],"split_type":[0,0,0,0,0,0,0,0,0],"sum_hessian":[3.5455467E1,1.9120407E1,1.633506E1,1.7638176E1,1.4822305E0,2.85091E0,1.348415E1,1.3909435E0,1.4599664E0],"tree_param":{"num_deleted":"0","num_feature":"4","num_nodes":"9","size_leaf_vector":"1"}},{"base_weights":[-2.8163616E-3,4.7703102E-2,-4.1136537E-2],"categories":[],"categories_nodes":[],"categories_segments":[],"categories_sizes":[],"default_left":[0,0,0],"id":45,"left_children":[1,-1,-1],"loss_changes":[1.1923923E1,0E0,0E0],"parents":[2147483647,0,0],"right_children":[2,-1,-1],"split_conditions":[3E0,4.7703102E-2,-4.1136537E-2],"split_indices":[2,0,0],"split_type":[0,0,0],"sum_hessian":[3.2203857E1,1.4758896E1,1.7444962E1],"tree_param":{"num_deleted":"0","num_feature":"4","num_nodes":"3","size_leaf_vector":"1"}},{"base_weights":[-3.8308562E-3,-3.8851786E-2,1.867622E-1,5.450977E-1,-4.487654E-1,6.163952E-1,-5.7484754E-3,-1.2386241E-1,-3.919085E-2,9.449061E-3,4.92276E-2,1.05548045E-2,-2.3982694E-2],"categories":[],"categories_nodes":[],"categories_segments":[],"categories_sizes":[],"default_left":[0,0,0,0,0,0,0,0,0,0,0,0,0],"id":46,"left_children":[1,-1,3,5,7,9,-1,11,-1,-1,-1,-1,-1],"loss_changes":[3.5474274E0,0E0,6.2621245E0,8.16267E-1,1.7679596E-1,2.2456408E-1,0E0,2.095908E-1,0E0,0E0,0E0,0E0,0E0],"parents":[2147483647,0,0,2,2,3,3,4,4,5,5,7,7],"right_children":[2,-1,4,6,8,10,-1,12,-1,-1,-1,-1,-1],"split_conditions":[3E0,-3.8851786E-2,1.8E0,5.1E0,6E0,5.1E0,-5.7484754E-3,5.1E0,-3.919085E-2,9.449061E-3,4.92276E-2,1.05548045E-2,-2.3982694E-2],"split_indices":[2,0,3,2,0,0,0,2,0,0,0,0,0],"split_type":[0,0,0,0,0,0,0,0,0,0,0,0,0],"sum_hessian":[3.421045E1,8.786842E0,2.5423605E1,1.634816E1,9.075445E0,1.4674042E1,1.6741183E0,2.17522E0,6.900225E0,1.4188364E0,1.3255205E1,1.0452044E0,1.1300156E0],"tree_param":{"num_deleted":"0","num_feature":"4","num_nodes":"13","size_leaf_vector":"1"}},{"base_weights":[6.5206266E-3,-4.764308E-1,5.5624455E-1,-4.1023042E-2,1.638624E-2,6.407565E-2,4.887058E-2,1.8698547E-2,-1.062135E-2],"categories":[],"categories_nodes":[],"categories_segments":[],"categories_sizes":[],"default_left":[0,0,0,0,0,0,0,0,0],"id":47,"left_children":[1,3,5,-1,-1,7,-1,-1,-1],"loss_changes":[9.564398E0,1.0599647E0,7.4874973E-1,0E0,0E0,1.81727E-1,0E0,0E0,0E0],"parents":[2147483647,0,0,1,1,2,2,5,5],"right_children":[2,4,6,-1,-1,8,-1,-1,-1],"split_conditions":[4.9E0,1.7E0,1.8E0,-4.1023042E-2,1.638624E-2,1.6E0,4.887058E-2,1.8698547E-2,-1.062135E-2],"split_indices":[2,3,3,0,0,3,0,0,0],"split_type":[0,0,0,0,0,0,0,0,0],"sum_hessian":[3.4027264E1,1.8184704E1,1.5842562E1,1.6702106E1,1.4825975E0,2.8427994E0,1.2999763E1,1.3841935E0,1.4586059E0],"tree_param":{"num_deleted":"0","num_feature":"4","num_nodes":"9","size_leaf_vector":"1"}},{"base_weights":[-3.7844751E-3,4.6518143E-2,-4.0640227E-2],"categories":[],"categories_nodes":[],"categories_segments":[],"categories_sizes":[],"default_left":[0,0,0],"id":48,"left_children":[1,-1,-1],"loss_changes":[1.097697E1,0E0,0E0],"parents":[2147483647,0,0],"right_children":[2,-1,-1],"split_conditions":[3E0,4.6518143E-2,-4.0640227E-2],"split_indices":[2,0,0],"split_type":[0,0,0],"sum_hessian":[3.0690094E1,1.4139546E1,1.6550549E1],"tree_param":{"num_deleted":"0","num_feature":"4","num_nodes":"3","size_leaf_vector":"1"}},{"base_weights":[-4.0213065E-3,-3.8263876E-2,1.8110846E-1,5.561043E-1,-3.9193276E-1,4.7731936E-2,-5.7802396E-3,-1.235425E-1,-3.7450805E-2,-3.192882E-2,1.5721314E-2],"categories":[],"categories_nodes":[],"categories_segments":[],"categories_sizes":[],"default_left":[0,0,0,0,0,0,0,0,0,0,0],"id":49,"left_children":[1,-1,3,5,7,-1,-1,9,-1,-1,-1],"loss_changes":[3.261696E0,0E0,5.6980767E0,8.540344E-1,2.460208E-1,0E0,0E0,5.3014094E-1,0E0,0E0,0E0],"parents":[2147483647,0,0,2,2,3,3,4,4,7,7],"right_children":[2,-1,4,6,8,-1,-1,10,-1,-1,-1],"split_conditions":[3E0,-3.8263876E-2,1.7E0,5E0,5.1E0,4.7731936E-2,-5.7802396E-3,2.9E0,-3.7450805E-2,-3.192882E-2,1.5721314E-2],"split_indices":[2,0,3,2,2,0,0,1,0,0,0],"split_type":[0,0,0,0,0,0,0,0,0,0,0],"sum_hessian":[3.2821724E1,8.31951E0,2.4502214E1,1.4828235E1,9.673981E0,1.3154394E1,1.6738405E0,3.3795724E0,6.294408E0,1.6265131E0,1.7530593E0],"tree_param":{"num_deleted":"0","num_feature":"4","num_nodes":"11","size_leaf_vector":"1"}},{"base_weights":[7.610992E-3,-4.6779358E-1,5.39174E-1,-4.0492162E-2,1.5670657E-2,6.167465E-2,4.7597323E-2,1.8267527E-2,-1.0475311E-2],"categories":[],"categories_nodes":[],"categories_segments":[],"categories_sizes":[],"default_left":[0,0,0,0,0,0,0,0,0],"id":50,"left_children":[1,3,5,-1,-1,7,-1,-1,-1],"loss_changes":[8.750123E0,1.0050945E0,7.0567274E-1,0E0,0E0,1.7428792E-1,0E0,0E0,0E0],"parents":[2147483647,0,0,1,1,2,2,5,5],"right_children":[2,4,6,-1,-1,8,-1,-1,-1],"split_conditions":[4.9E0,1.7E0,1.8E0,-4.0492162E-2,1.5670657E-2,1.6E0,4.7597323E-2,1.8267527E-2,-1.0475311E-2],"split_indices":[2,3,3,0,0,3,0,0,0],"split_type":[0,0,0,0,0,0,0,0,0],"sum_hessian":[3.2627426E1,1.7286854E1,1.534057E1,1.5805124E1,1.4817293E0,2.83005E0,1.2510521E1,1.3766809E0,1.4533691E0],"tree_param":{"num_deleted":"0","num_feature":"4","num_nodes":"9","size_leaf_vector":"1"}},{"base_weights":[-4.5821182E-3,4.5434665E-2,-4.0161215E-2],"categories":[],"categories_nodes":[],"categories_segments":[],"categories_sizes":[],"default_left":[0,0,0],"id":51,"left_children":[1,-1,-1],"loss_changes":[1.0112487E1,0E0,0E0],"parents":[2147483647,0,0],"right_children":[2,-1,-1],"split_conditions":[1E0,4.5434665E-2,-4.0161215E-2],"split_indices":[3,0,0],"split_type":[0,0,0],"sum_hessian":[2.9205513E1,1.3520219E1,1.5685293E1],"tree_param":{"num_deleted":"0","num_feature":"4","num_nodes":"3","size_leaf_vector":"1"}},{"base_weights":[-4.391419E-3,-3.7696093E-2,1.7562273E-1,5.392642E-1,-3.8140017E-1,4.6556767E-2,-5.8043096E-3,-1.1704948E-1,-3.681618E-2,-3.125379E-2,1.5437084E-2],"categories":[],"categories_nodes":[],"categories_segments":[],"categories_sizes":[],"default_left":[0,0,0,0,0,0,0,0,0,0,0],"id":52,"left_children":[1,-1,3,5,7,-1,-1,9,-1,-1,-1],"loss_changes":[2.9985106E0,0E0,5.1840014E0,8.161149E-1,2.4044716E-1,0E0,0E0,5.044961E-1,0E0,0E0,0E0],"parents":[2147483647,0,0,2,2,3,3,4,4,7,7],"right_children":[2,-1,4,6,8,-1,-1,10,-1,-1,-1],"split_conditions":[3E0,-3.7696093E-2,1.7E0,5E0,5.1E0,4.6556767E-2,-5.8043096E-3,2.9E0,-3.681618E-2,-3.125379E-2,1.5437084E-2],"split_indices":[2,0,3,2,2,0,0,1,0,0,0],"split_type":[0,0,0,0,0,0,0,0,0,0,0],"sum_hessian":[3.1448776E1,7.871322E0,2.3577454E1,1.4284185E1,9.293269E0,1.261096E1,1.6732244E0,3.3276353E0,5.965634E0,1.5751116E0,1.7525234E0],"tree_param":{"num_deleted":"0","num_feature":"4","num_nodes":"11","size_leaf_vector":"1"}},{"base_weights":[8.710695E-3,-4.328939E-1,4.1148614E-2,-4.056549E-2,-4.4928875E-2,1.4507525E-1,-2.5598247E-2,-5.682016E-3,2.495503E-2],"categories":[],"categories_nodes":[],"categories_segments":[],"categories_sizes":[],"default_left":[0,0,0,0,0,0,0,0,0],"id":53,"left_children":[1,3,-1,-1,5,7,-1,-1,-1],"loss_changes":[7.926756E0,7.4226093E-1,0E0,0E0,3.3528566E-1,1.8243632E-1,0E0,0E0,0E0],"parents":[2147483647,0,0,1,1,4,4,5,5],"right_children":[2,4,-1,-1,6,8,-1,-1,-1],"split_conditions":[1.7E0,6.1E0,4.1148614E-2,-4.056549E-2,3.1E0,1.5E0,-2.5598247E-2,-5.682016E-3,2.495503E-2],"split_indices":[3,0,0,0,1,3,0,0,0],"split_type":[0,0,0,0,0,0,0,0,0],"sum_hessian":[3.1248302E1,1.7298466E1,1.3949836E1,1.3223849E1,4.0746174E0,2.7939692E0,1.2806482E0,1.5574534E0,1.2365158E0],"tree_param":{"num_deleted":"0","num_feature":"4","num_nodes":"9","size_leaf_vector":"1"}},{"base_weights":[-5.6162355E-3,4.4435866E-2,-3.970784E-2],"categories":[],"categories_nodes":[],"categories_segments":[],"categories_sizes":[],"default_left":[0,0,0],"id":54,"left_children":[1,-1,-1],"loss_changes":[9.326713E0,0E0,0E0],"parents":[2147483647,0,0],"right_children":[2,-1,-1],"split_conditions":[3E0,4.4435866E-2,-3.970784E-2],"split_indices":[2,0,0],"split_type":[0,0,0],"sum_hessian":[2.7768534E1,1.2903908E1,1.4864627E1],"tree_param":{"num_deleted":"0","num_feature":"4","num_nodes":"3","size_leaf_vector":"1"}},{"base_weights":[-3.97287E-3,-3.7146125E-2,1.7115076E-1,4.9550238E-1,-4.1798696E-1,7.0915474E-3,5.2648324E-1,-6.22943E-3,-3.7562814E-2,4.141934E-2,1.0600714E-2],"categories":[],"categories_nodes":[],"categories_segments":[],"categories_sizes":[],"default_left":[0,0,0,0,0,0,0,0,0,0,0],"id":55,"left_children":[1,-1,3,5,7,-1,9,-1,-1,-1,-1],"loss_changes":[2.7651129E0,0E0,4.7376943E0,1.4584255E-1,2.0705688E-1,0E0,6.4888954E-2,0E0,0E0,0E0,0E0],"parents":[2147483647,0,0,2,2,3,3,4,4,6,6],"right_children":[2,-1,4,6,8,-1,10,-1,-1,-1,-1],"split_conditions":[1E0,-3.7146125E-2,1.8E0,5.1E0,6E0,7.0915474E-3,6.8E0,-6.22943E-3,-3.7562814E-2,4.141934E-2,1.0600714E-2],"split_indices":[3,0,3,0,0,0,0,0,0,0,0],"split_type":[0,0,0,0,0,0,0,0,0,0,0],"sum_hessian":[3.0152393E1,7.442973E0,2.2709421E1,1.4748515E1,7.9609056E0,1.3485005E0,1.3400015E1,1.9758683E0,5.985037E0,1.2152805E1,1.2472091E0],"tree_param":{"num_deleted":"0","num_feature":"4","num_nodes":"11","size_leaf_vector":"1"}},{"base_weights":[9.211461E-3,-4.5207852E-1,5.0833493E-1,-3.9511386E-2,1.3884705E-2,5.41005E-2,4.5427207E-2,1.7912235E-2,-1.088302E-2],"categories":[],"categories_nodes":[],"categories_segments":[],"categories_sizes":[],"default_left":[0,0,0,0,0,0,0,0,0],"id":56,"left_children":[1,3,5,-1,-1,7,-1,-1,-1],"loss_changes":[7.3617573E0,8.894098E-1,6.460209E-1,0E0,0E0,1.7476013E-1,0E0,0E0,0E0],"parents":[2147483647,0,0,1,1,2,2,5,5],"right_children":[2,4,6,-1,-1,8,-1,-1,-1],"split_conditions":[4.9E0,1.7E0,1.8E0,-3.9511386E-2,1.3884705E-2,1.6E0,4.5427207E-2,1.7912235E-2,-1.088302E-2],"split_indices":[2,3,3,0,0,3,0,0,0],"split_type":[0,0,0,0,0,0,0,0,0],"sum_hessian":[2.9976068E1,1.562744E1,1.4348627E1,1.4141932E1,1.4855087E0,2.807238E0,1.1541389E1,1.3533487E0,1.4538894E0],"tree_param":{"num_deleted":"0","num_feature":"4","num_nodes":"9","size_leaf_vector":"1"}},{"base_weights":[-6.9280835E-3,4.3516926E-2,-3.9282907E-2],"categories":[],"categories_nodes":[],"categories_segments":[],"categories_sizes":[],"default_left":[0,0,0],"id":57,"left_children":[1,-1,-1],"loss_changes":[8.616984E0,0E0,0E0],"parents":[2147483647,0,0],"right_children":[2,-1,-1],"split_conditions":[3E0,4.3516926E-2,-3.9282907E-2],"split_indices":[2,0,0],"split_type":[0,0,0],"sum_hessian":[2.6393692E1,1.2298974E1,1.4094717E1],"tree_param":{"num_deleted":"0","num_feature":"4","num_nodes":"3","size_leaf_vector":"1"}},{"base_weights":[-3.954453E-3,-3.661032E-2,1.6613823E-1,5.0759184E-1,-3.5998642E-1,4.4643685E-2,-6.7673833E-3,-9.898362E-2,-3.568148E-2,-3.0171571E-2,1.6070636E-2],"categories":[],"categories_nodes":[],"categories_segments":[],"categories_sizes":[],"default_left":[0,0,0,0,0,0,0,0,0,0,0],"id":58,"left_children":[1,-1,3,5,7,-1,-1,9,-1,-1,-1],"loss_changes":[2.545653E0,0E0,4.2951922E0,8.029375E-1,2.4281466E-1,0E0,0E0,4.8627773E-1,0E0,0E0,0E0],"parents":[2147483647,0,0,2,2,3,3,4,4,7,7],"right_children":[2,-1,4,6,8,-1,-1,10,-1,-1,-1],"split_conditions":[3E0,-3.661032E-2,1.7E0,5E0,5.1E0,4.4643685E-2,-6.7673833E-3,2.9E0,-3.568148E-2,-3.0171571E-2,1.6070636E-2],"split_indices":[2,0,3,2,2,0,0,1,0,0,0],"split_type":[0,0,0,0,0,0,0,0,0,0,0],"sum_hessian":[2.8925625E1,7.0337186E0,2.1891905E1,1.3297249E1,8.594657E0,1.1600592E1,1.696657E0,3.2107823E0,5.383875E0,1.4869157E0,1.7238666E0],"tree_param":{"num_deleted":"0","num_feature":"4","num_nodes":"11","size_leaf_vector":"1"}},{"base_weights":[1.0369389E-2,-4.446861E-1,4.954175E-1,-3.850131E-2,-1.488594E-1,1.9187073E-1,5.4980373E-1,9.175078E-3,-3.265772E-2,3.0142946E-2,-9.1488715E-3,1.2958464E-2,4.5430306E-2],"categories":[],"categories_nodes":[],"categories_segments":[],"categories_sizes":[],"default_left":[0,0,0,0,0,0,0,0,0,0,0,0,0],"id":59,"left_children":[1,3,5,-1,7,9,11,-1,-1,-1,-1,-1,-1],"loss_changes":[6.7791114E0,2.4571371E-1,1.3977098E-1,0E0,3.949089E-1,2.990921E-1,1.4973164E-1,0E0,0E0,0E0,0E0,0E0,0E0],"parents":[2147483647,0,0,1,1,2,2,4,4,5,5,6,6],"right_children":[2,4,6,-1,8,10,12,-1,-1,-1,-1,-1,-1],"split_conditions":[4.9E0,4.5E0,5.1E0,-3.850131E-2,3.1E0,2.9E0,6.1E0,9.175078E-3,-3.265772E-2,3.0142946E-2,-9.1488715E-3,1.2958464E-2,4.5430306E-2],"split_indices":[2,2,2,0,1,1,0,0,0,0,0,0,0],"split_type":[0,0,0,0,0,0,0,0,0,0,0,0,0],"sum_hessian":[2.8714993E1,1.4858484E1,1.3856508E1,1.1462583E1,3.3959017E0,2.7934287E0,1.106308E1,2.039242E0,1.3566597E0,1.5054342E0,1.2879944E0,1.957493E0,9.105587E0],"tree_param":{"num_deleted":"0","num_feature":"4","num_nodes":"13","size_leaf_vector":"1"}},{"base_weights":[-7.870363E-3,4.266717E-2,-3.886325E-2],"categories":[],"categories_nodes":[],"categories_segments":[],"categories_sizes":[],"default_left":[0,0,0],"id":60,"left_children":[1,-1,-1],"loss_changes":[7.9641013E0,0E0,0E0],"parents":[2147483647,0,0],"right_children":[2,-1,-1],"split_conditions":[3E0,4.266717E-2,-3.886325E-2],"split_indices":[2,0,0],"split_type":[0,0,0],"sum_hessian":[2.5057093E1,1.1708698E1,1.3348393E1],"tree_param":{"num_deleted":"0","num_feature":"4","num_nodes":"3","size_leaf_vector":"1"}},{"base_weights":[-4.0722336E-3,-3.608648E-2,1.6135174E-1,4.6693456E-1,-3.9997712E-1,5.436661E-1,-6.167616E-3,-4.986902E-3,-3.6576085E-2,5.6218565E-3,4.4188846E-2],"categories":[],"categories_nodes":[],"categories_segments":[],"categories_sizes":[],"default_left":[0,0,0,0,0,0,0,0,0,0,0],"id":61,"left_children":[1,-1,3,5,7,9,-1,-1,-1,-1,-1],"loss_changes":[2.343625E0,0E0,3.9722567E0,6.6629267E-1,2.1085E-1,2.3476744E-1,0E0,0E0,0E0,0E0,0E0],"parents":[2147483647,0,0,2,2,3,3,4,4,5,5],"right_children":[2,-1,4,6,8,10,-1,-1,-1,-1,-1],"split_conditions":[3E0,-3.608648E-2,1.8E0,5.1E0,6E0,5.1E0,-6.167616E-3,-4.986902E-3,-3.6576085E-2,5.6218565E-3,4.4188846E-2],"split_indices":[2,0,3,2,0,0,0,0,0,0,0],"split_type":[0,0,0,0,0,0,0,0,0,0,0],"sum_hessian":[2.7712275E1,6.643601E0,2.1068674E1,1.3750938E1,7.3177357E0,1.2073952E1,1.6769862E0,1.8898653E0,5.4278703E0,1.3030536E0,1.0770898E1],"tree_param":{"num_deleted":"0","num_feature":"4","num_nodes":"11","size_leaf_vector":"1"}},{"base_weights":[1.1287681E-2,-4.3614924E-1,4.8169088E-1,-3.8638942E-2,1.3053023E-2,4.6642724E-2,4.3643996E-2,1.7187193E-2,-1.1016802E-2],"categories":[],"categories_nodes":[],"categories_segments":[],"categories_sizes":[],"default_left":[0,0,0,0,0,0,0,0,0],"id":62,"left_children":[1,3,5,-1,-1,7,-1,-1,-1],"loss_changes":[6.2142777E0,8.2007E-1,5.9996223E-1,0E0,0E0,1.671875E-1,0E0,0E0,0E0],"parents":[2147483647,0,0,1,1,2,2,5,5],"right_children":[2,4,6,-1,-1,8,-1,-1,-1],"split_conditions":[4.9E0,1.7E0,1.8E0,-3.8638942E-2,1.3053023E-2,1.6E0,4.3643996E-2,1.7187193E-2,-1.1016802E-2],"split_indices":[2,3,3,0,0,3,0,0,0],"split_type":[0,0,0,0,0,0,0,0,0],"sum_hessian":[2.7526745E1,1.4145081E1,1.3381663E1,1.2660842E1,1.4842392E0,2.7800598E0,1.06016035E1,1.3359952E0,1.4440646E0],"tree_param":{"num_deleted":"0","num_feature":"4","num_nodes":"9","size_leaf_vector":"1"}},{"base_weights":[-8.840201E-3,4.187222E-2,-3.846518E-2],"categories":[],"categories_nodes":[],"categories_segments":[],"categories_sizes":[],"default_left":[0,0,0],"id":63,"left_children":[1,-1,-1],"loss_changes":[7.365454E0,0E0,0E0],"parents":[2147483647,0,0],"right_children":[2,-1,-1],"split_conditions":[1E0,4.187222E-2,-3.846518E-2],"split_indices":[3,0,0],"split_type":[0,0,0],"sum_hessian":[2.3764893E1,1.1131732E1,1.2633161E1],"tree_param":{"num_deleted":"0","num_feature":"4","num_nodes":"3","size_leaf_vector":"1"}},{"base_weights":[-4.2438814E-3,-3.557336E-2,1.5696886E-1,4.8351437E-1,-3.4307882E-1,4.2929087E-2,-6.160313E-3,-9.208475E-2,-3.4603015E-2,-9.298392E-3,-8.635325E-4],"categories":[],"categories_nodes":[],"categories_segments":[],"categories_sizes":[],"default_left":[0,0,0,0,0,0,0,0,0,0,0],"id":64,"left_children":[1,-1,3,5,7,-1,-1,9,-1,-1,-1],"loss_changes":[2.1588984E0,0E0,3.6330166E0,7.1361756E-1,2.2393775E-1,0E0,0E0,9.169344E-3,0E0,0E0,0E0],"parents":[2147483647,0,0,2,2,3,3,4,4,7,7],"right_children":[2,-1,4,6,8,-1,-1,10,-1,-1,-1],"split_conditions":[3E0,-3.557336E-2,1.7E0,5E0,5.1E0,4.2929087E-2,-6.160313E-3,6.1E0,-3.4603015E-2,-9.298392E-3,-8.635325E-4],"split_indices":[2,0,3,2,2,0,0,0,0,0,0],"split_type":[0,0,0,0,0,0,0,0,0,0,0],"sum_hessian":[2.650623E1,6.2730346E0,2.0233194E1,1.22600765E1,7.9731183E0,1.0585074E1,1.6750023E0,3.123726E0,4.8493924E0,1.851905E0,1.271821E0],"tree_param":{"num_deleted":"0","num_feature":"4","num_nodes":"11","size_leaf_vector":"1"}},{"base_weights":[1.2287717E-2,-3.988168E-1,3.688683E-2,-3.897993E-2,-1.07065085E-2,1.694315E-1,-2.3308717E-2,-3.2632689E-3,2.4151433E-2],"categories":[],"categories_nodes":[],"categories_segments":[],"categories_sizes":[],"default_left":[0,0,0,0,0,0,0,0,0],"id":65,"left_children":[1,3,-1,-1,5,7,-1,-1,-1],"loss_changes":[5.581357E0,7.105658E-1,0E0,0E0,3.0379355E-1,1.2936947E-1,0E0,0E0,0E0],"parents":[2147483647,0,0,1,1,4,4,5,5],"right_children":[2,4,-1,-1,6,8,-1,-1,-1],"split_conditions":[1.7E0,6.1E0,3.688683E-2,-3.897993E-2,3.1E0,1.5E0,-2.3308717E-2,-3.2632689E-3,2.4151433E-2],"split_indices":[3,0,0,0,1,3,0,0,0],"split_type":[0,0,0,0,0,0,0,0,0],"sum_hessian":[2.631672E1,1.426001E1,1.205671E1,1.0614068E1,3.645942E0,2.5503316E0,1.0956104E0,1.3630269E0,1.1873049E0],"tree_param":{"num_deleted":"0","num_feature":"4","num_nodes":"9","size_leaf_vector":"1"}},{"base_weights":[-9.968341E-3,4.1124232E-2,-3.807673E-2],"categories":[],"categories_nodes":[],"categories_segments":[],"categories_sizes":[],"default_left":[0,0,0],"id":66,"left_children":[1,-1,-1],"loss_changes":[6.815969E0,0E0,0E0],"parents":[2147483647,0,0],"right_children":[2,-1,-1],"split_conditions":[3E0,4.1124232E-2,-3.807673E-2],"split_indices":[2,0,0],"split_type":[0,0,0],"sum_hessian":[2.2527214E1,1.0569638E1,1.1957576E1],"tree_param":{"num_deleted":"0","num_feature":"4","num_nodes":"3","size_leaf_vector":"1"}},{"base_weights":[-3.7505345E-3,-3.5069086E-2,1.5333548E-1,4.8764664E-1,-2.8775752E-1,4.2814617E-3,3.9944593E-2,-5.5709004E-2,-3.495761E-2,-2.3508827E-1,2.3987347E-2,-6.7973335E-4,-2.781145E-2],"categories":[],"categories_nodes":[],"categories_segments":[],"categories_sizes":[],"default_left":[0,0,0,0,0,0,0,0,0,0,0,0,0],"id":67,"left_children":[1,-1,3,5,7,-1,-1,9,-1,11,-1,-1,-1],"loss_changes":[1.9940647E0,0E0,3.1576805E0,2.0204186E-1,3.6515516E-1,0E0,0E0,4.28367E-1,0E0,1.231709E-1,0E0,0E0,0E0],"parents":[2147483647,0,0,2,2,3,3,4,4,7,7,9,9],"right_children":[2,-1,4,6,8,-1,-1,10,-1,12,-1,-1,-1],"split_conditions":[3E0,-3.5069086E-2,4.9E0,5.1E0,5.2E0,4.2814617E-3,3.9944593E-2,6.6E0,-3.495761E-2,2.8E0,2.3987347E-2,-6.7973335E-4,-2.781145E-2],"split_indices":[2,0,2,0,2,0,0,0,0,1,0,0,0],"split_type":[0,0,0,0,0,0,0,0,0,0,0,0,0],"sum_hessian":[2.5383545E1,5.921663E0,1.9461882E1,1.10109625E1,8.450919E0,1.2554021E0,9.755561E0,4.242825E0,4.208094E0,3.1244237E0,1.1184014E0,1.5725384E0,1.5518854E0],"tree_param":{"num_deleted":"0","num_feature":"4","num_nodes":"13","size_leaf_vector":"1"}},{"base_weights":[1.2719596E-2,-4.231706E-1,4.5765E-1,-3.7156384E-2,-1.3639988E-1,1.6320243E-1,5.1331997E-1,1.00151505E-2,-3.2151558E-2,2.7645456E-2,-9.403902E-3,1.0103816E-2,4.3086752E-2],"categories":[],"categories_nodes":[],"categories_segments":[],"categories_sizes":[],"default_left":[0,0,0,0,0,0,0,0,0,0,0,0,0],"id":68,"left_children":[1,3,5,-1,7,9,11,-1,-1,-1,-1,-1,-1],"loss_changes":[5.278333E0,2.1757317E-1,1.3677287E-1,0E0,3.84638E-1,2.5993994E-1,1.7386413E-1,0E0,0E0,0E0,0E0,0E0,0E0],"parents":[2147483647,0,0,1,1,2,2,4,4,5,5,6,6],"right_children":[2,4,6,-1,8,10,12,-1,-1,-1,-1,-1,-1],"split_conditions":[4.9E0,4.5E0,5.1E0,-3.7156384E-2,3.1E0,2.9E0,6.1E0,1.00151505E-2,-3.2151558E-2,2.7645456E-2,-9.403902E-3,1.0103816E-2,4.3086752E-2],"split_indices":[2,2,2,0,1,1,0,0,0,0,0,0,0],"split_type":[0,0,0,0,0,0,0,0,0,0,0,0,0],"sum_hessian":[2.5217634E1,1.2762931E1,1.2454704E1,9.613394E0,3.149537E0,2.6054833E0,9.84922E0,1.9197421E0,1.229795E0,1.3601297E0,1.2453536E0,1.8154037E0,8.033817E0],"tree_param":{"num_deleted":"0","num_feature":"4","num_nodes":"13","size_leaf_vector":"1"}},{"base_weights":[-1.1336137E-2,4.0426645E-2,-3.770926E-2],"categories":[],"categories_nodes":[],"categories_segments":[],"categories_sizes":[],"default_left":[0,0,0],"id":69,"left_children":[1,-1,-1],"loss_changes":[6.319465E0,0E0,0E0],"parents":[2147483647,0,0],"right_children":[2,-1,-1],"split_conditions":[3E0,4.0426645E-2,-3.770926E-2],"split_indices":[2,0,0],"split_type":[0,0,0],"sum_hessian":[2.1362276E1,1.0031568E1,1.1330709E1],"tree_param":{"num_deleted":"0","num_feature":"4","num_nodes":"3","size_leaf_vector":"1"}},{"base_weights":[-3.5779853E-3,-3.4570575E-2,1.490601E-1,4.6446908E-1,-3.269119E-1,4.1483883E-2,-5.235508E-3,-8.621819E-2,-3.3617046E-2,-8.981948E-3,-4.174112E-4],"categories":[],"categories_nodes":[],"categories_segments":[],"categories_sizes":[],"default_left":[0,0,0,0,0,0,0,0,0,0,0],"id":70,"left_children":[1,-1,3,5,7,-1,-1,9,-1,-1,-1],"loss_changes":[1.838556E0,0E0,3.118914E0,6.2117815E-1,2.0849973E-1,0E0,0E0,1.0355927E-2,0E0,0E0,0E0],"parents":[2147483647,0,0,2,2,3,3,4,4,7,7],"right_children":[2,-1,4,6,8,-1,-1,10,-1,-1,-1],"split_conditions":[3E0,-3.4570575E-2,1.7E0,5E0,5.1E0,4.1483883E-2,-5.235508E-3,6.1E0,-3.3617046E-2,-8.981948E-3,-4.174112E-4],"split_indices":[2,0,3,2,2,0,0,0,0,0,0],"split_type":[0,0,0,0,0,0,0,0,0,0,0],"sum_hessian":[2.4351995E1,5.588087E0,1.8763908E1,1.1299991E1,7.4639173E0,9.661625E0,1.6383653E0,3.0745678E0,4.3893495E0,1.829045E0,1.2455227E0],"tree_param":{"num_deleted":"0","num_feature":"4","num_nodes":"11","size_leaf_vector":"1"}},{"base_weights":[1.3661563E-2,-4.140945E-1,4.451937E-1,-3.7434675E-2,1.1575077E-2,2.7983975E-2,4.144083E-2,1.6050532E-2,-1.18773E-2],"categories":[],"categories_nodes":[],"categories_segments":[],"categories_sizes":[],"default_left":[0,0,0,0,0,0,0,0,0],"id":71,"left_children":[1,3,5,-1,-1,7,-1,-1,-1],"loss_changes":[4.8351955E0,7.13676E-1,5.678654E-1,0E0,0E0,1.628016E-1,0E0,0E0,0E0],"parents":[2147483647,0,0,1,1,2,2,5,5],"right_children":[2,4,6,-1,-1,8,-1,-1,-1],"split_conditions":[4.9E0,1.7E0,1.8E0,-3.7434675E-2,1.1575077E-2,1.6E0,4.144083E-2,1.6050532E-2,-1.18773E-2],"split_indices":[2,3,3,0,0,3,0,0,0],"split_type":[0,0,0,0,0,0,0,0,0],"sum_hessian":[2.4195467E1,1.2171189E1,1.2024278E1,1.0693417E1,1.4777732E0,2.71875E0,9.305528E0,1.2862825E0,1.4324675E0],"tree_param":{"num_deleted":"0","num_feature":"4","num_nodes":"9","size_leaf_vector":"1"}},{"base_weights":[-1.2119164E-2,3.976423E-2,-3.7336852E-2],"categories":[],"categories_nodes":[],"categories_segments":[],"categories_sizes":[],"default_left":[0,0,0],"id":72,"left_children":[1,-1,-1],"loss_changes":[5.8540907E0,0E0,0E0],"parents":[2147483647,0,0],"right_children":[2,-1,-1],"split_conditions":[1E0,3.976423E-2,-3.7336852E-2],"split_indices":[3,0,0],"split_type":[0,0,0],"sum_hessian":[2.0222847E1,9.511409E0,1.0711439E1],"tree_param":{"num_deleted":"0","num_feature":"4","num_nodes":"3","size_leaf_vector":"1"}},{"base_weights":[-3.926175E-3,-3.407762E-2,1.449625E-1,4.5262188E-1,-3.169101E-1,4.0761955E-2,-5.246442E-3,-8.03763E-2,-3.3059817E-2,-8.551298E-3,-1.3852994E-4],"categories":[],"categories_nodes":[],"categories_segments":[],"categories_sizes":[],"default_left":[0,0,0,0,0,0,0,0,0,0,0],"id":73,"left_children":[1,-1,3,5,7,-1,-1,9,-1,-1,-1],"loss_changes":[1.693966E0,0E0,2.8438265E0,5.9920406E-1,2.0444304E-1,0E0,0E0,1.0453578E-2,0E0,0E0,0E0],"parents":[2147483647,0,0,2,2,3,3,4,4,7,7],"right_children":[2,-1,4,6,8,-1,-1,10,-1,-1,-1],"split_conditions":[3E0,-3.407762E-2,1.7E0,5E0,5.1E0,4.0761955E-2,-5.246442E-3,6.1E0,-3.3059817E-2,-8.551298E-3,-1.3852994E-4],"split_indices":[2,0,3,2,2,0,0,0,0,0,0],"split_type":[0,0,0,0,0,0,0,0,0,0,0],"sum_hessian":[2.327618E1,5.272682E0,1.8003498E1,1.081771E1,7.1857886E0,9.181161E0,1.6365485E0,3.0367043E0,4.1490846E0,1.8095887E0,1.2271156E0],"tree_param":{"num_deleted":"0","num_feature":"4","num_nodes":"11","size_leaf_vector":"1"}},{"base_weights":[1.4615119E-2,-3.7750563E-1,4.56445E-1,-3.797686E-2,4.4395314E-3,3.8053967E-2,2.1703643E-1,1.6316066E-2,-1.5708062E-1,-8.789139E-3,2.8455602E-2,-2.0914722E-2,3.413026E-3],"categories":[],"categories_nodes":[],"categories_segments":[],"categories_sizes":[],"default_left":[0,0,0,0,0,0,0,0,0,0,0,0,0],"id":74,"left_children":[1,3,5,-1,7,-1,9,-1,11,-1,-1,-1,-1],"loss_changes":[4.351096E0,6.580881E-1,3.3712387E-2,0E0,1.8400547E-1,0E0,2.5158864E-1,0E0,8.81081E-2,0E0,0E0,0E0,0E0],"parents":[2147483647,0,0,1,1,2,2,4,4,6,6,8,8],"right_children":[2,4,6,-1,8,-1,10,-1,12,-1,-1,-1,-1],"split_conditions":[1.7E0,6.1E0,3.2E0,-3.797686E-2,2.9E0,3.8053967E-2,6.5E0,1.6316066E-2,6.8E0,-8.789139E-3,2.8455602E-2,-2.0914722E-2,3.413026E-3],"split_indices":[3,0,1,0,1,0,0,0,0,0,0,0,0],"split_type":[0,0,0,0,0,0,0,0,0,0,0,0,0],"sum_hessian":[2.311988E1,1.2326124E1,1.0793757E1,8.973201E0,3.3529227E0,7.977071E0,2.8166864E0,1.2960509E0,2.0568717E0,1.0119541E0,1.8047322E0,1.0494851E0,1.0073866E0],"tree_param":{"num_deleted":"0","num_feature":"4","num_nodes":"13","size_leaf_vector":"1"}},{"base_weights":[-1.3511246E-2,3.913134E-2,-3.6982752E-2],"categories":[],"categories_nodes":[],"categories_segments":[],"categories_sizes":[],"default_left":[0,0,0],"id":75,"left_children":[1,-1,-1],"loss_changes":[5.4305305E0,0E0,0E0],"parents":[2147483647,0,0],"right_children":[2,-1,-1],"split_conditions":[3E0,3.913134E-2,-3.6982752E-2],"split_indices":[2,0,0],"split_type":[0,0,0],"sum_hessian":[1.9152315E1,9.009311E0,1.0143004E1],"tree_param":{"num_deleted":"0","num_feature":"4","num_nodes":"3","size_leaf_vector":"1"}},{"base_weights":[-3.6898735E-3,-3.3588957E-2,1.4135373E-1,4.1094962E-1,-3.5561657E-1,4.9109405E-1,-5.3168414E-3,-1.2151813E-3,-3.4397375E-2,2.2338796E-3,4.0866643E-2],"categories":[],"categories_nodes":[],"categories_segments":[],"categories_sizes":[],"default_left":[0,0,0,0,0,0,0,0,0,0,0],"id":76,"left_children":[1,-1,3,5,7,9,-1,-1,-1,-1,-1],"loss_changes":[1.5641655E0,0E0,2.6009567E0,5.1143336E-1,2.3661774E-1,2.4950576E-1,0E0,0E0,0E0,0E0,0E0],"parents":[2147483647,0,0,2,2,3,3,4,4,5,5],"right_children":[2,-1,4,6,8,10,-1,-1,-1,-1,-1],"split_conditions":[3E0,-3.3588957E-2,1.8E0,5.1E0,6E0,5.1E0,-5.3168414E-3,-1.2151813E-3,-3.4397375E-2,2.2338796E-3,4.0866643E-2],"split_indices":[2,0,3,2,0,0,0,0,0,0,0],"split_type":[0,0,0,0,0,0,0,0,0,0,0],"sum_hessian":[2.2296967E1,4.974866E0,1.7322102E1,1.1342257E1,5.979844E0,9.708278E0,1.6339788E0,1.6618065E0,4.318038E0,1.1761354E0,8.532143E0],"tree_param":{"num_deleted":"0","num_feature":"4","num_nodes":"11","size_leaf_vector":"1"}},{"base_weights":[1.5465342E-2,-4.0064847E-1,4.2296466E-1,-3.664257E-2,1.0186663E-2,2.0473622E-2,4.013226E-2,1.5561291E-2,-1.2120469E-2],"categories":[],"categories_nodes":[],"categories_segments":[],"categories_sizes":[],"default_left":[0,0,0,0,0,0,0,0,0],"id":77,"left_children":[1,3,5,-1,-1,7,-1,-1,-1],"loss_changes":[4.0973506E0,6.3115144E-1,5.39196E-1,0E0,0E0,1.5937684E-1,0E0,0E0,0E0],"parents":[2147483647,0,0,1,1,2,2,5,5],"right_children":[2,4,6,-1,-1,8,-1,-1,-1],"split_conditions":[4.9E0,1.7E0,1.8E0,-3.664257E-2,1.0186663E-2,1.6E0,4.013226E-2,1.5561291E-2,-1.2120469E-2],"split_indices":[2,3,3,0,0,3,0,0,0],"split_type":[0,0,0,0,0,0,0,0,0],"sum_hessian":[2.216436E1,1.0974586E1,1.1189775E1,9.505996E0,1.4685895E0,2.6958358E0,8.493939E0,1.2610834E0,1.4347525E0],"tree_param":{"num_deleted":"0","num_feature":"4","num_nodes":"9","size_leaf_vector":"1"}},{"base_weights":[-1.4454007E-2,3.853128E-2,-3.663186E-2],"categories":[],"categories_nodes":[],"categories_segments":[],"categories_sizes":[],"default_left":[0,0,0],"id":78,"left_children":[1,-1,-1],"loss_changes":[5.0386577E0,0E0,0E0],"parents":[2147483647,0,0],"right_children":[2,-1,-1],"split_conditions":[3E0,3.853128E-2,-3.663186E-2],"split_indices":[2,0,0],"split_type":[0,0,0],"sum_hessian":[1.812388E1,8.531852E0,9.592029E0],"tree_param":{"num_deleted":"0","num_feature":"4","num_nodes":"3","size_leaf_vector":"1"}},{"base_weights":[-3.8661968E-3,-3.310245E-2,1.3768293E-1,4.3094575E-1,-2.9742032E-1,3.949489E-2,-5.3243996E-3,-6.5427825E-2,-3.2069445E-2,-2.7740967E-2,1.6486246E-2],"categories":[],"categories_nodes":[],"categories_segments":[],"categories_sizes":[],"default_left":[0,0,0,0,0,0,0,0,0,0,0],"id":79,"left_children":[1,-1,3,5,7,-1,-1,9,-1,-1,-1],"loss_changes":[1.4428656E0,0E0,2.3770514E0,5.6247234E-1,2.0418829E-1,0E0,0E0,4.2380482E-1,0E0,0E0,0E0],"parents":[2147483647,0,0,2,2,3,3,4,4,7,7],"right_children":[2,-1,4,6,8,-1,-1,10,-1,-1,-1],"split_conditions":[3E0,-3.310245E-2,1.7E0,5E0,5.1E0,3.949489E-2,-5.3243996E-3,2.9E0,-3.2069445E-2,-2.7740967E-2,1.6486246E-2],"split_indices":[2,0,3,2,2,0,0,1,0,0,0],"split_type":[0,0,0,0,0,0,0,0,0,0,0],"sum_hessian":[2.131791E1,4.693411E0,1.6624498E1,9.936666E0,6.687832E0,8.304896E0,1.6317695E0,2.9438818E0,3.7439501E0,1.2804742E0,1.6634074E0],"tree_param":{"num_deleted":"0","num_feature":"4","num_nodes":"11","size_leaf_vector":"1"}},{"base_weights":[1.6350683E-2,-3.9377663E-1,4.1294137E-1,-3.625328E-2,9.626686E-3,2.0112228E-2,3.9486058E-2,1.5296679E-2,-1.1883117E-2],"categories":[],"categories_nodes":[],"categories_segments":[],"categories_sizes":[],"default_left":[0,0,0,0,0,0,0,0,0],"id":80,"left_children":[1,3,5,-1,-1,7,-1,-1,-1],"loss_changes":[3.7706718E0,5.961727E-1,5.141735E-1,0E0,0E0,1.5304312E-1,0E0,0E0,0E0],"parents":[2147483647,0,0,1,1,2,2,5,5],"right_children":[2,4,6,-1,-1,8,-1,-1,-1],"split_conditions":[4.9E0,1.7E0,1.8E0,-3.625328E-2,9.626686E-3,1.6E0,3.9486058E-2,1.5296679E-2,-1.1883117E-2],"split_indices":[2,3,3,0,0,3,0,0,0],"split_type":[0,0,0,0,0,0,0,0,0],"sum_hessian":[2.1182636E1,1.0417086E1,1.0765552E1,8.954651E0,1.4624354E0,2.6778238E0,8.087728E0,1.2492745E0,1.4285493E0],"tree_param":{"num_deleted":"0","num_feature":"4","num_nodes":"9","size_leaf_vector":"1"}},{"base_weights":[-1.5174324E-2,3.795623E-2,-3.627826E-2],"categories":[],"categories_nodes":[],"categories_segments":[],"categories_sizes":[],"default_left":[0,0,0],"id":81,"left_children":[1,-1,-1],"loss_changes":[4.6753497E0,0E0,0E0],"parents":[2147483647,0,0],"right_children":[2,-1,-1],"split_conditions":[1E0,3.795623E-2,-3.627826E-2],"split_indices":[3,0,0],"split_type":[0,0,0],"sum_hessian":[1.714107E1,8.076089E0,9.064981E0],"tree_param":{"num_deleted":"0","num_feature":"4","num_nodes":"3","size_leaf_vector":"1"}},{"base_weights":[-4.3121767E-3,-3.2617602E-2,1.3386609E-1,4.2015985E-1,-2.884219E-1,4.026723E-2,1.7308879E-1,-3.71965E-1,1.0101289E-3,-6.2908414E-3,2.84812E-1,-3.5318036E-2,-3.5273747E-3,2.6060794E-2,5.188822E-3],"categories":[],"categories_nodes":[],"categories_segments":[],"categories_sizes":[],"default_left":[0,0,0,0,0,0,0,0,0,0,0,0,0,0,0],"id":82,"left_children":[1,-1,3,5,7,-1,9,11,-1,-1,13,-1,-1,-1,-1],"loss_changes":[1.3299137E0,0E0,2.1698987E0,2.1008766E-1,1.9264495E-1,0E0,1.6303979E-1,1.6631562E-1,0E0,0E0,2.4680972E-2,0E0,0E0,0E0,0E0],"parents":[2147483647,0,0,2,2,3,3,4,4,6,6,7,7,10,10],"right_children":[2,-1,4,6,8,-1,10,12,-1,-1,14,-1,-1,-1,-1],"split_conditions":[1E0,-3.2617602E-2,1.7E0,6.1E0,3.2E0,4.026723E-2,2.9E0,6.6E0,1.0101289E-3,-6.2908414E-3,6.8E0,-3.5318036E-2,-3.5273747E-3,2.6060794E-2,5.188822E-3],"split_indices":[3,0,3,0,1,0,1,0,0,0,0,0,0,0,0],"split_type":[0,0,0,0,0,0,0,0,0,0,0,0,0,0,0],"sum_hessian":[2.0373724E1,4.427966E0,1.5945758E1,9.506074E0,6.4396844E0,5.659174E0,3.8468997E0,4.862068E0,1.577616E0,1.2412419E0,2.6056578E0,3.3827727E0,1.4792957E0,1.5451437E0,1.0605142E0],"tree_param":{"num_deleted":"0","num_feature":"4","num_nodes":"15","size_leaf_vector":"1"}},{"base_weights":[1.7300215E-2,-3.5244933E-1,4.2198715E-1,-3.7016295E-2,2.9836336E-2,4.7792625E-1,1.7176759E-1,1.6430613E-2,-9.597077E-3,4.0700722E-2,2.1100691E-1,-5.7567214E-3,2.4597071E-2,1.8516696E-3,2.2417568E-2],"categories":[],"categories_nodes":[],"categories_segments":[],"categories_sizes":[],"default_left":[0,0,0,0,0,0,0,0,0,0,0,0,0,0,0],"id":83,"left_children":[1,3,5,-1,7,9,11,-1,-1,-1,13,-1,-1,-1,-1],"loss_changes":[3.3268437E0,6.4279866E-1,6.6216946E-2,0E0,1.499285E-1,2.5461674E-2,1.6091952E-1,0E0,0E0,0E0,4.53071E-2,0E0,0E0,0E0,0E0],"parents":[2147483647,0,0,1,1,2,2,4,4,5,5,6,6,10,10],"right_children":[2,4,6,-1,8,10,12,-1,-1,-1,14,-1,-1,-1,-1],"split_conditions":[1.7E0,6.1E0,3.2E0,-3.7016295E-2,2.9E0,6.6E0,2.1E0,1.6430613E-2,-9.597077E-3,4.0700722E-2,7E0,-5.7567214E-3,2.4597071E-2,1.8516696E-3,2.2417568E-2],"split_indices":[3,0,1,0,1,0,3,0,0,0,0,0,0,0,0],"split_type":[0,0,0,0,0,0,0,0,0,0,0,0,0,0,0],"sum_hessian":[2.0239426E1,1.06437E1,9.595727E0,7.56165E0,3.0820496E0,7.0987105E0,2.4970167E0,1.2248354E0,1.8572141E0,4.881447E0,2.2172635E0,1.1599567E0,1.3370599E0,1.1212752E0,1.0959883E0],"tree_param":{"num_deleted":"0","num_feature":"4","num_nodes":"15","size_leaf_vector":"1"}},{"base_weights":[-1.748636E-2,3.739853E-2,-3.59579E-2],"categories":[],"categories_nodes":[],"categories_segments":[],"categories_sizes":[],"default_left":[0,0,0],"id":84,"left_children":[1,-1,-1],"loss_changes":[4.352616E0,0E0,0E0],"parents":[2147483647,0,0],"right_children":[2,-1,-1],"split_conditions":[3E0,3.739853E-2,-3.59579E-2],"split_indices":[2,0,0],"split_type":[0,0,0],"sum_hessian":[1.6252707E1,7.638676E0,8.61403E0],"tree_param":{"num_deleted":"0","num_feature":"4","num_nodes":"3","size_leaf_vector":"1"}},{"base_weights":[-3.8332087E-3,-3.213407E-2,1.3029541E-1,3.7890798E-1,-3.2802552E-1,8.292663E-4,4.1788322E-1,-3.3341233E-2,1.1041749E-3,3.3935115E-2,4.784342E-3],"categories":[],"categories_nodes":[],"categories_segments":[],"categories_sizes":[],"default_left":[0,0,0,0,0,0,0,0,0,0,0],"id":85,"left_children":[1,-1,3,5,7,-1,9,-1,-1,-1,-1],"loss_changes":[1.2290404E0,0E0,1.9954051E0,1.5466881E-1,2.5859565E-1,0E0,9.382832E-2,0E0,0E0,0E0,0E0],"parents":[2147483647,0,0,2,2,3,3,4,4,6,6],"right_children":[2,-1,4,6,8,-1,10,-1,-1,-1,-1],"split_conditions":[1E0,-3.213407E-2,1.8E0,5.1E0,3.2E0,8.292663E-4,6.8E0,-3.3341233E-2,1.1041749E-3,3.3935115E-2,4.784342E-3],"split_indices":[3,0,3,0,1,0,0,0,0,0,0],"split_type":[0,0,0,0,0,0,0,0,0,0,0],"sum_hessian":[1.9599396E1,4.1781034E0,1.5421291E1,1.0110305E1,5.3109865E0,1.0915805E0,9.018724E0,3.74185E0,1.5691365E0,7.9631224E0,1.0556024E0],"tree_param":{"num_deleted":"0","num_feature":"4","num_nodes":"11","size_leaf_vector":"1"}},{"base_weights":[1.8588617E-2,-3.8210428E-1,3.9516732E-1,-3.551813E-2,8.198656E-3,1.8973606E-2,3.8369704E-2,1.4719037E-2,-1.1376173E-2],"categories":[],"categories_nodes":[],"categories_segments":[],"categories_sizes":[],"default_left":[0,0,0,0,0,0,0,0,0],"id":86,"left_children":[1,3,5,-1,-1,7,-1,-1,-1],"loss_changes":[3.2409182E0,5.2058387E-1,4.7419608E-1,0E0,0E0,1.4018501E-1,0E0,0E0,0E0],"parents":[2147483647,0,0,1,1,2,2,5,5],"right_children":[2,4,6,-1,-1,8,-1,-1,-1],"split_conditions":[4.9E0,1.7E0,1.8E0,-3.551813E-2,8.198656E-3,1.6E0,3.8369704E-2,1.4719037E-2,-1.1376173E-2],"split_indices":[2,3,3,0,0,3,0,0,0],"split_type":[0,0,0,0,0,0,0,0,0],"sum_hessian":[1.9477655E1,9.42958E0,1.0048075E1,7.9804463E0,1.4491335E0,2.6496696E0,7.3984056E0,1.2260407E0,1.4236289E0],"tree_param":{"num_deleted":"0","num_feature":"4","num_nodes":"9","size_leaf_vector":"1"}},{"base_weights":[-1.8788371E-2,3.6863584E-2,-3.5624202E-2],"categories":[],"categories_nodes":[],"categories_segments":[],"categories_sizes":[],"default_left":[0,0,0],"id":87,"left_children":[1,-1,-1],"loss_changes":[4.048225E0,0E0,0E0],"parents":[2147483647,0,0],"right_children":[2,-1,-1],"split_conditions":[1E0,3.6863584E-2,-3.5624202E-2],"split_indices":[3,0,0],"split_type":[0,0,0],"sum_hessian":[1.5386386E1,7.226015E0,8.160371E0],"tree_param":{"num_deleted":"0","num_feature":"4","num_nodes":"3","size_leaf_vector":"1"}},{"base_weights":[-3.938737E-3,-3.1650204E-2,1.2654206E-1,3.6434448E-1,-3.346862E-1,3.7916586E-2,-3.9084483E-2,2.948884E-4,-3.3139393E-2,-2.6027925E-2,1.720472E-2],"categories":[],"categories_nodes":[],"categories_segments":[],"categories_sizes":[],"default_left":[0,0,0,0,0,0,0,0,0,0,0],"id":88,"left_children":[1,-1,3,5,7,-1,9,-1,-1,-1,-1],"loss_changes":[1.133975E0,0E0,1.8621966E0,6.4342856E-1,2.1653408E-1,0E0,3.9103714E-1,0E0,0E0,0E0,0E0],"parents":[2147483647,0,0,2,2,3,3,4,4,6,6],"right_children":[2,-1,4,6,8,-1,10,-1,-1,-1,-1],"split_conditions":[3E0,-3.1650204E-2,5.1E0,1.7E0,2.8E0,3.7916586E-2,2.9E0,2.948884E-4,-3.3139393E-2,-2.6027925E-2,1.720472E-2],"split_indices":[2,0,2,3,1,0,1,0,0,0,0],"split_type":[0,0,0,0,0,0,0,0,0,0,0],"sum_hessian":[1.8809116E1,3.9426255E0,1.486649E1,9.947675E0,4.9188166E0,7.1810045E0,2.7666698E0,1.414121E0,3.5046952E0,1.1523226E0,1.6143471E0],"tree_param":{"num_deleted":"0","num_feature":"4","num_nodes":"11","size_leaf_vector":"1"}},{"base_weights":[1.962604E-2,-3.7580484E-1,3.8700047E-1,-3.51543E-2,7.712276E-3,2.306075E-2,3.779089E-2,1.4635651E-2,-1.0889369E-2],"categories":[],"categories_nodes":[],"categories_segments":[],"categories_sizes":[],"default_left":[0,0,0,0,0,0,0,0,0],"id":89,"left_children":[1,3,5,-1,-1,7,-1,-1,-1],"loss_changes":[3.0018249E0,4.9191833E-1,4.4290388E-1,0E0,0E0,1.3387875E-1,0E0,0E0,0E0],"parents":[2147483647,0,0,1,1,2,2,5,5],"right_children":[2,4,6,-1,-1,8,-1,-1,-1],"split_conditions":[4.9E0,1.7E0,1.8E0,-3.51543E-2,7.712276E-3,1.6E0,3.779089E-2,1.4635651E-2,-1.0889369E-2],"split_indices":[2,3,3,0,0,3,0,0,0],"split_type":[0,0,0,0,0,0,0,0,0],"sum_hessian":[1.8662453E1,8.976966E0,9.685486E0,7.5348973E0,1.4420688E0,2.6454086E0,7.0400777E0,1.2288134E0,1.4165952E0],"tree_param":{"num_deleted":"0","num_feature":"4","num_nodes":"9","size_leaf_vector":"1"}},{"base_weights":[-1.9485543E-2,3.634444E-2,-3.5280846E-2],"categories":[],"categories_nodes":[],"categories_segments":[],"categories_sizes":[],"default_left":[0,0,0],"id":90,"left_children":[1,-1,-1],"loss_changes":[3.7622557E0,0E0,0E0],"parents":[2147483647,0,0],"right_children":[2,-1,-1],"split_conditions":[3E0,3.634444E-2,-3.5280846E-2],"split_indices":[2,0,0],"split_type":[0,0,0],"sum_hessian":[1.45489235E1,6.8343368E0,7.714587E0],"tree_param":{"num_deleted":"0","num_feature":"4","num_nodes":"3","size_leaf_vector":"1"}},{"base_weights":[-4.297993E-3,-3.1165944E-2,1.23128496E-1,3.5646495E-1,-3.267727E-1,4.1306442E-1,4.0016547E-3,7.843913E-3,-3.3875152E-2,-1.321486E-4,3.523437E-2],"categories":[],"categories_nodes":[],"categories_segments":[],"categories_sizes":[],"default_left":[0,0,0,0,0,0,0,0,0,0,0],"id":91,"left_children":[1,-1,3,5,7,9,-1,-1,-1,-1,-1],"loss_changes":[1.0463883E0,0E0,1.7195332E0,1.586721E-1,3.563063E-1,2.062087E-1,0E0,0E0,0E0,0E0,0E0],"parents":[2147483647,0,0,2,2,3,3,4,4,5,5],"right_children":[2,-1,4,6,8,10,-1,-1,-1,-1,-1],"split_conditions":[3E0,-3.1165944E-2,5.1E0,4.9E0,6.1E0,5.1E0,4.0016547E-3,7.843913E-3,-3.3875152E-2,-1.321486E-4,3.523437E-2],"split_indices":[2,0,2,2,0,0,0,0,0,0,0],"split_type":[0,0,0,0,0,0,0,0,0,0,0],"sum_hessian":[1.7991394E1,3.7210987E0,1.4270295E1,9.533519E0,4.7367764E0,7.727762E0,1.8057568E0,1.1000636E0,3.6367128E0,1.0461997E0,6.6815624E0],"tree_param":{"num_deleted":"0","num_feature":"4","num_nodes":"11","size_leaf_vector":"1"}},{"base_weights":[2.0404063E-2,-3.263577E-1,3.9058518E-1,-3.5962105E-2,4.767268E-2,4.5055377E-1,1.3718566E-1,1.6400112E-2,-8.0018975E-3,3.87431E-2,1.3659889E-2,-7.6106847E-3,2.2778446E-2],"categories":[],"categories_nodes":[],"categories_segments":[],"categories_sizes":[],"default_left":[0,0,0,0,0,0,0,0,0,0,0,0,0],"id":92,"left_children":[1,3,5,-1,7,9,11,-1,-1,-1,-1,-1,-1],"loss_changes":[2.547067E0,6.11524E-1,8.364737E-2,0E0,1.2614225E-1,3.5325885E-2,1.6076343E-1,0E0,0E0,0E0,0E0,0E0,0E0],"parents":[2147483647,0,0,1,1,2,2,4,4,5,5,6,6],"right_children":[2,4,6,-1,8,10,12,-1,-1,-1,-1,-1,-1],"split_conditions":[1.7E0,6.1E0,3.2E0,-3.5962105E-2,2.9E0,6.6E0,2.1E0,1.6400112E-2,-8.0018975E-3,3.87431E-2,1.3659889E-2,-7.6106847E-3,2.2778446E-2],"split_indices":[3,0,1,0,1,0,3,0,0,0,0,0,0],"split_type":[0,0,0,0,0,0,0,0,0,0,0,0,0],"sum_hessian":[1.7849398E1,9.277354E0,8.572042E0,6.3823147E0,2.89504E0,6.3024836E0,2.2695591E0,1.1758919E0,1.719148E0,4.3163495E0,1.9861339E0,1.0933036E0,1.1762556E0],"tree_param":{"num_deleted":"0","num_feature":"4","num_nodes":"13","size_leaf_vector":"1"}},{"base_weights":[-2.174932E-2,3.583463E-2,-3.4972895E-2],"categories":[],"categories_nodes":[],"categories_segments":[],"categories_sizes":[],"default_left":[0,0,0],"id":93,"left_children":[1,-1,-1],"loss_changes":[3.5082254E0,0E0,0E0],"parents":[2147483647,0,0],"right_children":[2,-1,-1],"split_conditions":[3E0,3.583463E-2,-3.4972895E-2],"split_indices":[2,0,0],"split_type":[0,0,0],"sum_hessian":[1.3794196E1,6.4601746E0,7.334021E0],"tree_param":{"num_deleted":"0","num_feature":"4","num_nodes":"3","size_leaf_vector":"1"}},{"base_weights":[-4.0054535E-3,-3.0681316E-2,1.19760275E-1,3.5060593E-1,-3.0436665E-1,-2.6812762E-4,3.914032E-1,3.334578E-3,-3.2015968E-2,3.2085788E-2,3.934668E-3],"categories":[],"categories_nodes":[],"categories_segments":[],"categories_sizes":[],"default_left":[0,0,0,0,0,0,0,0,0,0,0],"id":94,"left_children":[1,-1,3,5,7,-1,9,-1,-1,-1,-1],"loss_changes":[9.672729E-1,0E0,1.5560629E0,1.4662516E-1,2.648263E-1,0E0,8.887994E-2,0E0,0E0,0E0,0E0],"parents":[2147483647,0,0,2,2,3,3,4,4,6,6],"right_children":[2,-1,4,6,8,-1,10,-1,-1,-1,-1],"split_conditions":[1E0,-3.0681316E-2,1.8E0,5.1E0,6E0,-2.6812762E-4,6.8E0,3.334578E-3,-3.2015968E-2,3.2085788E-2,3.934668E-3],"split_indices":[3,0,3,0,0,0,0,0,0,0,0],"split_type":[0,0,0,0,0,0,0,0,0,0,0],"sum_hessian":[1.7316214E1,3.5130088E0,1.38032055E1,9.050504E0,4.7527013E0,1.0290642E0,8.02144E0,1.4009385E0,3.3517628E0,7.006626E0,1.0148134E0],"tree_param":{"num_deleted":"0","num_feature":"4","num_nodes":"11","size_leaf_vector":"1"}},{"base_weights":[2.1723755E-2,-3.6132517E-1,3.6873963E-1,-3.4424957E-2,7.216888E-3,1.4040413E-2,3.68339E-2,1.3725906E-2,-1.0943368E-2],"categories":[],"categories_nodes":[],"categories_segments":[],"categories_sizes":[],"default_left":[0,0,0,0,0,0,0,0,0],"id":95,"left_children":[1,3,5,-1,-1,7,-1,-1,-1],"loss_changes":[2.550966E0,4.5311666E-1,4.288398E-1,0E0,0E0,1.2412108E-1,0E0,0E0,0E0],"parents":[2147483647,0,0,1,1,2,2,5,5],"right_children":[2,4,6,-1,-1,8,-1,-1,-1],"split_conditions":[4.9E0,1.7E0,1.8E0,-3.4424957E-2,7.216888E-3,1.6E0,3.68339E-2,1.3725906E-2,-1.0943368E-2],"split_indices":[2,3,3,0,0,3,0,0,0],"split_type":[0,0,0,0,0,0,0,0,0],"sum_hessian":[1.7188814E1,8.150622E0,9.038193E0,6.7141676E0,1.4364545E0,2.6044042E0,6.433789E0,1.1963856E0,1.4080186E0],"tree_param":{"num_deleted":"0","num_feature":"4","num_nodes":"9","size_leaf_vector":"1"}},{"base_weights":[-2.3013864E-2,3.534035E-2,-3.464396E-2],"categories":[],"categories_nodes":[],"categories_segments":[],"categories_sizes":[],"default_left":[0,0,0],"id":96,"left_children":[1,-1,-1],"loss_changes":[3.2678115E0,0E0,0E0],"parents":[2147483647,0,0],"right_children":[2,-1,-1],"split_conditions":[1E0,3.534035E-2,-3.464396E-2],"split_indices":[3,0,0],"split_type":[0,0,0],"sum_hessian":[1.3061495E1,6.1090097E0,6.9524856E0],"tree_param":{"num_deleted":"0","num_feature":"4","num_nodes":"3","size_leaf_vector":"1"}},{"base_weights":[-4.1252463E-3,-3.0195199E-2,1.16283946E-1,3.7034732E-1,-2.4730729E-1,3.7522014E-2,1.2288752E-1,-3.3997926E-1,4.032858E-3,-4.237299E-2,2.387491E-2,-3.3253785E-2,-1.1369624E-3,-8.071712E-3,3.3166439E-3],"categories":[],"categories_nodes":[],"categories_segments":[],"categories_sizes":[],"default_left":[0,0,0,0,0,0,0,0,0,0,0,0,0,0,0],"id":97,"left_children":[1,-1,3,5,7,-1,9,11,-1,13,-1,-1,-1,-1,-1],"loss_changes":[8.931467E-1,0E0,1.4145688E0,2.2249794E-1,1.9938093E-1,0E0,1.5451676E-1,1.645633E-1,0E0,2.3113512E-2,0E0,0E0,0E0,0E0,0E0],"parents":[2147483647,0,0,2,2,3,3,4,4,6,6,7,7,9,9],"right_children":[2,-1,4,6,8,-1,10,12,-1,14,-1,-1,-1,-1,-1],"split_conditions":[1E0,-3.0195199E-2,1.7E0,6.1E0,3.2E0,3.7522014E-2,3.1E0,6.6E0,4.032858E-3,2.9E0,2.387491E-2,-3.3253785E-2,-1.1369624E-3,-8.071712E-3,3.3166439E-3],"split_indices":[3,0,3,0,1,0,1,0,0,1,0,0,0,0,0],"split_type":[0,0,0,0,0,0,0,0,0,0,0,0,0,0,0],"sum_hessian":[1.6639109E1,3.3173108E0,1.3321797E1,7.8311286E0,5.490669E0,4.464836E0,3.3662922E0,4.0996065E0,1.3910623E0,2.2483609E0,1.1179314E0,2.8327894E0,1.2668171E0,1.1437254E0,1.1046355E0],"tree_param":{"num_deleted":"0","num_feature":"4","num_nodes":"15","size_leaf_vector":"1"}},{"base_weights":[2.2663668E-2,-3.1027684E-1,3.7260196E-1,-3.527487E-2,5.6209292E-2,4.3564716E-1,1.1388119E-1,1.633396E-2,-7.1979123E-3,3.777721E-2,1.2167375E-2,-8.7823E-3,2.1516372E-2],"categories":[],"categories_nodes":[],"categories_segments":[],"categories_sizes":[],"default_left":[0,0,0,0,0,0,0,0,0,0,0,0,0],"id":98,"left_children":[1,3,5,-1,7,9,11,-1,-1,-1,-1,-1,-1],"loss_changes":[2.1532874E0,5.8415896E-1,9.688532E-2,0E0,1.1393263E-1,4.6063423E-2,1.5801758E-1,0E0,0E0,0E0,0E0,0E0,0E0],"parents":[2147483647,0,0,1,1,2,2,4,4,5,5,6,6],"right_children":[2,4,6,-1,8,10,12,-1,-1,-1,-1,-1,-1],"split_conditions":[1.7E0,6.1E0,3.2E0,-3.527487E-2,2.9E0,6.6E0,6.6E0,1.633396E-2,-7.1979123E-3,3.777721E-2,1.2167375E-2,-8.7823E-3,2.1516372E-2],"split_indices":[3,0,1,0,1,0,0,0,0,0,0,0,0],"split_type":[0,0,0,0,0,0,0,0,0,0,0,0,0],"sum_hessian":[1.64895E1,8.508053E0,7.981447E0,5.7246037E0,2.7834496E0,5.867742E0,2.1137052E0,1.1409571E0,1.6424925E0,4.0239944E0,1.8437476E0,1.0435739E0,1.0701312E0],"tree_param":{"num_deleted":"0","num_feature":"4","num_nodes":"13","size_leaf_vector":"1"}},{"base_weights":[-2.527277E-2,3.4851395E-2,-3.4332767E-2],"categories":[],"categories_nodes":[],"categories_segments":[],"categories_sizes":[],"default_left":[0,0,0],"id":99,"left_children":[1,-1,-1],"loss_changes":[3.0501487E0,0E0,0E0],"parents":[2147483647,0,0],"right_children":[2,-1,-1],"split_conditions":[3E0,3.4851395E-2,-3.4332767E-2],"split_indices":[2,0,0],"split_type":[0,0,0],"sum_hessian":[1.2390065E1,5.7742453E0,6.61582E0],"tree_param":{"num_deleted":"0","num_feature":"4","num_nodes":"3","size_leaf_vector":"1"}},{"base_weights":[-3.4532638E-3,-2.9708257E-2,1.13470174E-1,3.4457046E-1,-3.17145E-1,3.609405E-2,-1.4553347E-2,7.861979E-3,-3.322704E-2,3.4107664E-3,-4.881391E-3],"categories":[],"categories_nodes":[],"categories_segments":[],"categories_sizes":[],"default_left":[0,0,0,0,0,0,0,0,0,0,0],"id":100,"left_children":[1,-1,3,5,7,-1,9,-1,-1,-1,-1],"loss_changes":[8.274982E-1,0E0,1.4936737E0,4.749037E-1,3.3217657E-1,0E0,1.3875611E-2,0E0,0E0,0E0,0E0],"parents":[2147483647,0,0,2,2,3,3,4,4,6,6],"right_children":[2,-1,4,6,8,-1,10,-1,-1,-1,-1],"split_conditions":[3E0,-2.9708257E-2,5.1E0,1.7E0,6.1E0,3.609405E-2,6E0,7.861979E-3,-3.322704E-2,3.4107664E-3,-4.881391E-3],"split_indices":[2,0,2,3,0,0,0,0,0,0,0],"split_type":[0,0,0,0,0,0,0,0,0,0,0],"sum_hessian":[1.6045048E1,3.133668E0,1.2911379E1,8.532187E0,4.3791914E0,5.9337187E0,2.598469E0,1.0446553E0,3.334536E0,1.2333382E0,1.3651308E0],"tree_param":{"num_deleted":"0","num_feature":"4","num_nodes":"11","size_leaf_vector":"1"}},{"base_weights":[2.3499727E-2,-3.5208762E-1,3.554469E-1,8.266721E-5,-4.1472176E-1,1.4176089E-1,3.6624283E-2,-3.578612E-2,-1.0511887E-2,2.6853392E-1,-1.1547153E-2,5.795872E-3,2.6986368E-2],"categories":[],"categories_nodes":[],"categories_segments":[],"categories_sizes":[],"default_left":[0,0,0,0,0,0,0,0,0,0,0,0,0],"id":101,"left_children":[1,3,5,-1,7,9,-1,-1,-1,11,-1,-1,-1],"loss_changes":[2.23278E0,1.8702126E-1,1.997068E-1,0E0,5.5946708E-2,2.3031203E-1,0E0,0E0,0E0,4.0151536E-2,0E0,0E0,0E0],"parents":[2147483647,0,0,1,1,2,2,4,4,5,5,9,9],"right_children":[2,4,6,-1,8,10,-1,-1,-1,12,-1,-1,-1],"split_conditions":[4.9E0,2.6E0,5.2E0,8.266721E-5,6E0,6.4E0,3.6624283E-2,-3.578612E-2,-1.0511887E-2,2.8E0,-1.1547153E-2,5.795872E-3,2.6986368E-2],"split_indices":[2,1,2,0,0,0,0,0,0,1,0,0,0],"split_type":[0,0,0,0,0,0,0,0,0,0,0,0,0],"sum_hessian":[1.5904983E1,7.433522E0,8.47146E0,1.2676618E0,6.1658607E0,4.040533E0,4.4309273E0,4.4224906E0,1.74337E0,2.8924947E0,1.1480384E0,1.5311179E0,1.3613766E0],"tree_param":{"num_deleted":"0","num_feature":"4","num_nodes":"13","size_leaf_vector":"1"}},{"base_weights":[-2.6570484E-2,3.436743E-2,-3.399766E-2],"categories":[],"categories_nodes":[],"categories_segments":[],"categories_sizes":[],"default_left":[0,0,0],"id":102,"left_children":[1,-1,-1],"loss_changes":[2.841101E0,0E0,0E0],"parents":[2147483647,0,0],"right_children":[2,-1,-1],"split_conditions":[3E0,3.436743E-2,-3.399766E-2],"split_indices":[2,0,0],"split_type":[0,0,0],"sum_hessian":[1.1728993E1,5.4563284E0,6.272665E0],"tree_param":{"num_deleted":"0","num_feature":"4","num_nodes":"3","size_leaf_vector":"1"}},{"base_weights":[-2.9784534E-3,-2.9220317E-2,1.109065E-1,3.2564402E-1,-2.8158024E-1,1.5179287E-3,3.6519817E-1,-3.1036293E-2,4.636823E-3,3.5453286E-2,1.858722E-1,-7.614165E-3,2.2700366E-2],"categories":[],"categories_nodes":[],"categories_segments":[],"categories_sizes":[],"default_left":[0,0,0,0,0,0,0,0,0,0,0,0,0],"id":103,"left_children":[1,-1,3,5,7,-1,9,-1,-1,-1,11,-1,-1],"loss_changes":[7.668934E-1,0E0,1.2273458E0,1.0342002E-1,2.6632327E-1,0E0,6.758165E-2,0E0,0E0,0E0,1.8748872E-1,0E0,0E0],"parents":[2147483647,0,0,2,2,3,3,4,4,6,6,10,10],"right_children":[2,-1,4,6,8,-1,10,-1,-1,-1,12,-1,-1],"split_conditions":[1E0,-2.9220317E-2,1.8E0,5.2E0,3.2E0,1.5179287E-3,6.1E0,-3.1036293E-2,4.636823E-3,3.5453286E-2,2.9E0,-7.614165E-3,2.2700366E-2],"split_indices":[3,0,3,0,1,0,0,0,0,0,1,0,0],"split_type":[0,0,0,0,0,0,0,0,0,0,0,0,0],"sum_hessian":[1.5435831E1,2.9613543E0,1.2474477E1,8.173107E0,4.3013687E0,1.1104896E0,7.062618E0,2.9574728E0,1.3438962E0,3.3925965E0,3.6700215E0,1.0983177E0,2.5717037E0],"tree_param":{"num_deleted":"0","num_feature":"4","num_nodes":"13","size_leaf_vector":"1"}},{"base_weights":[2.37298E-2,-3.436586E-1,3.4584904E-1,4.663977E-4,-4.079098E-1,1.3639681E-1,3.595917E-2,-3.5431057E-2,-9.925754E-3,2.61553E-1,-1.1490156E-2,5.526299E-3,2.6435977E-2],"categories":[],"categories_nodes":[],"categories_segments":[],"categories_sizes":[],"default_left":[0,0,0,0,0,0,0,0,0,0,0,0,0],"id":104,"left_children":[1,3,5,-1,7,9,-1,-1,-1,11,-1,-1,-1],"loss_changes":[2.0497072E0,1.8516135E-1,1.9183135E-1,0E0,5.974543E-2,2.2047791E-1,0E0,0E0,0E0,3.970641E-2,0E0,0E0,0E0],"parents":[2147483647,0,0,1,1,2,2,4,4,5,5,9,9],"right_children":[2,4,6,-1,8,10,-1,-1,-1,12,-1,-1,-1],"split_conditions":[4.9E0,2.6E0,5.2E0,4.663977E-4,6E0,6.4E0,3.595917E-2,-3.5431057E-2,-9.925754E-3,2.8E0,-1.1490156E-2,5.526299E-3,2.6435977E-2],"split_indices":[2,1,2,0,0,0,0,0,0,1,0,0,0],"split_type":[0,0,0,0,0,0,0,0,0,0,0,0,0],"sum_hessian":[1.5315755E1,7.123866E0,8.191889E0,1.2453859E0,5.8784804E0,3.9774327E0,4.214456E0,4.184613E0,1.6938673E0,2.8448262E0,1.1326066E0,1.5182492E0,1.326577E0],"tree_param":{"num_deleted":"0","num_feature":"4","num_nodes":"13","size_leaf_vector":"1"}},{"base_weights":[-2.85006E-2,3.3890016E-2,-3.367613E-2],"categories":[],"categories_nodes":[],"categories_segments":[],"categories_sizes":[],"default_left":[0,0,0],"id":105,"left_children":[1,-1,-1],"loss_changes":[2.6514878E0,0E0,0E0],"parents":[2147483647,0,0],"right_children":[2,-1,-1],"split_conditions":[1E0,3.3890016E-2,-3.367613E-2],"split_indices":[3,0,0],"split_type":[0,0,0],"sum_hessian":[1.1121661E1,5.156576E0,5.9650846E0],"tree_param":{"num_deleted":"0","num_feature":"4","num_nodes":"3","size_leaf_vector":"1"}},{"base_weights":[-2.0256802E-3,1.04890175E-1,-3.0471321E-2,-2.8731171E-2,2.7026978E-1,3.771522E-1,1.845967E-2,1.2795796E-3,3.283185E-2,-1.0262818E-2,1.8470451E-2],"categories":[],"categories_nodes":[],"categories_segments":[],"categories_sizes":[],"default_left":[0,0,0,0,0,0,0,0,0,0,0],"id":106,"left_children":[1,3,-1,-1,5,7,9,-1,-1,-1,-1],"loss_changes":[7.302484E-1,1.1830432E0,0E0,0E0,2.7770942E-1,1.534555E-1,1.8240291E-1,0E0,0E0,0E0,0E0],"parents":[2147483647,0,0,1,1,4,4,5,5,6,6],"right_children":[2,4,-1,-1,6,8,10,-1,-1,-1,-1],"split_conditions":[5.2E0,3E0,-3.0471321E-2,-2.8731171E-2,4.9E0,5.2E0,6.4E0,1.2795796E-3,3.283185E-2,-1.0262818E-2,1.8470451E-2],"split_indices":[2,2,0,0,2,0,0,0,0,0,0],"split_type":[0,0,0,0,0,0,0,0,0,0,0],"sum_hessian":[1.4909459E1,1.2376685E1,2.5327737E0,2.7996368E0,9.577048E0,6.373858E0,3.2031903E0,1.1028353E0,5.271023E0,2.1422133E0,1.060977E0],"tree_param":{"num_deleted":"0","num_feature":"4","num_nodes":"11","size_leaf_vector":"1"}},{"base_weights":[2.3928981E-2,-2.9411468E-1,3.49461E-1,-3.4305226E-2,5.1346447E-2,4.144693E-1,6.9124317E-3,1.4731969E-2,-6.581764E-3,3.644189E-2,1.018248E-2],"categories":[],"categories_nodes":[],"categories_segments":[],"categories_sizes":[],"default_left":[0,0,0,0,0,0,0,0,0,0,0],"id":107,"left_children":[1,3,5,-1,7,9,-1,-1,-1,-1,-1],"loss_changes":[1.736979E0,5.044894E-1,9.991455E-2,0E0,9.061385E-2,5.955422E-2,0E0,0E0,0E0,0E0,0E0],"parents":[2147483647,0,0,1,1,2,2,4,4,5,5],"right_children":[2,4,6,-1,8,10,-1,-1,-1,-1,-1],"split_conditions":[1.7E0,6.1E0,3.2E0,-3.4305226E-2,2.9E0,6.6E0,6.9124317E-3,1.4731969E-2,-6.581764E-3,3.644189E-2,1.018248E-2],"split_indices":[3,0,1,0,1,0,0,0,0,0,0],"split_type":[0,0,0,0,0,0,0,0,0,0,0],"sum_hessian":[1.4784255E1,7.526956E0,7.2572994E0,4.8910694E0,2.6358864E0,5.30585E0,1.9514493E0,1.088515E0,1.5473714E0,3.631747E0,1.6741031E0],"tree_param":{"num_deleted":"0","num_feature":"4","num_nodes":"11","size_leaf_vector":"1"}},{"base_weights":[-3.0677704E-2,3.3420563E-2,-3.3369254E-2],"categories":[],"categories_nodes":[],"categories_segments":[],"categories_sizes":[],"default_left":[0,0,0],"id":108,"left_children":[1,-1,-1],"loss_changes":[2.4785247E0,0E0,0E0],"parents":[2147483647,0,0],"right_children":[2,-1,-1],"split_conditions":[3E0,3.3420563E-2,-3.3369254E-2],"split_indices":[2,0,0],"split_type":[0,0,0],"sum_hessian":[1.0557396E1,4.875736E0,5.681659E0],"tree_param":{"num_deleted":"0","num_feature":"4","num_nodes":"3","size_leaf_vector":"1"}},{"base_weights":[-1.6758369E-3,1.0513309E-1,-3.01173E-2,-2.8240774E-2,2.657099E-1,3.698138E-1,2.2376932E-2,1.105077E-3,3.2309942E-2,-9.811953E-3,1.8138357E-2],"categories":[],"categories_nodes":[],"categories_segments":[],"categories_sizes":[],"default_left":[0,0,0,0,0,0,0,0,0,0,0],"id":109,"left_children":[1,3,-1,-1,5,7,9,-1,-1,-1,-1],"loss_changes":[6.993903E-1,1.1005579E0,0E0,0E0,2.5232917E-1,1.4828134E-1,1.7107193E-1,0E0,0E0,0E0,0E0],"parents":[2147483647,0,0,1,1,4,4,5,5,6,6],"right_children":[2,4,-1,-1,6,8,10,-1,-1,-1,-1],"split_conditions":[5.2E0,3E0,-3.01173E-2,-2.8240774E-2,4.9E0,5.2E0,6.4E0,1.105077E-3,3.2309942E-2,-9.811953E-3,1.8138357E-2],"split_indices":[2,2,0,0,2,0,0,0,0,0,0],"split_type":[0,0,0,0,0,0,0,0,0,0,0],"sum_hessian":[1.4386271E1,1.1935444E1,2.4508276E0,2.6478467E0,9.287597E0,6.140678E0,3.1469193E0,1.0820704E0,5.0586076E0,2.091093E0,1.0558262E0],"tree_param":{"num_deleted":"0","num_feature":"4","num_nodes":"11","size_leaf_vector":"1"}},{"base_weights":[2.4901776E-2,-3.307889E-1,3.3175826E-1,-3.276452E-2,5.9074545E-3,2.7515073E-3,3.4741424E-2,1.2309978E-2,-1.0653571E-2],"categories":[],"categories_nodes":[],"categories_segments":[],"categories_sizes":[],"default_left":[0,0,0,0,0,0,0,0,0],"id":110,"left_children":[1,3,5,-1,-1,7,-1,-1,-1],"loss_changes":[1.7767812E0,3.634655E-1,3.7496525E-1,0E0,0E0,1.04855984E-1,0E0,0E0,0E0],"parents":[2147483647,0,0,1,1,2,2,5,5],"right_children":[2,4,6,-1,-1,8,-1,-1,-1],"split_conditions":[4.9E0,1.7E0,1.8E0,-3.276452E-2,5.9074545E-3,1.6E0,3.4741424E-2,1.2309978E-2,-1.0653571E-2],"split_indices":[2,3,3,0,0,3,0,0,0],"split_type":[0,0,0,0,0,0,0,0,0],"sum_hessian":[1.4273481E1,6.5745926E0,7.698889E0,5.169154E0,1.4054383E0,2.4894567E0,5.209432E0,1.1141698E0,1.3752868E0],"tree_param":{"num_deleted":"0","num_feature":"4","num_nodes":"9","size_leaf_vector":"1"}},{"base_weights":[-3.1716444E-2,3.2959443E-2,-3.3038255E-2],"categories":[],"categories_nodes":[],"categories_segments":[],"categories_sizes":[],"default_left":[0,0,0],"id":111,"left_children":[1,-1,-1],"loss_changes":[2.3135214E0,0E0,0E0],"parents":[2147483647,0,0],"right_children":[2,-1,-1],"split_conditions":[3E0,3.2959443E-2,-3.3038255E-2],"split_indices":[2,0,0],"split_type":[0,0,0],"sum_hessian":[1.0006156E1,4.6135554E0,5.3926005E0],"tree_param":{"num_deleted":"0","num_feature":"4","num_nodes":"3","size_leaf_vector":"1"}},{"base_weights":[-1.7024466E-3,-2.7749278E-2,1.0304282E-1,3.3869582E-1,-2.1799843E-1,3.53751E-2,9.876367E-2,-3.1495732E-1,5.443178E-3,-7.5074593E-3,1.5252128E-2,-3.1750455E-2,7.669548E-4],"categories":[],"categories_nodes":[],"categories_segments":[],"categories_sizes":[],"default_left":[0,0,0,0,0,0,0,0,0,0,0,0,0],"id":112,"left_children":[1,-1,3,5,7,-1,9,11,-1,-1,-1,-1,-1],"loss_changes":[6.1085725E-1,0E0,1.0075089E0,1.9297713E-1,1.8718383E-1,0E0,1.02360085E-1,1.6506204E-1,0E0,0E0,0E0,0E0,0E0],"parents":[2147483647,0,0,2,2,3,3,4,4,6,6,7,7],"right_children":[2,-1,4,6,8,-1,10,12,-1,-1,-1,-1,-1],"split_conditions":[1E0,-2.7749278E-2,1.7E0,6.1E0,3.2E0,3.53751E-2,2.9E0,6.6E0,5.443178E-3,-7.5074593E-3,1.5252128E-2,-3.1750455E-2,7.669548E-4],"split_indices":[3,0,3,0,1,0,1,0,0,0,0,0,0],"split_type":[0,0,0,0,0,0,0,0,0,0,0,0,0],"sum_hessian":[1.3846699E1,2.5053868E0,1.1341311E1,6.5087333E0,4.8325787E0,3.56638E0,2.9423532E0,3.5605717E0,1.2720069E0,1.0290047E0,1.9133486E0,2.4441128E0,1.1164589E0],"tree_param":{"num_deleted":"0","num_feature":"4","num_nodes":"13","size_leaf_vector":"1"}},{"base_weights":[2.5424765E-2,-2.820036E-1,3.3480453E-1,-3.372098E-2,5.6163855E-2,4.024617E-1,5.6145173E-3,1.4367486E-2,-5.888366E-3,3.568821E-2,9.041095E-3],"categories":[],"categories_nodes":[],"categories_segments":[],"categories_sizes":[],"default_left":[0,0,0,0,0,0,0,0,0,0,0],"id":113,"left_children":[1,3,5,-1,7,9,-1,-1,-1,-1,-1],"loss_changes":[1.4948338E0,4.7461283E-1,1.0697788E-1,0E0,7.915993E-2,6.5877914E-2,0E0,0E0,0E0,0E0,0E0],"parents":[2147483647,0,0,1,1,2,2,4,4,5,5],"right_children":[2,4,6,-1,8,10,-1,-1,-1,-1,-1],"split_conditions":[1.7E0,6.1E0,3.2E0,-3.372098E-2,2.9E0,6.6E0,5.6145173E-3,1.4367486E-2,-5.888366E-3,3.568821E-2,9.041095E-3],"split_indices":[3,0,1,0,1,0,0,0,0,0,0],"split_type":[0,0,0,0,0,0,0,0,0,0,0],"sum_hessian":[1.3723864E1,6.928024E0,6.7958393E0,4.4118004E0,2.5162237E0,4.95731E0,1.838529E0,1.0440773E0,1.4721463E0,3.3876228E0,1.5696874E0],"tree_param":{"num_deleted":"0","num_feature":"4","num_nodes":"11","size_leaf_vector":"1"}},{"base_weights":[-3.3716243E-2,3.2497186E-2,-3.2721266E-2],"categories":[],"categories_nodes":[],"categories_segments":[],"categories_sizes":[],"default_left":[0,0,0],"id":114,"left_children":[1,-1,-1],"loss_changes":[2.1637788E0,0E0,0E0],"parents":[2147483647,0,0],"right_children":[2,-1,-1],"split_conditions":[3E0,3.2497186E-2,-3.2721266E-2],"split_indices":[2,0,0],"split_type":[0,0,0],"sum_hessian":[9.50372E0,4.3643613E0,5.1393585E0],"tree_param":{"num_deleted":"0","num_feature":"4","num_nodes":"3","size_leaf_vector":"1"}},{"base_weights":[-1.1619024E-3,1.0730285E-1,-2.9636826E-2,-2.7257657E-2,2.599204E-1,3.574217E-1,3.292055E-2,4.7086095E-4,3.149709E-2,-8.892679E-3,1.780998E-2],"categories":[],"categories_nodes":[],"categories_segments":[],"categories_sizes":[],"default_left":[0,0,0,0,0,0,0,0,0,0,0],"id":115,"left_children":[1,3,-1,-1,5,7,9,-1,-1,-1,-1],"loss_changes":[6.573005E-1,9.6154714E-1,0E0,0E0,2.0286089E-1,1.4410508E-1,1.5257157E-1,0E0,0E0,0E0,0E0],"parents":[2147483647,0,0,1,1,4,4,5,5,6,6],"right_children":[2,4,-1,-1,6,8,10,-1,-1,-1,-1],"split_conditions":[5.2E0,3E0,-2.9636826E-2,-2.7257657E-2,4.9E0,5.2E0,6.4E0,4.7086095E-4,3.149709E-2,-8.892679E-3,1.780998E-2],"split_indices":[2,2,0,0,2,0,0,0,0,0,0],"split_type":[0,0,0,0,0,0,0,0,0,0,0],"sum_hessian":[1.3388765E1,1.1069148E1,2.3196177E0,2.371885E0,8.697263E0,5.682123E0,3.0151396E0,1.0253623E0,4.656761E0,1.973711E0,1.0414287E0],"tree_param":{"num_deleted":"0","num_feature":"4","num_nodes":"11","size_leaf_vector":"1"}},{"base_weights":[2.5979323E-2,-2.736777E-1,3.2473513E-1,-3.3266675E-2,5.5904258E-2,3.922761E-1,5.32311E-3,1.3897199E-2,-5.5653304E-3,3.496885E-2,8.657896E-3],"categories":[],"categories_nodes":[],"categories_segments":[],"categories_sizes":[],"default_left":[0,0,0,0,0,0,0,0,0,0,0],"id":116,"left_children":[1,3,5,-1,7,9,-1,-1,-1,-1,-1],"loss_changes":[1.3668673E0,4.5420825E-1,1.0251552E-1,0E0,7.2616376E-2,6.4670205E-2,0E0,0E0,0E0,0E0,0E0],"parents":[2147483647,0,0,1,1,2,2,4,4,5,5],"right_children":[2,4,6,-1,8,10,-1,-1,-1,-1,-1],"split_conditions":[1.7E0,6.1E0,3.2E0,-3.3266675E-2,2.9E0,6.6E0,5.32311E-3,1.3897199E-2,-5.5653304E-3,3.496885E-2,8.657896E-3],"split_indices":[3,0,1,0,1,0,0,0,0,0,0],"split_type":[0,0,0,0,0,0,0,0,0,0,0],"sum_hessian":[1.3275396E1,6.6696095E0,6.605787E0,4.172926E0,2.4966831E0,4.7860713E0,1.8197155E0,1.0391228E0,1.4575604E0,3.2369132E0,1.549158E0],"tree_param":{"num_deleted":"0","num_feature":"4","num_nodes":"11","size_leaf_vector":"1"}},{"base_weights":[-3.580462E-2,3.2037918E-2,-3.2412224E-2],"categories":[],"categories_nodes":[],"categories_segments":[],"categories_sizes":[],"default_left":[0,0,0],"id":117,"left_children":[1,-1,-1],"loss_changes":[2.0255728E0,0E0,0E0],"parents":[2147483647,0,0],"right_children":[2,-1,-1],"split_conditions":[1E0,3.2037918E-2,-3.2412224E-2],"split_indices":[3,0,0],"split_type":[0,0,0],"sum_hessian":[9.032247E0,4.130161E0,4.902086E0],"tree_param":{"num_deleted":"0","num_feature":"4","num_nodes":"3","size_leaf_vector":"1"}},{"base_weights":[-8.5189746E-4,-2.6765948E-2,9.804089E-2,2.9301906E-1,-2.5166345E-1,3.4090359E-4,3.340262E-1,6.816467E-3,-2.9378036E-2,3.309791E-2,1.6434598E-1,-7.198309E-3,2.0469736E-2],"categories":[],"categories_nodes":[],"categories_segments":[],"categories_sizes":[],"default_left":[0,0,0,0,0,0,0,0,0,0,0,0,0],"id":118,"left_children":[1,-1,3,5,7,-1,9,-1,-1,-1,11,-1,-1],"loss_changes":[5.2593225E-1,0E0,8.713106E-1,9.278637E-2,2.6227584E-1,0E0,5.4276943E-2,0E0,0E0,0E0,1.4750704E-1,0E0,0E0],"parents":[2147483647,0,0,2,2,3,3,4,4,6,6,10,10],"right_children":[2,-1,4,6,8,-1,10,-1,-1,-1,12,-1,-1],"split_conditions":[1E0,-2.6765948E-2,1.8E0,5.2E0,6E0,3.4090359E-4,6.1E0,6.816467E-3,-2.9378036E-2,3.309791E-2,2.9E0,-7.198309E-3,2.0469736E-2],"split_indices":[3,0,3,0,0,0,0,0,0,0,1,0,0],"split_type":[0,0,0,0,0,0,0,0,0,0,0,0,0],"sum_hessian":[1.2943874E1,2.2467E0,1.0697174E1,6.9720125E0,3.7251613E0,1.0059905E0,5.966022E0,1.182865E0,2.5422964E0,2.674364E0,3.291658E0,1.0030359E0,2.2886221E0],"tree_param":{"num_deleted":"0","num_feature":"4","num_nodes":"13","size_leaf_vector":"1"}},{"base_weights":[2.6809815E-2,-2.4945545E-1,3.9024153E-1,-3.251312E-2,9.864164E-2,-6.42675E-4,3.576516E-2,9.612408E-3,7.074384E-4],"categories":[],"categories_nodes":[],"categories_segments":[],"categories_sizes":[],"default_left":[0,0,0,0,0,0,0,0,0],"id":119,"left_children":[1,3,5,-1,7,-1,-1,-1,-1],"loss_changes":[1.4870479E0,5.8565223E-1,2.2407055E-1,0E0,8.655623E-3,0E0,0E0,0E0,0E0],"parents":[2147483647,0,0,1,